{"trainer":{"next_generation":{"0":{"layers":[{"neurons":[{"last_weight_count":4,"weights":[-2.3558048442249744,-25.589823034078275,-1.670413945184311,1.7618837641541916],"bias":11.798106317577112},{"last_weight_count":4,"weights":[-0.4385388230393042,144.50562363268799,-5.758359113187133,0.5301693028405151],"bias":-7.110236494380344},{"last_weight_count":4,"weights":[17.479273602491492,0.4397981066496122,3.6077661115047297,1.2599141285574016],"bias":-2.0418514274198922},{"last_weight_count":4,"weights":[-1.2489208107750205,2.2956631512081107,3.163800001106849,2.141731005922769],"bias":7.588740323927009}]},{"neurons":[{"last_weight_count":4,"weights":[-4.493764782626843,3.2749698032071737,3.0500821161972285,-2.0505633193534027],"bias":-4.935132521863447},{"last_weight_count":4,"weights":[1.9265009221010758,85.36066813391022,-4.107429173331433,8.216546728274528],"bias":-131.2596960734335},{"last_weight_count":4,"weights":[-11.833768118453285,-55.15220877518906,-0.6872155999962735,-1.4449662200465023],"bias":-1.362002335686097},{"last_weight_count":4,"weights":[-0.4525003528843593,-1.4658129095419254,-0.12418445865578577,38.533170881205734],"bias":1.4433675333051863},{"last_weight_count":4,"weights":[292.9515235593719,-4.4237826411853804,1.080599677341751,1.651944097799499],"bias":4.478878413699694},{"last_weight_count":4,"weights":[-0.7246751891660557,7.322628013733095,-1.4768604884645111,6.119774800298247],"bias":2.8220728115596394},{"last_weight_count":4,"weights":[1.0101131054555654,19.015289212447822,-1.190011391856465,-5.574536256086637],"bias":-5.358579859039906}]},{"neurons":[{"last_weight_count":7,"weights":[-0.29023757795502614,2.9864707093490184,0.9825219823068241,4.773089307030177,-1.5383404481201848,31.740391342410103,5.452659181513356],"bias":17.449125804957177},{"last_weight_count":7,"weights":[-250.34388364694004,31.622918854635692,-551.0060871272441,-0.480002422082694,2.4313846427173154,-16.106948194618,11.682619158767139],"bias":4.298193670729903},{"last_weight_count":7,"weights":[0.27069654665108933,2.697326870167689,-25.897363844152288,4.888517899172505,7.243441058033793,-1.0404548153513655,3.009471867502833],"bias":-62.52732991043791},{"last_weight_count":7,"weights":[-0.1821329853713439,-218.94146231495256,-13.34379196476194,2.9620623139885933,0.46479885687276473,-1.8909936711375217,-12.147758885802611],"bias":-8.024658807300648},{"last_weight_count":7,"weights":[-4.209051589325098,0.5636310417379761,15.46434349837488,5.627057129273967,-0.5104467558736566,-6.1454663983809406,18.743855189037422],"bias":-12.2803062917488},{"last_weight_count":7,"weights":[-2.650013151220196,3.8438052193349694,-1.5256398535960902,25.155014226180175,1.0083069823435993,-0.06643651188212277,-1.4090194187870682],"bias":49.551230986559396},{"last_weight_count":7,"weights":[0.9808682929035029,4.638871343034028,-0.4286794345740542,-1.6323766500417716,-0.9451732643806781,-13.83751912157623,-1.5908747861464136],"bias":-7.234351937854485},{"last_weight_count":7,"weights":[9.26044677616031,0.6386828244377426,0.6781859030598629,0.3875013551398913,0.4609544680409493,19.98829166080898,6.076947443520423],"bias":26.921481281794982},{"last_weight_count":7,"weights":[-1.4076950193046884,-4.12109068631289,-73.11998278513299,25.793806879238836,-14.393423280565711,-3.320082290295633,-13.468256842519809],"bias":6.09409780704879}]},{"neurons":[{"last_weight_count":9,"weights":[-0.06997701738714872,2.743145728259377,0.7922154367736591,22.091515420340713,3.3388367802608463,3.9812338877714923,-3.2859958758732155,13.158270978637313,4.838438723365514],"bias":0.428299307388354},{"last_weight_count":9,"weights":[2.0188529833208455,-9.3049480160991,1.0742037727835094,-4.5404562988709865,4.316665029523483,-9.341490366121468,-12.101359189262293,3.5038937232241048,1.1078221059574935],"bias":137.05049059191884},{"last_weight_count":9,"weights":[4.743157323302783,-10.94281017783131,11.703018110082008,12.547626164390154,0.47659766195197195,3.1250615944270943,3.144668268298756,5.380415024564821,22.292620733929354],"bias":5.818899952948787},{"last_weight_count":9,"weights":[-2.947411839490166,56.9015555650564,15.405636392509265,-12.257526798975226,-0.15789096643114825,9.964527716037026,-2.5213107743078087,-0.7889824354013392,-15.161649393667465],"bias":-8.132658725582488},{"last_weight_count":9,"weights":[1.6422305257398764,12.134980007335558,7.106162551353753,3.4908422849104372,-1.4305131235949429,3.688670941352966,-26.750828836079815,-119.81443659394284,-0.30927548241115127],"bias":2.1783553882859397},{"last_weight_count":9,"weights":[1.2157332741741438,-90.01042891412749,57.107984479396876,-4.111967533725949,-0.6398337875817347,2.7946819542978605,-0.317256670480436,-2.1520106996691144,8.493458498058395],"bias":0.6100826213677397},{"last_weight_count":9,"weights":[-1.6379703225111513,-1.041004275733408,3.9757324353099794,1.3556076962939958,-6.768616149504872,1.0478403795804598,21.535363875875312,5.760917832394824,0.5460552413419829],"bias":55.5107616697118},{"last_weight_count":9,"weights":[-0.9731253586339585,1.9938729066627099,-27.583026260723845,24.69275349964894,-4.809156468799206,1.7739205098642286,3.828365499266268,-36.14036027691228,0.6639309530047534],"bias":2.0734823298550937},{"last_weight_count":9,"weights":[-4.462619290558641,-6.12879141989891,-8.043500974205815,23.757266261813974,-19.577410325076514,0.15927945044234598,3.950304184345077,-13.594616333184318,12.166331440896633],"bias":1.6839742763532715},{"last_weight_count":9,"weights":[-0.4006546330469447,2.555923407189574,-1.9980326429231057,-8.499276776011472,-3.5150796653563954,0.5950346099520529,17.670481133122326,0.9805606224619702,-1.3140479698244192],"bias":-1.0017597824196476},{"last_weight_count":9,"weights":[8.425622154378875,-1.69454866555023,-2.3444386995423954,-0.31082252403992705,9.804972004509125,0.6604716121230826,-7.072651419267134,-2.9901617513859837,91.99642092458794],"bias":-92.21005369961073},{"last_weight_count":9,"weights":[-117.25928945838946,-62.04698321839374,0.8296880442310767,0.3180628196032774,14.291788942429857,-2.623286942849136,1.5998690935185083,-0.06860962676042417,-15.939410024971822],"bias":-2.428669486432014},{"last_weight_count":9,"weights":[2.457232984244701,-0.23463212389479332,-3.6952073778651067,17.232020109703935,13.922459354540864,-32.377822877646466,0.3215429081539453,-1.2730437237287586,-1.9362842040635984],"bias":-4.102718965771592},{"last_weight_count":9,"weights":[-2.643782236438761,-9.499123100955527,1.7501760235752413,-116.02687444099764,4.3513506397946,2.0197861117127096,-16.137967125861753,0.3162656305537724,42.957292889046094],"bias":-1.0553036644806966},{"last_weight_count":9,"weights":[2.5190137422687258,34.177249629960166,-0.28939156906875246,-14.559158105925363,0.5199796835147671,5.323858646364614,2.222673385456066,-2.3615473026193956,-2.2440959011608737],"bias":0.11401404107427968},{"last_weight_count":9,"weights":[1.0778339557993573,38.58048589357696,0.24299028492346753,-4.130109897776951,-26.425909249199957,-0.7977002526062349,4.408637397157486,9.428759427130462,0.42933505408108297],"bias":-0.32913336716412156},{"last_weight_count":9,"weights":[-10.503638873267455,3.45122382032762,-54.81718898660803,-6.193051939033365,-213.9367095890923,-9.920955318799416,-0.9519203392096969,0.020786820242689144,22.014494591325157],"bias":0.07436004676788767},{"last_weight_count":9,"weights":[3.7408700456918766,4.773901093019292,111.09159428176602,1.7994392016429805,-0.23829902111881618,11.343129830549227,-0.277242187654455,-3.449975744970393,-0.9984428187274011],"bias":-3.3001910226100617},{"last_weight_count":9,"weights":[0.3306562873675525,36.897387589263516,-0.7943758481111003,22.37993067329673,6.062193187588669,17.63183761796073,-2.588685469949272,-0.6653348201146972,-21.90458248457881],"bias":142.52644113444194},{"last_weight_count":9,"weights":[5.163766312282653,-8.00606624962414,1.5386447696184171,-1.262104335233902,-0.3086084745040809,0.5754261485707589,12.680277111995345,5.539626668924965,-1.4045368546423525],"bias":-9.165364357986054}]},{"neurons":[{"last_weight_count":20,"weights":[-8.14033445572571,8.063307278033394,0.7996251102507427,-0.6744534233515475,-8.285671287503588,-3.2147541783573845,-0.0406119680671964,1.614307570280553,0.4119859389951085,-24.777193950154015,-3.499370503579318,-15.457853686427876,45.46086000491216,-0.29307897308898084,4.1795804977970805,-1.6791063876452486,-18.37306027782962,-7.079971113767776,-5.883752239012393,0.412380192517602],"bias":-2.416887649517287},{"last_weight_count":20,"weights":[-1.7610296446661846,-1.2759084270107695,-27.23974106866265,0.49774917245141814,4.049101730852151,-7.828934298018835,1.3849790798571382,-3.7266371629082244,4.909954149030355,-2.4346671374573132,8.640977722950378,0.007703168157743092,1.5340204698614401,3.7044384362872385,-3.9824670904522566,-0.549592026795805,18.273853172413745,2.2207530974275467,14.804268612156008,29.76422321147102],"bias":8.684695150597669},{"last_weight_count":20,"weights":[-4.78421705527604,10.074520548683136,4.804669502202464,-1.4449288994150558,-0.8231662187134035,-9.198251155156903,-1.0376514944737703,-68.25601069216286,45.78514380683452,-0.8840397297521008,-1.6473626288605518,7.669627803721094,1.9667376270914956,-3.1639208156622813,1.6631712732318424,2.9433435795060054,-0.17619414497672184,1.9396911970848145,-1.2197280246880398,13.432137579815738],"bias":-49.45438590236672},{"last_weight_count":20,"weights":[-0.4061850910407545,2.1254114764114935,-1.496613727647975,-73.5387870876344,0.6605607014727646,10.956826728857767,-0.46794210663660635,-0.10003291367435171,62.84920277231557,0.20904673291369852,138.73143923188374,2.071273889073497,6.801321680625986,9.473104905941236,2.0161252646336845,-4.350387585741259,0.9672983265171087,16.378741932686292,-75.2679399882228,0.7807803854675873],"bias":0.0645306323753291},{"last_weight_count":20,"weights":[-1.4299287936367626,-159.97506733658778,-3.6619773142247416,5.278229413304004,9.034766465373437,12.92009049861121,3.6120804502144823,-0.6800184716429216,0.5066470174740109,-10.03930980659453,-5.270111479330206,-4.451183055906416,-9.346262501966054,4.682939211351375,-7.16478240056603,-1.7524179236497919,16.360899052253295,5.395543516566369,-21.66112714951588,-4.693344320008579],"bias":1.3990439712690468},{"last_weight_count":20,"weights":[-0.9523626548864422,10.579751908694707,-40.85996330486724,32.099462311967685,-1.3579720718275599,1.996963477518867,6.700729125447202,-0.09456735818868028,95.0338838646307,6.334768613473266,-2.3216894356765176,8.249979518621846,0.6734886357306306,-1.9660385209146045,-0.18384810944978322,-1.5474623088764312,-1.5459042918779375,10.472370925868677,-12.651123284387547,-7.532072286845647],"bias":1.5059337870775242},{"last_weight_count":20,"weights":[2.055659121890039,22.92900357231893,1.8008857548679598,-2.3911222758275477,1.1641668199344168,-16.302204463342136,0.6049391300891129,3.094762798198896,68.56568920907247,5.08960198746611,-6.677287090049715,4.333472561338859,3.4684250910426555,7.1299246452916485,-5.351271375283635,-2.3817113744315623,24.45497158206714,-12.298245019001177,19.389545992263958,9.31668339560725],"bias":0.2616389897403555},{"last_weight_count":20,"weights":[4.3364769061741075,-15.657036175011571,69.11981822666836,5.406268761372906,-0.2999134756095514,9.289903400403553,13.447047857901689,1.4647857227369447,-3.393872391863787,2.6721437325587103,-0.3532955361868938,0.2883949649177854,-4.99842240514645,-2.143004156239142,5.174257619308721,-1.325980062997561,-1.0907098887613085,1.0147213686340737,19.232439057494076,-1.304950632665931],"bias":-0.6932510859645424},{"last_weight_count":20,"weights":[1.5313154749317035,-52.21184059806118,-114.4227627574568,0.15691146764057165,-10.600363216149061,-0.4700183171418756,-2.3000633736778107,2.6900499922019994,-12.99688521135062,14.087425179885763,1.2197434774138838,-42.06999551982606,-0.7107929997198968,1.2251410203668496,-9.609974473331125,-1.9384838606752415,-15.736916795126502,1.2956074147730112,46.47635067843514,-8.566780583701181],"bias":-0.2949522662103841}]},{"neurons":[{"last_weight_count":9,"weights":[7.532752777493662,1.5645931061747722,5.603032693498101,-8.093851586044075,-1.6464070831257511,-4.954828297702509,-5.980724533419554,-0.5349282880361118,69.07287405130671],"bias":-1.0270154557312132},{"last_weight_count":9,"weights":[-7.409390987256758,-2.456403235529098,1.8077427079196804,-1.7046021635339152,0.11629186010921547,-1.4343024102400346,-2.0016401914719957,3.892639801418069,-1.3659172108597837],"bias":-2.511963222532716},{"last_weight_count":9,"weights":[-2.2846867222607177,-0.13812164721016712,12.655116587087864,1.4644500742466338,6.4995244286443725,1.439022186948584,0.5057431310591769,5.918752447009764,-1.3924411311240434],"bias":-0.9126403900193478},{"last_weight_count":9,"weights":[-1.1869413803146607,0.017442419776168443,-22.730850958170212,16.86631705194069,-0.8421653452627094,-9.109999653115317,-120.15548783886058,2.653857936768958,0.9048345005312491],"bias":-1.2215899719578531},{"last_weight_count":9,"weights":[8.857658607953981,2.657697502236478,-6.176586468949249,0.31244347501515324,-0.35834810865219874,-0.07270958860235108,-2.3262938876033137,-27.72706159308721,7.980906612397552],"bias":-0.35642361324963373},{"last_weight_count":9,"weights":[1.1867268029450444,71.23005074296265,-2.6181445945806052,2.185662949733832,-2.1126665774866087,4.352151948356777,128.4704743481048,2.54400223013835,-3.1165451280126444],"bias":54.34371644581676},{"last_weight_count":9,"weights":[-2.3171958797059484,0.6927529714396816,1.2966729796429906,-1.498573166425814,-16.581915514897474,-0.700046696048569,2.121262639153766,-3.2583087621565285,-0.2039004110807908],"bias":3.505828580966763}]},{"neurons":[{"last_weight_count":7,"weights":[-1.000733923487541,7.464717278467799,-24.49964065774818,-36.10927387858096,1.1684521728053046,1.0652067108937684,2.821524256635956],"bias":2.6471965003677727},{"last_weight_count":7,"weights":[2.1136792443180683,5.54089577353216,7.067007302545396,-27.28899590109291,11.55506288300957,57.236422551263644,11.851079556668102],"bias":-0.23531447263065203},{"last_weight_count":7,"weights":[-1.3592733360783962,-0.4589790552204823,-0.21737278267390242,-3.1406472299647983,-1.2750408937349722,-1.2898106485943523,1.2857188083690667],"bias":0.2143729416157755},{"last_weight_count":7,"weights":[-0.464064561434098,-2.3952121229429655,-0.658898440872361,-0.8878868861200261,-1.0676841768484904,-2.3423511553917815,-3.531911536682446],"bias":2.7687651741953627},{"last_weight_count":7,"weights":[14.18155949552336,1.3960020215547626,-22.33473452277847,-3.3482596236403834,-3.05289526999096,14.583148897942126,0.9376602603598135],"bias":0.48022380625704014}]},{"neurons":[{"last_weight_count":5,"weights":[8.7452439269555,1.8439034809054615,-0.6913670265465319,-9.616890202523651,-0.9272181618819078],"bias":-0.1411161868451797},{"last_weight_count":5,"weights":[-4.213928515917829,4.396126532186324,0.006012581649469342,4.26667750396304,3.426330800753554],"bias":1.3903792340127898}]}]},"1":{"layers":[{"neurons":[{"last_weight_count":4,"weights":[-3.8818870841383255,-25.589823034078275,-1.670413945184311,1.7618837641541916],"bias":11.798106317577112},{"last_weight_count":4,"weights":[-0.4385388230393042,191.25559936979897,-5.758359113187133,0.5301693028405151],"bias":-7.126804058535059},{"last_weight_count":4,"weights":[17.479273602491492,0.4397981066496122,3.6077661115047297,1.2599141285574016],"bias":-2.2226062350556246},{"last_weight_count":4,"weights":[-1.2489208107750205,2.2908939893963156,3.163800001106849,2.141731005922769],"bias":11.378459047364325}]},{"neurons":[{"last_weight_count":4,"weights":[-4.493764782626843,3.2749698032071737,3.0500821161972285,-2.0505633193534027],"bias":-4.935132521863447},{"last_weight_count":4,"weights":[1.9265009221010758,85.36066813391022,-4.107429173331433,8.216546728274528],"bias":-131.2596960734335},{"last_weight_count":4,"weights":[-11.833768118453285,-55.15220877518906,-0.6872155999962735,-1.4449662200465023],"bias":-1.362002335686097},{"last_weight_count":4,"weights":[-0.3696846752303133,-1.3125880543419863,0.0365368433833764,26.53729581546499],"bias":1.4433675333051863},{"last_weight_count":4,"weights":[292.980736751563,8.406340832544112,1.080599677341751,-0.9199487631992126],"bias":4.478878413699694},{"last_weight_count":4,"weights":[-0.7246751891660557,-5.692834281447177,1.2194380039439536,-10.01782656536907],"bias":-4.9355728157270615},{"last_weight_count":4,"weights":[1.0101131054555654,19.015289212447822,-1.247645226740182,-5.574536256086637],"bias":-5.303041584984446}]},{"neurons":[{"last_weight_count":7,"weights":[0.30377423192203773,-3.365972092158071,0.9825219823068241,4.773089307030177,2.931949147605652,31.740391342410103,5.452659181513356],"bias":19.86802404497787},{"last_weight_count":7,"weights":[-250.25084033013695,31.622918854635692,-551.0060871272441,-0.480002422082694,3.68232579949024,-16.106948194618,11.682619158767139],"bias":-2.6783722171236493},{"last_weight_count":7,"weights":[0.27069654665108933,2.697326870167689,13.698264189654545,-3.817308549469827,7.243441058033793,-1.0404548153513655,2.9471045252580668],"bias":-62.52732991043791},{"last_weight_count":7,"weights":[-0.1518650410116187,394.84593098342873,-13.34379196476194,2.67818975380074,0.46479885687276473,-1.8909936711375217,-20.24403173075404],"bias":-5.598082288618033},{"last_weight_count":7,"weights":[-4.209051589325098,0.5636310417379761,15.46434349837488,-4.682400661095094,-0.5104467558736566,3.8547136856153084,18.658831334800837],"bias":-12.2803062917488},{"last_weight_count":7,"weights":[-2.650013151220196,-2.8937976454276786,-1.5256398535960902,25.2816737314887,1.0083069823435993,0.12869662746246213,-1.4090194187870682],"bias":49.551230986559396},{"last_weight_count":7,"weights":[0.9808682929035029,-14.684492813062095,-0.4286794345740542,-1.6323766500417716,-0.9451732643806781,-13.83751912157623,-1.0924102300958052],"bias":-7.048715566345282},{"last_weight_count":7,"weights":[9.26044677616031,0.7090502698406775,0.6781859030598629,0.4861148227571073,0.18999650953681677,-14.879026500515625,3.987479753840903],"bias":26.89396310377263},{"last_weight_count":7,"weights":[-1.4076950193046884,-4.12109068631289,-73.11998278513299,25.793806879238836,-14.393423280565711,-3.320082290295633,-13.468256842519809],"bias":6.09409780704879}]},{"neurons":[{"last_weight_count":9,"weights":[-0.06997701738714872,2.743145728259377,0.7922154367736591,22.12926834204907,3.3388367802608463,3.9812338877714923,-3.2859958758732155,10.275537289183571,4.700467348921638],"bias":0.428299307388354},{"last_weight_count":9,"weights":[-3.8222894780219727,-9.3049480160991,1.0742037727835094,-4.266271550736131,7.3141816982785945,-14.855647148058665,-9.421303466670414,3.6992104163465522,1.1078221059574935],"bias":-75.82326143043933},{"last_weight_count":9,"weights":[4.743157323302783,-11.070587766862898,11.703018110082008,12.547626164390154,0.47659766195197195,3.1250615944270943,3.144668268298756,3.3727164120957185,22.120677788247725],"bias":3.630552821771981},{"last_weight_count":9,"weights":[5.376178758463759,56.9015555650564,11.713289620566504,-12.311220858526099,-0.10501611315494533,-9.606653383422056,-2.5213107743078087,-0.7889824354013392,-15.108891874879152],"bias":-8.244699738494015},{"last_weight_count":9,"weights":[1.6422305257398764,-13.065202455287487,-8.081261149878616,3.4908422849104372,-1.4305131235949429,-4.728719119054199,-26.750828836079815,-119.81443659394284,-0.2901146973395541],"bias":2.1783553882859397},{"last_weight_count":9,"weights":[-1.3985845219932824,110.56644675073306,-35.725071143450755,-4.111967533725949,-0.6398337875817347,2.7946819542978605,-0.317256670480436,-2.1520106996691144,8.493458498058395],"bias":0.6100826213677397},{"last_weight_count":9,"weights":[-1.6379703225111513,1.3510235979090377,3.9757324353099794,1.3556076962939958,-6.768616149504872,1.0478403795804598,21.535363875875312,3.338461112305148,0.5460552413419829],"bias":55.5107616697118},{"last_weight_count":9,"weights":[-0.9731253586339585,1.9938729066627099,-27.393092735926853,24.69275349964894,-4.669903517831357,1.5798973270450167,3.828365499266268,-69.28787025623198,0.6593899928838731],"bias":2.0734823298550937},{"last_weight_count":9,"weights":[-4.462619290558641,4.2584753060737475,-8.113781974420977,23.757266261813974,-19.577410325076514,0.15927945044234598,3.9560517090658567,-13.594616333184318,12.166331440896633],"bias":1.6839742763532715},{"last_weight_count":9,"weights":[-0.20798305138865633,2.555923407189574,-1.9852376818832969,16.142819723247246,-3.5150796653563954,0.5950346099520529,17.670481133122326,1.0236273816409551,-1.3140479698244192],"bias":-1.0017597824196476},{"last_weight_count":9,"weights":[-11.2623042109799,0.9603999497161085,-2.3444386995423954,0.5936778909134954,9.804972004509125,0.6604716121230826,12.359159806141855,-2.9901617513859837,91.99642092458794],"bias":-92.21005369961073},{"last_weight_count":9,"weights":[-117.25928945838946,-62.04698321839374,0.8296880442310767,0.3180628196032774,14.291788942429857,-2.623286942849136,-1.3758604708733253,-0.06860962676042417,-10.193865983009346],"bias":-2.3898392571249296},{"last_weight_count":9,"weights":[2.457232984244701,0.4511251332062417,-3.6952073778651067,17.163471156363784,13.922459354540864,-32.39698163644835,0.3215429081539453,-1.2730437237287586,1.6030211837269066],"bias":-4.102718965771592},{"last_weight_count":9,"weights":[-2.6625772499152487,-9.499123100955527,1.5699806839249262,-116.02687444099764,4.3513506397946,2.0197861117127096,-16.137967125861753,0.3162656305537724,23.122995221898535],"bias":-1.0553036644806966},{"last_weight_count":9,"weights":[2.5190137422687258,34.177249629960166,-0.28939156906875246,-14.559158105925363,0.5199796835147671,5.203554666801497,-1.1133420429053937,-2.3615473026193956,-2.1304077082636503],"bias":0.25674736314023006},{"last_weight_count":9,"weights":[0.657185406199911,38.58048589357696,0.24299028492346753,-4.130109897776951,-26.576736342109534,-0.7977002526062349,4.1042861539217945,-13.357941519068104,0.42933505408108297],"bias":-0.32913336716412156},{"last_weight_count":9,"weights":[-10.503638873267455,3.45122382032762,62.476374615319166,-6.193051939033365,-213.9367095890923,-9.920955318799416,-0.9519203392096969,-0.03197641208141763,22.014494591325157],"bias":0.07436004676788767},{"last_weight_count":9,"weights":[-2.5474321719120607,2.4478297267190143,111.09159428176602,1.7994392016429805,-0.42344270569748765,11.343129830549227,-0.277242187654455,-3.2894368888684142,-0.9984428187274011],"bias":-3.3001910226100617},{"last_weight_count":9,"weights":[0.3306562873675525,36.897387589263516,-0.7762543865939062,22.37993067329673,6.062193187588669,17.585692163775366,-1.4274247059580776,-0.4417036247954757,43.60146136233426],"bias":142.7063018530707},{"last_weight_count":9,"weights":[5.163766312282653,-8.00606624962414,1.7170358869968076,-1.262104335233902,-0.3086084745040809,-0.36776445674774516,12.752492326744207,5.539626668924965,-1.2998250695010636],"bias":-9.165364357986054}]},{"neurons":[{"last_weight_count":20,"weights":[-8.14033445572571,8.063307278033394,0.7996251102507427,-0.6744534233515475,-8.285671287503588,-3.2147541783573845,-0.0406119680671964,1.614307570280553,0.2850883529363446,-24.777193950154015,-3.499370503579318,-8.943717210100845,45.46086000491216,-0.29307897308898084,4.1795804977970805,-1.6791063876452486,-18.37306027782962,13.839056832148925,-5.883752239012393,0.412380192517602],"bias":2.620877197953895},{"last_weight_count":20,"weights":[-1.7610296446661846,-2.1909151268220985,-27.23974106866265,-0.38679890225330565,4.049101730852151,4.06797490621278,1.2875957436485101,-3.7266371629082244,-7.974421420668671,-2.4346671374573132,8.640977722950378,0.007703168157743092,1.5340204698614401,-5.983996803407634,-3.9824670904522566,-0.549592026795805,18.273853172413745,3.973611108039562,14.804268612156008,29.76422321147102],"bias":8.595320275813982},{"last_weight_count":20,"weights":[-4.78421705527604,10.074520548683136,4.935883415323347,-1.5369573189548593,-0.8231662187134035,-9.198251155156903,-0.5428617054035147,-68.1808942995552,34.248547099034255,-0.8840397297521008,-1.7114503089480042,7.669627803721094,1.9667376270914956,-3.148924150075176,1.6631712732318424,2.9433435795060054,-0.17619414497672184,1.9396911970848145,-1.2197280246880398,13.432137579815738],"bias":-49.45438590236672},{"last_weight_count":20,"weights":[-0.4061850910407545,2.1656177614363497,-1.496613727647975,-73.55614914711028,0.6605607014727646,10.956826728857767,-0.3488886541021016,-0.10003291367435171,62.84920277231557,0.20904673291369852,138.73143923188374,2.071273889073497,6.888761962407166,9.473104905941236,1.5811441143272538,-4.350387585741259,0.9672983265171087,16.378741932686292,-75.2679399882228,0.48470373817242607],"bias":0.0645306323753291},{"last_weight_count":20,"weights":[-1.4299287936367626,-159.97506733658778,-3.8531041821837806,5.278229413304004,9.034766465373437,12.92009049861121,3.6120804502144823,-0.5364374079809222,0.5066470174740109,-10.03930980659453,-5.467518647700754,-4.451183055906416,-9.346262501966054,4.682939211351375,-13.430095455005112,-1.7524179236497919,16.360899052253295,5.395543516566369,-21.66112714951588,-4.693344320008579],"bias":1.3739160559430055},{"last_weight_count":20,"weights":[-0.9523626548864422,10.579751908694707,-40.85996330486724,-61.93116771141023,-1.3133362055758468,1.996963477518867,6.849945953238356,-0.01955415571437233,95.0338838646307,6.315440871518229,-2.3216894356765176,8.249979518621846,0.6734886357306306,-1.9660385209146045,-0.1643399500074164,-1.3566468259522524,-1.5459042918779375,10.472370925868677,-12.651123284387547,-7.532072286845647],"bias":1.5059337870775242},{"last_weight_count":20,"weights":[2.055659121890039,22.92900357231893,1.8008857548679598,-2.3911222758275477,1.1641668199344168,-16.302204463342136,0.6232828691104784,3.094762798198896,68.56568920907247,5.034282585583324,-6.709996619086062,4.506019879915485,3.5645305948597668,3.8773026431414923,-5.351271375283635,-2.3817113744315623,46.387284767629126,-12.298245019001177,19.389545992263958,9.31668339560725],"bias":-0.3079652930473461},{"last_weight_count":20,"weights":[4.445894379845258,-29.33592635637151,69.11981822666836,5.406268761372906,-0.2999134756095514,-15.384226594313258,13.447047857901689,1.4647857227369447,-3.393872391863787,2.659259282619128,-0.3532955361868938,-0.26027028899048615,2.5446373972157375,-2.143004156239142,5.174257619308721,-1.1788380982826139,-1.0907098887613085,1.0147213686340737,19.232439057494076,-1.304950632665931],"bias":-0.6932510859645424},{"last_weight_count":20,"weights":[1.4864638201280151,-52.21184059806118,-114.4227627574568,0.15691146764057165,-10.600363216149061,0.7957644013955685,-0.9494829866074218,1.9142515980167256,-13.120562868704258,14.087425179885763,1.2197434774138838,-42.06999551982606,-0.7107929997198968,1.2251410203668496,-9.609974473331125,-1.879549200537387,-15.736916795126502,-0.6765997219473988,46.47635067843514,-8.566780583701181],"bias":-0.2949522662103841}]},{"neurons":[{"last_weight_count":9,"weights":[7.532752777493662,1.5645931061747722,5.603032693498101,-6.196644186897726,-1.6464070831257511,-4.954828297702509,-5.980724533419554,-0.5349282880361118,-146.6380340450542],"bias":-1.0270154557312132},{"last_weight_count":9,"weights":[-7.569976848066974,-2.456403235529098,1.8077427079196804,-2.153329936773212,-0.09875874838692958,-1.4343024102400346,1.3514844133788797,-3.8728296709302916,-1.3659172108597837],"bias":2.214915625644325},{"last_weight_count":9,"weights":[-2.0144888534895187,0.10563581106751463,12.572265866756839,1.4644500742466338,6.4995244286443725,1.439022186948584,-0.2640098257205475,5.918752447009764,-1.5514021919196854],"bias":-0.8650875727679537},{"last_weight_count":9,"weights":[1.4599729790250953,0.017442419776168443,-22.730850958170212,-8.951566671587617,-0.8421653452627094,-9.109999653115317,-120.15548783886058,-1.882194653539316,0.9048345005312491],"bias":-1.2215899719578531},{"last_weight_count":9,"weights":[8.857658607953981,-1.3451242392044886,-6.176586468949249,0.31244347501515324,-0.35834810865219874,-0.07270958860235108,-4.119112652497728,-27.724084206658556,15.85243696817801],"bias":-0.2382794841594516},{"last_weight_count":9,"weights":[0.5575554369484956,71.23005074296265,-1.6960593580590162,2.185662949733832,-2.1126665774866087,4.352151948356777,128.42957221655658,2.54400223013835,-3.1165451280126444],"bias":54.34371644581676},{"last_weight_count":9,"weights":[-2.3171958797059484,0.6927529714396816,1.2966729796429906,-1.498573166425814,-16.581915514897474,-0.700046696048569,2.121262639153766,-3.2583087621565285,-0.1300112849083919],"bias":3.505828580966763}]},{"neurons":[{"last_weight_count":7,"weights":[1.5139535644677398,7.456634786211625,-24.49964065774818,55.05108915880716,1.2591889669105867,1.0652067108937684,2.821524256635956],"bias":2.6471965003677727},{"last_weight_count":7,"weights":[2.1136792443180683,5.476142271419151,7.067007302545396,-27.28899590109291,11.55506288300957,57.236422551263644,11.984728924435899],"bias":-0.23531447263065203},{"last_weight_count":7,"weights":[-1.3592733360783962,-0.4589790552204823,-0.26241387043594167,-3.1406472299647983,-1.5260585085072902,-1.2898106485943523,1.1529825511905787],"bias":0.2143729416157755},{"last_weight_count":7,"weights":[-0.464064561434098,-2.3952121229429655,-0.658898440872361,-1.0082459198997333,-1.0676841768484904,-2.3423511553917815,-2.052567602380962],"bias":2.7687651741953627},{"last_weight_count":7,"weights":[8.185358541255642,1.3960020215547626,24.111517908185863,-3.3482596236403834,1.9104655923601983,14.415618320796966,-1.8615287572593868],"bias":0.5451267810837948}]},{"neurons":[{"last_weight_count":5,"weights":[8.7452439269555,1.8439034809054615,-0.47709958987661805,-19.70859948081295,-0.9272181618819078],"bias":-0.1411161868451797},{"last_weight_count":5,"weights":[-4.213928515917829,4.396126532186324,0.13685996184076316,4.602486844297243,3.426330800753554],"bias":1.3903792340127898}]}]},"3":{"layers":[{"neurons":[{"last_weight_count":4,"weights":[-2.2637916425230378,-25.805700486426076,1.9786284702869192,1.7618837641541916],"bias":-17.66064877035791},{"last_weight_count":4,"weights":[0.7285666003149927,144.50562363268799,-5.758359113187133,0.5301693028405151],"bias":-7.126804058535059},{"last_weight_count":4,"weights":[17.546460502819627,0.40136842346655616,3.5613537896761276,1.2599141285574016],"bias":-2.0418514274198922},{"last_weight_count":4,"weights":[-1.2489208107750205,2.2956631512081107,3.163800001106849,2.141731005922769],"bias":11.378459047364325}]},{"neurons":[{"last_weight_count":4,"weights":[-4.493764782626843,1.6456328558301192,3.6296175699037048,-2.0505633193534027],"bias":-4.935132521863447},{"last_weight_count":4,"weights":[1.9265009221010758,85.36066813391022,-4.107429173331433,8.216546728274528],"bias":-131.40872384794736},{"last_weight_count":4,"weights":[-11.833768118453285,-55.15220877518906,-0.6872155999962735,-1.4449662200465023],"bias":-1.362002335686097},{"last_weight_count":4,"weights":[-0.4525003528843593,-1.3125880543419863,-0.12418445865578577,38.533170881205734],"bias":1.4433675333051863},{"last_weight_count":4,"weights":[292.980736751563,8.406340832544112,1.080599677341751,-0.9199487631992126],"bias":4.478878413699694},{"last_weight_count":4,"weights":[1.403183032560964,7.322628013733095,-1.4768604884645111,6.119774800298247],"bias":-3.716908967434638},{"last_weight_count":4,"weights":[1.0101131054555654,19.104745082316374,-1.190011391856465,-5.574536256086637],"bias":-5.358579859039906}]},{"neurons":[{"last_weight_count":7,"weights":[-0.29023757795502614,-3.365972092158071,0.9825219823068241,4.74814492094001,-1.5383404481201848,31.740391342410103,5.452659181513356],"bias":13.296712571888106},{"last_weight_count":7,"weights":[-250.25084033013695,31.622918854635692,-551.0060871272441,-0.480002422082694,2.4313846427173154,-16.106948194618,11.682619158767139],"bias":-2.6783722171236493},{"last_weight_count":7,"weights":[0.27069654665108933,2.697326870167689,-25.897363844152288,-3.817308549469827,7.243441058033793,-1.0404548153513655,2.9471045252580668],"bias":-62.52732991043791},{"last_weight_count":7,"weights":[-0.2768108793397436,394.84593098342873,-13.34379196476194,4.249813841626417,0.46479885687276473,-1.8909936711375217,-12.147758885802611],"bias":-8.024658807300648},{"last_weight_count":7,"weights":[-4.209051589325098,0.5636310417379761,15.631859482326606,-8.800318652337909,-0.5104467558736566,3.8547136856153084,18.743855189037422],"bias":-12.310767299075486},{"last_weight_count":7,"weights":[-4.941676802767138,-2.8937976454276786,-1.5256398535960902,25.2816737314887,1.0083069823435993,0.12869662746246213,-1.2592877971387777],"bias":49.551230986559396},{"last_weight_count":7,"weights":[0.9808682929035029,4.775255084893469,-0.4380413644279561,1.7197875195327579,-1.3299867188568748,-13.83751912157623,-1.5908747861464136],"bias":-7.048715566345282},{"last_weight_count":7,"weights":[9.26044677616031,0.7090502698406775,0.5840285490512939,0.3875013551398913,0.4609544680409493,19.98829166080898,6.076947443520423],"bias":26.88252292570047},{"last_weight_count":7,"weights":[-1.4076950193046884,-4.12109068631289,-73.11998278513299,25.793806879238836,-14.393423280565711,-3.320082290295633,-13.379637634814806],"bias":6.09409780704879}]},{"neurons":[{"last_weight_count":9,"weights":[-0.06997701738714872,2.743145728259377,0.7922154367736591,22.091515420340713,3.3388367802608463,3.9812338877714923,-3.2859958758732155,13.158270978637313,4.670518102381832],"bias":0.428299307388354},{"last_weight_count":9,"weights":[2.0188529833208455,-9.3049480160991,1.2390394997758607,-4.578946464282532,4.316665029523483,-9.341490366121468,-9.421303466670414,3.5038937232241048,1.1078221059574935],"bias":-75.82326143043933},{"last_weight_count":9,"weights":[4.743157323302783,-10.94281017783131,11.549631676113341,12.71657649183612,0.47659766195197195,1.4242535513586685,3.144668268298756,3.564978533378528,22.120677788247725],"bias":3.630552821771981},{"last_weight_count":9,"weights":[5.376178758463759,56.9015555650564,11.713289620566504,12.3844594080821,-0.10501611315494533,-9.606653383422056,-2.425872267277079,-0.7889824354013392,-15.161649393667465],"bias":-8.244699738494015},{"last_weight_count":9,"weights":[1.555890236585203,-13.065202455287487,-11.215220840509696,7.281823084578311,-1.4305131235949429,2.1141163384718324,-26.750828836079815,-119.81443659394284,-0.30927548241115127],"bias":2.197932451656565},{"last_weight_count":9,"weights":[-1.3985845219932824,110.56644675073306,-35.595974680880595,-4.111967533725949,-0.6398337875817347,2.7946819542978605,-0.317256670480436,-2.1520106996691144,8.493458498058395],"bias":0.49849526153584334},{"last_weight_count":9,"weights":[-1.6379703225111513,1.3510235979090377,3.9757324353099794,1.3556076962939958,-6.768616149504872,1.0478403795804598,21.535363875875312,3.338461112305148,-0.33948449672384445],"bias":-106.92026673859556},{"last_weight_count":9,"weights":[-1.0700192783402416,1.9938729066627099,-20.54093131775493,24.69275349964894,-4.669903517831357,1.7739205098642286,3.828365499266268,-69.28787025623198,0.6593899928838731],"bias":2.0734823298550937},{"last_weight_count":9,"weights":[-4.462619290558641,4.2584753060737475,-8.113781974420977,23.757266261813974,-19.577410325076514,0.15927945044234598,3.9560517090658567,-13.594616333184318,12.166331440896633],"bias":1.6839742763532715},{"last_weight_count":9,"weights":[-0.4006546330469447,2.555923407189574,-1.9980326429231057,16.142819723247246,-3.5150796653563954,0.5950346099520529,17.670481133122326,1.0236273816409551,-1.3140479698244192],"bias":-1.0017597824196476},{"last_weight_count":9,"weights":[-11.2623042109799,0.9603999497161085,-2.3444386995423954,-0.22973834734516707,9.804972004509125,0.6604716121230826,12.359159806141855,-2.9901617513859837,91.99642092458794],"bias":-92.21005369961073},{"last_weight_count":9,"weights":[-117.25928945838946,-62.04698321839374,0.8296880442310767,0.3180628196032774,-24.237172287228685,-2.623286942849136,1.5998690935185083,-0.06860962676042417,-10.193865983009346],"bias":-2.3898392571249296},{"last_weight_count":9,"weights":[2.5921277450777325,-0.23463212389479332,3.040752815370367,17.163471156363784,13.922459354540864,-32.377822877646466,-0.25032757870572553,-1.2730437237287586,1.6030211837269066],"bias":-4.102718965771592},{"last_weight_count":9,"weights":[-2.017449201160868,-9.499123100955527,1.5699806839249262,-100.47159844873087,4.3513506397946,2.0197861117127096,-16.137967125861753,0.3063035354641835,42.957292889046094],"bias":-1.0553036644806966},{"last_weight_count":9,"weights":[2.5190137422687258,34.177249629960166,-0.48099140434307985,-14.559158105925363,0.5199796835147671,5.203554666801497,-1.1133420429053937,-2.3615473026193956,-2.2440959011608737],"bias":0.038350013608987585},{"last_weight_count":9,"weights":[0.657185406199911,38.58048589357696,0.24299028492346753,-4.130109897776951,-26.425909249199957,1.5480583077634695,4.408637397157486,-13.357941519068104,0.42933505408108297],"bias":-0.32913336716412156},{"last_weight_count":9,"weights":[-10.503638873267455,3.3831180546104216,62.53711949665466,-6.193051939033365,-213.94351988589804,-10.099760136475084,-0.9519203392096969,0.020786820242689144,22.014494591325157],"bias":0.09617307170657785},{"last_weight_count":9,"weights":[3.7408700456918766,2.4478297267190143,111.09159428176602,1.7994392016429805,-0.23829902111881618,-5.2408235497925855,-0.13383438232874956,-3.2894368888684142,-0.9984428187274011],"bias":-3.3001910226100617},{"last_weight_count":9,"weights":[0.3306562873675525,36.897387589263516,-0.7762543865939062,22.37993067329673,5.909790506094405,17.554646801467555,-2.52534064477401,-0.6653348201146972,-21.90458248457881],"bias":142.7063018530707},{"last_weight_count":9,"weights":[5.163766312282653,5.806088673230304,1.7778107364317137,-1.262104335233902,-0.3086084745040809,0.5754261485707589,12.680277111995345,5.539626668924965,-1.2998250695010636],"bias":-9.165364357986054}]},{"neurons":[{"last_weight_count":20,"weights":[-8.14033445572571,-11.195299588550991,-1.1375047454296932,0.6760533709490223,-8.285671287503588,-3.1916754023191327,0.03776724030252587,1.614307570280553,0.4119859389951085,-24.66312138476669,-3.499370503579318,-8.943717210100845,45.46086000491216,-0.29307897308898084,4.1795804977970805,-1.6791063876452486,14.694725344623848,-7.079971113767776,-5.883752239012393,0.6646276879379354],"bias":-2.416887649517287},{"last_weight_count":20,"weights":[-1.7610296446661846,-1.2759084270107695,-19.175180335658027,0.49774917245141814,4.049101730852151,4.06797490621278,1.2875957436485101,7.042273919986062,4.909954149030355,-2.5481594296938135,8.640977722950378,-0.006323824071565051,1.5340204698614401,-5.983996803407634,-3.9824670904522566,-0.549592026795805,18.273853172413745,2.2207530974275467,14.653554192197046,54.92042642753937],"bias":8.595320275813982},{"last_weight_count":20,"weights":[-4.78421705527604,10.074520548683136,4.935883415323347,-1.5369573189548593,-0.8231662187134035,-9.198251155156903,-0.5428617054035147,-68.1808942995552,45.78514380683452,-0.8840397297521008,-1.7114503089480042,7.669627803721094,1.9667376270914956,-3.148924150075176,1.6631712732318424,2.9433435795060054,-0.17619414497672184,1.9396911970848145,-1.2748015615459745,13.432137579815738],"bias":-49.45438590236672},{"last_weight_count":20,"weights":[-0.36061325350547374,2.1254114764114935,-1.496613727647975,-73.5387870876344,0.6605607014727646,10.956826728857767,-0.36113669870913334,-0.10003291367435171,62.84920277231557,-0.19402458827579752,252.02606022959552,2.071273889073497,6.801321680625986,9.473104905941236,2.0161252646336845,-4.350387585741259,0.9672983265171087,16.378741932686292,-75.2679399882228,-0.24744388265497566],"bias":0.0645306323753291},{"last_weight_count":20,"weights":[-1.4299287936367626,-159.97506733658778,-3.6619773142247416,5.278229413304004,9.034766465373437,12.92009049861121,3.4903295304374757,-0.6800184716429216,0.8758727284225195,-10.03930980659453,-5.467518647700754,-4.451183055906416,-9.346262501966054,4.682939211351375,-13.430095455005112,-1.7524179236497919,16.360899052253295,5.395543516566369,-21.53983081234264,-4.693344320008579],"bias":1.572733211518221},{"last_weight_count":20,"weights":[-0.9523626548864422,10.579751908694707,-40.84220560252587,-61.93116771141023,-1.3579720718275599,1.996963477518867,6.700729125447202,0.019162519168001796,95.0338838646307,6.315440871518229,-2.3216894356765176,8.249979518621846,0.6734886357306306,-1.9660385209146045,-0.1643399500074164,-1.4105570081778225,0.9369409688042256,10.472370925868677,-12.651123284387547,-7.532072286845647],"bias":1.5059337870775242},{"last_weight_count":20,"weights":[2.055659121890039,22.92900357231893,1.8008857548679598,1.9922868780694125,1.1641668199344168,-16.302204463342136,0.4961051932926484,3.094762798198896,68.56568920907247,5.08960198746611,-6.709996619086062,4.506019879915485,3.5645305948597668,3.8773026431414923,-5.351271375283635,-2.3817113744315623,24.45497158206714,-12.298245019001177,19.389545992263958,9.31668339560725],"bias":-0.3079652930473461},{"last_weight_count":20,"weights":[4.445894379845258,-15.657036175011571,68.96172703209812,5.406268761372906,-0.2999134756095514,9.289903400403553,-14.888388519605922,1.65841557939889,-3.393872391863787,2.659259282619128,-0.3532955361868938,0.2883949649177854,-3.0327005549054653,-2.143004156239142,5.1344452511217105,-1.325980062997561,-1.0907098887613085,1.0147213686340737,19.232439057494076,-1.304950632665931],"bias":-0.49558979331698244},{"last_weight_count":20,"weights":[1.4864638201280151,-52.21184059806118,-114.4227627574568,0.15691146764057165,-10.600363216149061,0.7957644013955685,-0.9494829866074218,2.6900499922019994,-12.99688521135062,14.087425179885763,0.7442700653697952,28.582133835773867,-0.7107929997198968,-1.561703900759323,-9.609974473331125,-1.9384838606752415,-15.736916795126502,-0.6765997219473988,46.47635067843514,-8.566780583701181],"bias":-0.2949522662103841}]},{"neurons":[{"last_weight_count":9,"weights":[7.532752777493662,1.5645931061747722,5.603032693498101,-6.196644186897726,-1.6464070831257511,-4.954828297702509,-5.980724533419554,-0.5349282880361118,-146.6380340450542],"bias":-1.0270154557312132},{"last_weight_count":9,"weights":[-7.409390987256758,3.194301932240491,1.8077427079196804,-2.0773216215331036,-0.06490143127545794,-1.4343024102400346,1.7764167006229954,-3.8728296709302916,-1.3659172108597837],"bias":2.1738380799378643},{"last_weight_count":9,"weights":[-2.2846867222607177,-0.13812164721016712,12.655116587087864,1.4644500742466338,6.4995244286443725,1.439022186948584,-0.2640098257205475,5.918752447009764,-1.3924411311240434],"bias":-0.8650875727679537},{"last_weight_count":9,"weights":[-1.1869413803146607,-0.014120043157230835,-22.730850958170212,16.86631705194069,-0.8421653452627094,-9.109999653115317,-120.15548783886058,-3.32521099496014,-1.1499556108483209],"bias":-1.2215899719578531},{"last_weight_count":9,"weights":[8.857658607953981,-1.3384942055917004,-6.176586468949249,0.31244347501515324,-0.35834810865219874,-0.07270958860235108,-3.922946778679176,-27.724084206658556,7.980906612397552],"bias":-0.35642361324963373},{"last_weight_count":9,"weights":[1.1867268029450444,71.23005074296265,-1.6960593580590162,2.185662949733832,-2.1126665774866087,4.352151948356777,128.34205491575582,2.54400223013835,-3.1165451280126444],"bias":54.34371644581676},{"last_weight_count":9,"weights":[-2.3171958797059484,0.6927529714396816,1.3959942310181965,1.7832185181112163,9.222973173411026,-0.700046696048569,2.121262639153766,-3.2583087621565285,-0.2039004110807908],"bias":3.505828580966763}]},{"neurons":[{"last_weight_count":7,"weights":[1.5139535644677398,7.464717278467799,-24.49964065774818,-36.10927387858096,1.2591889669105867,1.0652067108937684,2.821524256635956],"bias":2.6471965003677727},{"last_weight_count":7,"weights":[2.1136792443180683,-5.126901644611274,7.067007302545396,-27.28899590109291,11.55506288300957,57.236422551263644,11.851079556668102],"bias":-0.18131895707571166},{"last_weight_count":7,"weights":[-1.3592733360783962,0.6784274579974343,-0.21737278267390242,-3.1406472299647983,-1.5260585085072902,-1.2898106485943523,1.1529825511905787],"bias":0.2143729416157755},{"last_weight_count":7,"weights":[-0.464064561434098,-2.3952121229429655,-0.658898440872361,-0.9362211708736483,-1.0676841768484904,-2.3423511553917815,-2.052567602380962],"bias":2.7687651741953627},{"last_weight_count":7,"weights":[14.18155949552336,1.3960020215547626,24.111517908185863,-3.3482596236403834,1.9104655923601983,12.054402550678763,-1.8615287572593868],"bias":0.48022380625704014}]},{"neurons":[{"last_weight_count":5,"weights":[8.7452439269555,1.8439034809054615,-0.6913670265465319,-15.557508340883269,-0.9272181618819078],"bias":0.11281657628789339},{"last_weight_count":5,"weights":[2.793050563683426,4.396126532186324,0.006012581649469342,4.26667750396304,3.426330800753554],"bias":1.3903792340127898}]}]},"11":{"layers":[{"neurons":[{"last_weight_count":4,"weights":[-2.2637916425230378,-25.589823034078275,-3.3803145348469945,1.7618837641541916],"bias":11.798106317577112},{"last_weight_count":4,"weights":[-0.4385388230393042,191.25559936979897,-5.758359113187133,0.5301693028405151],"bias":-7.126804058535059},{"last_weight_count":4,"weights":[10.942515876950747,0.4397981066496122,-3.1862384031321014,1.42203215585041],"bias":-2.2226062350556246},{"last_weight_count":4,"weights":[-1.2489208107750205,2.2956631512081107,3.163800001106849,2.141731005922769],"bias":11.378459047364325}]},{"neurons":[{"last_weight_count":4,"weights":[-4.493764782626843,3.2749698032071737,3.6296175699037048,3.176895587754913],"bias":-4.935132521863447},{"last_weight_count":4,"weights":[1.9265009221010758,85.36066813391022,-5.416472020795127,8.216546728274528],"bias":-131.2596960734335},{"last_weight_count":4,"weights":[-11.833768118453285,-55.15220877518906,-0.6872155999962735,-1.4449662200465023],"bias":-1.362002335686097},{"last_weight_count":4,"weights":[-0.4525003528843593,-1.4658129095419254,0.0365368433833764,38.353114665754404],"bias":1.4433675333051863},{"last_weight_count":4,"weights":[292.980736751563,8.406340832544112,1.0651915547082766,-0.7684511538051966],"bias":4.478878413699694},{"last_weight_count":4,"weights":[1.403183032560964,7.322628013733095,-1.4768604884645111,6.119774800298247],"bias":2.8220728115596394},{"last_weight_count":4,"weights":[1.0101131054555654,19.015289212447822,-1.190011391856465,-5.574536256086637],"bias":-5.303041584984446}]},{"neurons":[{"last_weight_count":7,"weights":[0.30377423192203773,-3.365972092158071,0.9825219823068241,4.773089307030177,-1.5383404481201848,31.73415442850117,5.452659181513356],"bias":13.445913062814006},{"last_weight_count":7,"weights":[-250.25084033013695,35.38836394163222,-551.0060871272441,-0.480002422082694,2.4313846427173154,-16.106948194618,20.676401902538416],"bias":-2.6783722171236493},{"last_weight_count":7,"weights":[0.27069654665108933,2.5467755047384704,13.698264189654545,-3.817308549469827,7.243441058033793,-1.0404548153513655,2.980133761081875],"bias":-62.52732991043791},{"last_weight_count":7,"weights":[-0.11831927714141018,-218.94146231495256,-13.34379196476194,1.5964635174137203,0.46479885687276473,-1.8909936711375217,-12.147758885802611],"bias":-8.024658807300648},{"last_weight_count":7,"weights":[-4.209051589325098,0.5636310417379761,15.46434349837488,5.627057129273967,-0.5104467558736566,3.040770182394675,18.658831334800837],"bias":-12.2803062917488},{"last_weight_count":7,"weights":[-2.6179112735590313,5.720285565595642,-1.5256398535960902,25.2816737314887,0.9133305318545184,0.06523849310889832,-1.4090194187870682],"bias":-34.756950741931696},{"last_weight_count":7,"weights":[0.9808682929035029,7.699939014917868,-0.4380413644279561,1.7197875195327579,-0.907530819945285,-13.83751912157623,-1.6876379595244],"bias":-6.956854494951408},{"last_weight_count":7,"weights":[9.26044677616031,0.9451105385656396,0.6781859030598629,0.4861148227571073,0.2744649889805954,12.959152021565778,6.076947443520423],"bias":26.22164726721743},{"last_weight_count":7,"weights":[-1.4076950193046884,-4.12109068631289,-73.11998278513299,25.793806879238836,-14.393423280565711,-3.320082290295633,-13.468256842519809],"bias":6.09409780704879}]},{"neurons":[{"last_weight_count":9,"weights":[-0.06997701738714872,2.743145728259377,0.6710187263686724,22.12926834204907,-1.9200301203500687,3.9812338877714923,-1.9163592552413062,10.275537289183571,5.532932593252036],"bias":0.428299307388354},{"last_weight_count":9,"weights":[2.0188529833208455,-9.3049480160991,1.2390394997758607,-4.5404562988709865,4.344947395160037,10.521753989020501,-12.101359189262293,3.5038937232241048,1.1078221059574935],"bias":-75.74859888040764},{"last_weight_count":9,"weights":[4.743157323302783,-11.070587766862898,11.703018110082008,-7.407803244908665,0.47659766195197195,-1.2359636432187158,3.144668268298756,3.564978533378528,-36.98317968442577],"bias":5.818899952948787},{"last_weight_count":9,"weights":[-2.947411839490166,35.74060634880133,11.713289620566504,9.068861042758803,-0.15789096643114825,9.957133962998755,-2.5213107743078087,-0.7889824354013392,-15.110607833363526],"bias":-8.244699738494015},{"last_weight_count":9,"weights":[1.6422305257398764,12.134980007335558,7.106162551353753,3.4908422849104372,-1.4305131235949429,-2.2397560324288803,-26.579854618826683,-119.81443659394284,-0.30927548241115127],"bias":-3.6895542565596053},{"last_weight_count":9,"weights":[1.2157332741741438,110.56644675073306,-35.725071143450755,-4.111967533725949,-0.6398337875817347,2.7946819542978605,-0.317256670480436,-2.1520106996691144,8.493458498058395],"bias":0.6100826213677397},{"last_weight_count":9,"weights":[-1.6379703225111513,1.3510235979090377,3.9757324353099794,1.3556076962939958,-6.876598034420714,1.0478403795804598,21.535363875875312,3.338461112305148,-0.33948449672384445],"bias":-106.92026673859556},{"last_weight_count":9,"weights":[-1.0700192783402416,-1.1209456013906558,-20.54093131775493,-21.12323812328744,-4.669903517831357,1.5798973270450167,3.828365499266268,-36.14036027691228,0.6593899928838731],"bias":2.0734823298550937},{"last_weight_count":9,"weights":[-4.462619290558641,4.2584753060737475,-8.113781974420977,23.757266261813974,31.100794443314662,0.15927945044234598,3.9560517090658567,-7.467911544998612,21.742080038475482],"bias":1.6839742763532715},{"last_weight_count":9,"weights":[-0.4006546330469447,2.555923407189574,-1.9980326429231057,-8.499276776011472,-3.5150796653563954,0.4556060358617964,17.670481133122326,-0.5853167197489646,-1.3140479698244192],"bias":-0.9498506136656282},{"last_weight_count":9,"weights":[-11.2623042109799,0.9603999497161085,-2.1977300083023477,-0.31082252403992705,9.804972004509125,0.6604716121230826,-7.072651419267134,-2.9901617513859837,91.99642092458794],"bias":-92.21005369961073},{"last_weight_count":9,"weights":[-117.25928945838946,-55.535280478112774,0.8296880442310767,0.3180628196032774,14.291788942429857,1.5399028582015453,1.5998690935185083,-0.06860962676042417,-10.193865983009346],"bias":-2.3898392571249296},{"last_weight_count":9,"weights":[2.5921277450777325,-0.23463212389479332,-3.6952073778651067,17.358831432073917,13.922459354540864,-32.39698163644835,0.3215429081539453,-1.2730437237287586,-1.8326249126499734],"bias":-4.102718965771592},{"last_weight_count":9,"weights":[-2.017449201160868,-9.499123100955527,1.7501760235752413,-187.8075119121123,4.3513506397946,2.0197861117127096,-16.137967125861753,0.3162656305537724,42.957292889046094],"bias":-1.0553036644806966},{"last_weight_count":9,"weights":[2.5190137422687258,34.177249629960166,-0.28939156906875246,-8.126951544247516,0.5199796835147671,5.203554666801497,2.0731705266524476,-2.3615473026193956,-2.1304077082636503],"bias":0.11401404107427968},{"last_weight_count":9,"weights":[1.0778339557993573,38.51592502779354,0.24299028492346753,-4.196743116375291,-26.425909249199957,-0.7977002526062349,4.125640088668868,-13.539277610856075,0.42933505408108297],"bias":-0.32913336716412156},{"last_weight_count":9,"weights":[-10.397755825325294,3.400999159695779,-54.81718898660803,-6.193051939033365,-213.9367095890923,-9.920955318799416,1.2416581590629723,0.020786820242689144,22.014494591325157],"bias":0.07436004676788767},{"last_weight_count":9,"weights":[3.7408700456918766,4.28989251188316,111.09159428176602,1.7994392016429805,-0.23829902111881618,-9.229078973478403,-0.277242187654455,-3.2894368888684142,0.7610327866083031],"bias":-3.3001910226100617},{"last_weight_count":9,"weights":[0.3306562873675525,36.897387589263516,-0.7943758481111003,22.37993067329673,9.862884818450105,17.718806254573998,4.946212009285379,-0.6653348201146972,-21.90458248457881],"bias":98.8781290187247},{"last_weight_count":9,"weights":[5.163766312282653,4.1206227525289005,1.7778107364317137,-1.262104335233902,0.2966671921189021,-0.36776445674774516,12.680277111995345,5.539626668924965,-1.2998250695010636],"bias":-18.19191084472446}]},{"neurons":[{"last_weight_count":20,"weights":[-8.14033445572571,8.063307278033394,0.7996251102507427,-0.6744534233515475,-8.285671287503588,-3.1916754023191327,-0.07468510093065005,1.614307570280553,0.4119859389951085,-24.777193950154015,-3.499370503579318,-15.615404621322082,45.46086000491216,-0.41355965146700807,4.1795804977970805,-1.6791063876452486,7.746374684094876,-7.079971113767776,-5.883752239012393,0.412380192517602],"bias":-2.416887649517287},{"last_weight_count":20,"weights":[-1.7610296446661846,-1.2759084270107695,-27.23974106866265,0.49774917245141814,3.920692256949322,-5.728187452701154,1.8916672315884577,-3.7266371629082244,4.909954149030355,4.190448221661772,14.984655086896016,0.007703168157743092,-2.5649357290214088,-5.983996803407634,-3.9824670904522566,-0.549592026795805,18.273853172413745,-1.4417669102550719,14.804268612156008,55.06890967360878],"bias":8.595320275813982},{"last_weight_count":20,"weights":[-4.78421705527604,10.074520548683136,4.935883415323347,-1.5369573189548593,-1.1285545897587284,-9.198251155156903,-0.5428617054035147,-68.1808942995552,45.78514380683452,-0.8840397297521008,-1.6473626288605518,11.72031661698285,1.9667376270914956,-3.148924150075176,1.7135716954659603,2.9433435795060054,-0.17619414497672184,1.9396911970848145,-1.3775547810005806,13.343587427941943],"bias":-49.50537169372253},{"last_weight_count":20,"weights":[-0.36061325350547374,-3.0454741654999693,-1.6539469763736665,-73.5387870876344,0.6605607014727646,10.956826728857767,-0.36113669870913334,-0.10003291367435171,62.84920277231557,-0.19402458827579752,138.73143923188374,2.071273889073497,6.801321680625986,9.473104905941236,2.0161252646336845,-4.350387585741259,0.9672983265171087,16.378741932686292,-75.2679399882228,-0.24744388265497566],"bias":0.0645306323753291},{"last_weight_count":20,"weights":[-1.4299287936367626,-159.97506733658778,-3.6619773142247416,5.278229413304004,9.034766465373437,12.92009049861121,3.6120804502144823,-0.6800184716429216,0.33461962912011584,-10.03930980659453,-5.5653430693871195,-4.451183055906416,-5.040912997213269,4.712975555373663,-13.430095455005112,-1.7524179236497919,16.360899052253295,5.395543516566369,-21.66112714951588,-4.693344320008579],"bias":1.462014282566804},{"last_weight_count":20,"weights":[-0.9523626548864422,10.579751908694707,-40.84220560252587,-61.93116771141023,-1.000319018100126,1.996963477518867,6.596933802744854,0.019162519168001796,95.0338838646307,6.315440871518229,-2.3052465732697165,8.249979518621846,0.6734886357306306,-1.9660385209146045,0.13894143288567692,-1.5474623088764312,0.9369409688042256,10.526805859781204,-12.651123284387547,-7.532072286845647],"bias":-2.7298256973315635},{"last_weight_count":20,"weights":[2.055659121890039,22.92900357231893,1.8008857548679598,1.9922868780694125,1.1641668199344168,-16.202487024906983,0.6232828691104784,3.2775653071966135,68.56568920907247,5.08960198746611,-6.677287090049715,4.506019879915485,3.5645305948597668,6.967931336202429,-5.351271375283635,-2.3817113744315623,24.45497158206714,-47.01523871968631,19.389545992263958,9.31668339560725],"bias":0.2614488750772258},{"last_weight_count":20,"weights":[4.445894379845258,-15.657036175011571,116.71981090630837,5.406268761372906,-0.10038840735305427,9.484991873641622,12.90882081803228,1.4647857227369447,2.414240617883137,2.4311697037384503,-0.3532955361868938,-0.26027028899048615,-2.9002015846246993,-2.143004156239142,5.1344452511217105,-1.325980062997561,-1.0907098887613085,1.0147213686340737,19.232439057494076,-1.304950632665931],"bias":-0.3959542059851168},{"last_weight_count":20,"weights":[1.5313154749317035,-52.21184059806118,-114.39842501891155,0.15691146764057165,-10.600363216149061,0.9340482432750701,-0.9494829866074218,2.6900499922019994,-12.99688521135062,14.087425179885763,1.2197434774138838,-42.06999551982606,-0.7003781587633842,-1.1877553160221643,-9.609974473331125,-1.9384838606752415,22.684497238192655,1.2956074147730112,46.47635067843514,4.765822010780652],"bias":-0.2949522662103841}]},{"neurons":[{"last_weight_count":9,"weights":[7.532752777493662,1.5645931061747722,5.603032693498101,-8.093851586044075,-1.596470911857987,-4.954828297702509,-5.980724533419554,-0.5349282880361118,-146.6380340450542],"bias":0.6809266819682044},{"last_weight_count":9,"weights":[-7.409390987256758,3.266487771518499,-2.6065058505274017,-1.8835324954945207,0.11629186010921547,-1.5422607538206505,1.7764167006229954,-3.8728296709302916,-1.3659172108597837],"bias":2.214915625644325},{"last_weight_count":9,"weights":[3.8934911053865036,-0.13812164721016712,12.655116587087864,2.6089618974241175,6.4995244286443725,1.5237665266725016,-0.2640098257205475,9.409704174308281,-1.5737656956416624],"bias":-0.8650875727679537},{"last_weight_count":9,"weights":[1.4599729790250953,-0.014120043157230835,-22.730850958170212,-10.550082159603386,-0.8421653452627094,-9.109999653115317,-120.15548783886058,-3.32521099496014,0.9048345005312491],"bias":-1.2215899719578531},{"last_weight_count":9,"weights":[8.857658607953981,-1.3451242392044886,-6.176586468949249,0.31244347501515324,-0.35834810865219874,-0.07270958860235108,-2.3262938876033137,-27.724084206658556,7.980906612397552],"bias":0.320441367156351},{"last_weight_count":9,"weights":[1.1867268029450444,71.23005074296265,-1.6960593580590162,2.185662949733832,-2.1126665774866087,4.352151948356777,-162.1384516136136,2.600358948793737,-3.290007844211101],"bias":54.475900537507705},{"last_weight_count":9,"weights":[-2.3171958797059484,0.6927529714396816,1.2966729796429906,-1.498573166425814,-16.581915514897474,-0.700046696048569,-1.9064085132436197,-3.2583087621565285,-0.2039004110807908],"bias":4.1947654374985195}]},{"neurons":[{"last_weight_count":7,"weights":[-1.000733923487541,7.456634786211625,-24.49964065774818,-36.10927387858096,1.0814002867676922,1.0652067108937684,2.821524256635956],"bias":2.6471965003677727},{"last_weight_count":7,"weights":[2.1136792443180683,-5.543793233066168,7.067007302545396,-27.28899590109291,11.55506288300957,57.236422551263644,11.984728924435899],"bias":-0.18131895707571166},{"last_weight_count":7,"weights":[-1.1767879686238174,0.8802500979475346,-0.21737278267390242,-3.1406472299647983,-1.5260585085072902,-1.2898106485943523,1.2857188083690667],"bias":0.2143729416157755},{"last_weight_count":7,"weights":[-0.8917648995096641,-2.3952121229429655,-0.658898440872361,-0.8878868861200261,-1.0368767551241498,-2.3423511553917815,-2.052567602380962],"bias":2.7687651741953627},{"last_weight_count":7,"weights":[14.18155949552336,1.3960020215547626,35.245800742231765,-3.3482596236403834,1.928072637041517,14.446870457764229,-1.8615287572593868],"bias":0.48022380625704014}]},{"neurons":[{"last_weight_count":5,"weights":[8.7452439269555,1.8439034809054615,-0.6913670265465319,-9.616890202523651,-0.9272181618819078],"bias":-0.1411161868451797},{"last_weight_count":5,"weights":[-4.213928515917829,4.532803057221783,0.006012581649469342,4.26667750396304,5.925146725235219],"bias":1.3903792340127898}]}]},"14":{"layers":[{"neurons":[{"last_weight_count":4,"weights":[-2.3558048442249744,-25.67974556154389,1.9786284702869192,1.7618837641541916],"bias":11.798106317577112},{"last_weight_count":4,"weights":[-0.4385388230393042,144.50562363268799,-5.758359113187133,0.5301693028405151],"bias":-7.126804058535059},{"last_weight_count":4,"weights":[17.479273602491492,0.4397981066496122,3.6077661115047297,1.2599141285574016],"bias":-2.2226062350556246},{"last_weight_count":4,"weights":[-1.2489208107750205,2.2956631512081107,3.0673942291916814,1.3015594981841585],"bias":22.713132518509234}]},{"neurons":[{"last_weight_count":4,"weights":[-4.493764782626843,3.2749698032071737,-3.35566840155481,-2.0505633193534027],"bias":-4.935132521863447},{"last_weight_count":4,"weights":[1.9265009221010758,85.36066813391022,-4.107429173331433,8.216546728274528],"bias":-131.2596960734335},{"last_weight_count":4,"weights":[-11.833768118453285,78.94805470833238,-0.6872155999962735,-1.4449662200465023],"bias":-1.362002335686097},{"last_weight_count":4,"weights":[-0.4525003528843593,2.592330792112268,0.030852832737354716,38.533170881205734],"bias":1.4433675333051863},{"last_weight_count":4,"weights":[292.980736751563,8.406340832544112,1.080599677341751,-0.9199487631992126],"bias":4.306257456549485},{"last_weight_count":4,"weights":[1.403183032560964,7.322628013733095,-1.4768604884645111,6.119774800298247],"bias":2.904530245893792},{"last_weight_count":4,"weights":[1.0101131054555654,19.015289212447822,-1.9403034214570765,-5.574536256086637],"bias":-5.3397482153912925}]},{"neurons":[{"last_weight_count":7,"weights":[0.2180324029813348,2.9864707093490184,-0.600342495488552,4.773089307030177,1.996649774663526,31.740391342410103,5.452659181513356],"bias":19.86802404497787},{"last_weight_count":7,"weights":[-250.25084033013695,35.38836394163222,1035.3867923276478,-0.480002422082694,2.4313846427173154,-16.106948194618,-15.18009322949203],"bias":-2.6783722171236493},{"last_weight_count":7,"weights":[0.27069654665108933,2.697326870167689,13.698264189654545,4.888517899172505,7.243441058033793,-1.0404548153513655,2.9471045252580668],"bias":-62.59469892710354},{"last_weight_count":7,"weights":[-0.1658436525503811,-218.94146231495256,-13.34379196476194,2.67818975380074,0.46479885687276473,3.282847557710364,-12.147758885802611],"bias":-8.024658807300648},{"last_weight_count":7,"weights":[-4.209051589325098,0.5636310417379761,15.46434349837488,10.19042540603469,0.5057848483602921,5.529521199902724,18.658831334800837],"bias":-12.2803062917488},{"last_weight_count":7,"weights":[3.3369630305072837,-2.8937976454276786,-1.5256398535960902,25.2816737314887,1.0083069823435993,0.06523849310889832,0.9573663450623489],"bias":-34.756950741931696},{"last_weight_count":7,"weights":[0.9808682929035029,4.638871343034028,-0.497231287507059,1.7197875195327579,-0.9451732643806781,-13.83751912157623,-1.5908747861464136],"bias":6.028652921344276},{"last_weight_count":7,"weights":[9.26044677616031,0.46199208615136134,0.6781859030598629,0.4861148227571073,0.4609544680409493,12.959152021565778,-3.078124520654576],"bias":26.921481281794982},{"last_weight_count":7,"weights":[-1.4076950193046884,-6.417367818188401,-62.460780419975386,25.793806879238836,-14.393423280565711,-3.320082290295633,-13.596848860628725],"bias":-3.448270779971759}]},{"neurons":[{"last_weight_count":9,"weights":[-0.06997701738714872,2.743145728259377,0.6710187263686724,21.968891541059147,3.3388367802608463,3.9812338877714923,-3.2859958758732155,10.275537289183571,4.700467348921638],"bias":0.428299307388354},{"last_weight_count":9,"weights":[2.0188529833208455,-9.3049480160991,-1.2542438460281828,-4.5404562988709865,4.316665029523483,-9.341490366121468,-12.101359189262293,-2.7723888119371094,1.0855328471514172],"bias":137.05049059191884},{"last_weight_count":9,"weights":[-4.483901197366925,-11.070587766862898,11.703018110082008,12.547626164390154,0.47659766195197195,-1.2359636432187158,3.144668268298756,3.3727164120957185,22.146208186004436],"bias":5.818899952948787},{"last_weight_count":9,"weights":[-2.9606850907579703,56.9015555650564,15.405636392509265,-12.311220858526099,-0.15789096643114825,9.964527716037026,-2.5213107743078087,-0.6862356318683486,-13.326612251200203],"bias":-8.244699738494015},{"last_weight_count":9,"weights":[1.6422305257398764,12.134980007335558,7.106162551353753,3.4908422849104372,-1.4305131235949429,2.1141163384718324,-26.750828836079815,-119.81443659394284,-0.30927548241115127],"bias":2.2746330917244584},{"last_weight_count":9,"weights":[1.2157332741741438,110.56644675073306,-35.81335247655597,-4.111967533725949,1.0498121545148844,2.7946819542978605,-0.317256670480436,-2.1520106996691144,8.493458498058395],"bias":0.6100826213677397},{"last_weight_count":9,"weights":[-1.6379703225111513,-1.041004275733408,2.0847951914102816,-2.1414197203728857,-6.768616149504872,1.104668720197899,21.535363875875312,3.22835272735038,-0.33948449672384445],"bias":55.5107616697118},{"last_weight_count":9,"weights":[1.8782406727189536,1.9938729066627099,-20.54093131775493,-21.168172040979357,-4.669903517831357,1.7739205098642286,3.828365499266268,-36.14036027691228,0.6593899928838731],"bias":2.0734823298550937},{"last_weight_count":9,"weights":[4.858851994019248,4.2584753060737475,-8.113781974420977,23.757266261813974,-19.577410325076514,0.15927945044234598,3.9560517090658567,-7.1362466192090075,12.166331440896633],"bias":1.6839742763532715},{"last_weight_count":9,"weights":[-0.20798305138865633,2.555923407189574,-1.9980326429231057,-8.499276776011472,-3.5150796653563954,-0.34979034154158667,17.670481133122326,1.0236273816409551,-1.3140479698244192],"bias":-1.0017597824196476},{"last_weight_count":9,"weights":[-11.2623042109799,0.9603999497161085,-2.3444386995423954,-0.31082252403992705,9.804972004509125,0.6604716121230826,-7.082889821701833,5.477054469497281,91.99642092458794],"bias":-93.99612689315796},{"last_weight_count":9,"weights":[-117.25928945838946,-62.04698321839374,-0.6822685447281445,0.05348751359519016,-24.237172287228685,1.5399028582015453,1.5998690935185083,-0.06860962676042417,-10.193865983009346],"bias":-2.3898392571249296},{"last_weight_count":9,"weights":[2.5921277450777325,-0.23463212389479332,-3.6952073778651067,17.163471156363784,13.922459354540864,-32.39698163644835,0.3215429081539453,-1.2730437237287586,-3.0257480682221845],"bias":-4.102718965771592},{"last_weight_count":9,"weights":[-2.643782236438761,-9.499123100955527,1.8514665579017284,-100.47159844873087,4.3513506397946,2.0197861117127096,-16.036702859643533,0.3063035354641835,23.122995221898535],"bias":-1.4432740947399523},{"last_weight_count":9,"weights":[2.5190137422687258,34.177249629960166,-0.28939156906875246,-8.036906060380229,0.5199796835147671,3.8588317467080895,-1.1133420429053937,-2.3615473026193956,-2.1304077082636503],"bias":0.11401404107427968},{"last_weight_count":9,"weights":[1.0778339557993573,38.58048589357696,0.24299028492346753,-4.130109897776951,-26.451615091568385,-0.7977002526062349,4.214463412073681,-13.357941519068104,0.4694678084519432],"bias":-0.32913336716412156},{"last_weight_count":9,"weights":[-10.503638873267455,3.400999159695779,62.476374615319166,-6.193051939033365,-213.9515570751526,-4.9515832145560275,-0.9519203392096969,0.020786820242689144,22.014494591325157],"bias":0.07436004676788767},{"last_weight_count":9,"weights":[-2.5474321719120607,2.4478297267190143,111.10184006023329,1.7994392016429805,-0.42344270569748765,11.247816409765885,-0.13383438232874956,-3.2894368888684142,1.134449070099067],"bias":-3.2733208544485892},{"last_weight_count":9,"weights":[0.3306562873675525,24.64327045423104,-0.7943758481111003,22.37993067329673,6.062193187588669,17.585692163775366,-2.52534064477401,-0.4417036247954757,-21.90458248457881],"bias":142.52644113444194},{"last_weight_count":9,"weights":[5.163766312282653,-8.00606624962414,1.7170358869968076,-1.262104335233902,-0.3086084745040809,-0.36776445674774516,-24.097276804683588,5.539626668924965,-1.2998250695010636],"bias":-9.165364357986054}]},{"neurons":[{"last_weight_count":20,"weights":[-8.14033445572571,8.063307278033394,-1.1375047454296932,0.842216082668874,-8.285671287503588,-3.1916754023191327,0.05077071213672121,1.614307570280553,0.4119859389951085,-24.777193950154015,-3.499370503579318,-8.949167051075396,45.46086000491216,-0.29307897308898084,4.1795804977970805,-1.6791063876452486,14.694725344623848,-7.0693024849859425,-5.883752239012393,0.412380192517602],"bias":-2.487005276641088},{"last_weight_count":20,"weights":[-1.7610296446661846,-1.2759084270107695,-27.23974106866265,0.30062593348549904,-4.055059139662413,4.06797490621278,1.2875957436485101,-3.7266371629082244,4.909954149030355,-2.6166372370966635,8.640977722950378,0.007703168157743092,1.5340204698614401,-5.983996803407634,-3.9824670904522566,-0.549592026795805,18.273853172413745,2.2207530974275467,14.653554192197046,54.92042642753937],"bias":8.595320275813982},{"last_weight_count":20,"weights":[-4.78421705527604,-14.340971902269779,-4.741761265412265,-1.5369573189548593,-1.1285545897587284,-9.198251155156903,-0.5428617054035147,-68.25601069216286,45.78514380683452,-0.8840397297521008,-1.6473626288605518,7.669627803721094,1.9667376270914956,-3.0177581878790356,1.6631712732318424,2.9433435795060054,-0.1826155820955802,1.2721734864795764,-1.2197280246880398,21.556826184245264],"bias":-49.45438590236672},{"last_weight_count":20,"weights":[-0.36061325350547374,2.1656177614363497,-1.4783442729808352,-73.5387870876344,0.6605607014727646,10.991554551152234,-0.27800230507075535,-0.10003291367435171,62.84920277231557,-0.19402458827579752,138.73143923188374,2.071273889073497,6.801321680625986,9.473104905941236,2.0161252646336845,-4.350387585741259,0.9672983265171087,16.285804860968447,-75.2679399882228,-0.22958138951750715],"bias":0.0645306323753291},{"last_weight_count":20,"weights":[-1.4299287936367626,127.58900383586256,-3.6619773142247416,5.278229413304004,9.034766465373437,12.92009049861121,3.6120804502144823,-0.6800184716429216,0.5066470174740109,-10.03930980659453,-5.270111479330206,-4.451183055906416,-9.346262501966054,4.682939211351375,-13.430095455005112,-1.7524179236497919,16.360899052253295,5.395543516566369,-21.53983081234264,-4.693344320008579],"bias":1.572733211518221},{"last_weight_count":20,"weights":[-0.9523626548864422,10.579751908694707,-40.84220560252587,-61.93116771141023,-1.3579720718275599,1.996963477518867,6.596933802744854,0.02829439948867438,95.0338838646307,6.334768613473266,-4.600698327737757,8.249979518621846,0.6734886357306306,-1.9660385209146045,-0.18384810944978322,-1.5474623088764312,0.9369409688042256,10.472370925868677,-13.280906545533744,-7.532072286845647],"bias":-2.7298256973315635},{"last_weight_count":20,"weights":[-1.7053782216613909,22.92900357231893,1.9945256628271713,1.9922868780694125,-1.2382878469002283,-17.240465296579224,0.4961051932926484,3.2412889349712897,68.56568920907247,5.034282585583324,-6.677287090049715,4.506019879915485,6.143499687696293,7.21285281872337,-5.351271375283635,-2.3817113744315623,24.45497158206714,-23.952293943426408,19.420183243688594,9.31668339560725],"bias":0.2614488750772258},{"last_weight_count":20,"weights":[4.445894379845258,-15.657036175011571,69.11981822666836,5.406268761372906,-0.2999134756095514,9.289903400403553,13.27209448015757,1.4647857227369447,-3.393872391863787,-2.412330710014019,-0.3532955361868938,-0.26027028899048615,-3.0809126108190505,-2.143004156239142,5.174257619308721,-1.325980062997561,-1.1212716390443922,1.0147213686340737,19.12531029413391,-1.304950632665931],"bias":0.7930116201016666},{"last_weight_count":20,"weights":[1.4864638201280151,-52.13170520442232,-114.4227627574568,0.26470070152558506,-10.600363216149061,0.7957644013955685,-0.9736652196153626,2.6900499922019994,-12.99688521135062,14.254032201361483,0.7442700653697952,-42.06999551982606,-0.7107929997198968,1.0504837840702446,-4.965130723443024,-1.9384838606752415,-15.582619440211134,1.1803350930361858,46.47635067843514,-8.566780583701181],"bias":-0.2949522662103841}]},{"neurons":[{"last_weight_count":9,"weights":[7.532752777493662,2.7222388878498434,5.603032693498101,-6.196644186897726,-1.596470911857987,-4.954828297702509,-5.980724533419554,-0.5349282880361118,69.07287405130671],"bias":1.6901734859471629},{"last_weight_count":9,"weights":[-7.409390987256758,-2.456403235529098,1.8077427079196804,-2.0773216215331036,0.11629186010921547,-1.4343024102400346,1.3514844133788797,-3.8728296709302916,-1.3659172108597837],"bias":2.214915625644325},{"last_weight_count":9,"weights":[-2.0144888534895187,0.07526192245514102,12.655116587087864,1.4644500742466338,6.4995244286443725,1.439022186948584,-0.2640098257205475,5.918752447009764,1.058631394592251],"bias":-0.9126403900193478},{"last_weight_count":9,"weights":[1.4599729790250953,-0.014120043157230835,-22.730850958170212,16.86631705194069,0.8898918099215929,-9.109999653115317,-120.15548783886058,-1.882194653539316,0.9048345005312491],"bias":-1.2215899719578531},{"last_weight_count":9,"weights":[8.857658607953981,-1.291141800921406,4.528678994532828,0.5017002045829265,-0.35834810865219874,-0.04934679154865257,-2.3262938876033137,-27.745695702791227,7.980906612397552],"bias":-0.35642361324963373},{"last_weight_count":9,"weights":[0.5575554369484956,71.23005074296265,-1.6960593580590162,2.185662949733832,-1.978441846463106,4.352151948356777,128.59600667157108,2.600358948793737,-3.1111502138462277],"bias":54.34371644581676},{"last_weight_count":9,"weights":[-2.435126063541319,0.6927529714396816,1.2966729796429906,1.7832185181112163,-16.581915514897474,-0.861230443563344,2.121262639153766,-2.9239919887320713,0.24203743307471795],"bias":3.505828580966763}]},{"neurons":[{"last_weight_count":7,"weights":[-1.000733923487541,7.464717278467799,-27.06710453056668,-30.068651996262012,1.2591889669105867,1.0652067108937684,2.821524256635956],"bias":2.6471965003677727},{"last_weight_count":7,"weights":[2.1136792443180683,5.5080726753005615,7.13951836898874,-27.28899590109291,11.55506288300957,57.236422551263644,11.984728924435899],"bias":-0.18131895707571166},{"last_weight_count":7,"weights":[-1.3592733360783962,-0.46665050404746833,-0.21737278267390242,-3.1406472299647983,-1.5260585085072902,-1.2898106485943523,1.2857188083690667],"bias":0.2143729416157755},{"last_weight_count":7,"weights":[-0.464064561434098,-2.3952121229429655,-0.658898440872361,-0.8878868861200261,-1.0676841768484904,-2.250529179412988,-2.052567602380962],"bias":2.7687651741953627},{"last_weight_count":7,"weights":[14.18155949552336,1.3960020215547626,24.111517908185863,-3.3482596236403834,1.928072637041517,14.446870457764229,-1.8615287572593868],"bias":0.69865616607231}]},{"neurons":[{"last_weight_count":5,"weights":[8.7452439269555,1.8439034809054615,-0.6913670265465319,-9.616890202523651,-1.081472027666115],"bias":-0.21017521891346894},{"last_weight_count":5,"weights":[-4.213928515917829,4.532803057221783,0.006012581649469342,4.26667750396304,5.925146725235219],"bias":1.3903792340127898}]}]},"7":{"layers":[{"neurons":[{"last_weight_count":4,"weights":[-2.355255769054183,-25.40115309955807,-1.670413945184311,1.7618837641541916],"bias":11.798106317577112},{"last_weight_count":4,"weights":[-0.4385388230393042,191.25559936979897,-9.519838127458161,0.546066899862931],"bias":-7.110236494380344},{"last_weight_count":4,"weights":[17.546460502819627,0.4397981066496122,3.6077661115047297,1.2599141285574016],"bias":-2.2226062350556246},{"last_weight_count":4,"weights":[-1.2489208107750205,2.2956631512081107,3.163800001106849,2.141731005922769],"bias":11.378459047364325}]},{"neurons":[{"last_weight_count":4,"weights":[-4.493764782626843,3.2749698032071737,-2.4395856534327325,-2.106990873149214],"bias":-4.935132521863447},{"last_weight_count":4,"weights":[1.9265009221010758,85.36066813391022,-3.1750436582465835,8.216546728274528],"bias":-131.2596960734335},{"last_weight_count":4,"weights":[-11.833768118453285,-55.15220877518906,-0.6872155999962735,-1.4449662200465023],"bias":-1.362002335686097},{"last_weight_count":4,"weights":[-0.4525003528843593,-1.4658129095419254,0.0365368433833764,38.53683218414202],"bias":1.4433675333051863},{"last_weight_count":4,"weights":[293.05878626733863,8.406340832544112,1.080599677341751,-0.9199487631992126],"bias":4.478878413699694},{"last_weight_count":4,"weights":[1.313104540216577,7.353119337422527,-1.4768604884645111,6.119774800298247],"bias":2.8220728115596394},{"last_weight_count":4,"weights":[1.05482784614609,18.905204244434934,-1.190011391856465,-5.574536256086637],"bias":-5.206264080242052}]},{"neurons":[{"last_weight_count":7,"weights":[0.30377423192203773,2.9864707093490184,0.9216373533578763,4.773089307030177,-1.5383404481201848,52.8230276560236,10.775661466315116],"bias":19.86802404497787},{"last_weight_count":7,"weights":[-250.34388364694004,35.38836394163222,-551.0060871272441,-0.480002422082694,2.4313846427173154,-16.106948194618,11.682619158767139],"bias":4.298193670729903},{"last_weight_count":7,"weights":[0.27069654665108933,-5.377163516770489,13.698264189654545,4.888517899172505,7.243441058033793,1.3248244307656414,2.9471045252580668],"bias":-62.52732991043791},{"last_weight_count":7,"weights":[-0.1658436525503811,-218.94146231495256,-15.696232308114274,2.67818975380074,0.46479885687276473,-1.8909936711375217,-12.147758885802611],"bias":-8.024658807300648},{"last_weight_count":7,"weights":[-4.209051589325098,0.5636310417379761,15.46434349837488,5.627057129273967,0.5057848483602921,3.8547136856153084,15.702477758187312],"bias":-12.2803062917488},{"last_weight_count":7,"weights":[-2.650013151220196,-2.8937976454276786,-1.5256398535960902,25.2816737314887,1.0083069823435993,0.06523849310889832,-1.4090194187870682],"bias":49.551230986559396},{"last_weight_count":7,"weights":[0.9808682929035029,4.638871343034028,-0.4904726700491212,1.6294589912349602,-0.907530819945285,-13.83751912157623,-1.0924102300958052],"bias":-7.048715566345282},{"last_weight_count":7,"weights":[9.371650229378554,0.6386828244377426,0.6781859030598629,0.4861148227571073,0.4609544680409493,19.98829166080898,3.987479753840903],"bias":26.921481281794982},{"last_weight_count":7,"weights":[-2.117490320939665,-4.12109068631289,-73.11998278513299,25.793806879238836,-14.393423280565711,2.4668745039840863,-13.468256842519809],"bias":6.09409780704879}]},{"neurons":[{"last_weight_count":9,"weights":[-0.22486434104526226,2.743145728259377,0.6710187263686724,22.12926834204907,-1.9200301203500687,3.9812338877714923,-3.2859958758732155,10.275537289183571,5.532932593252036],"bias":0.428299307388354},{"last_weight_count":9,"weights":[2.0188529833208455,-9.251881832548492,1.0742037727835094,-4.5404562988709865,4.316665029523483,-9.51025390304013,-12.101359189262293,6.6634725964416415,1.1078221059574935],"bias":-75.74859888040764},{"last_weight_count":9,"weights":[4.9420515853233,-10.94281017783131,22.39722024541185,12.547626164390154,0.2860993765557488,-1.2359636432187158,3.144668268298756,3.452976363793738,22.146208186004436],"bias":3.630552821771981},{"last_weight_count":9,"weights":[-2.947411839490166,56.9015555650564,15.405636392509265,-12.311220858526099,-0.10501611315494533,9.964527716037026,-2.5213107743078087,-0.7889824354013392,-15.161649393667465],"bias":-8.244699738494015},{"last_weight_count":9,"weights":[1.6422305257398764,12.204224251827974,-11.103191177919843,4.505862703822678,-1.4305131235949429,-2.2397560324288803,-26.750828836079815,-119.81443659394284,-0.30927548241115127],"bias":2.2746330917244584},{"last_weight_count":9,"weights":[1.297878913416457,110.56644675073306,57.107984479396876,-4.111967533725949,1.33729151451238,2.7946819542978605,-0.317256670480436,-2.1520106996691144,8.493458498058395],"bias":0.6100826213677397},{"last_weight_count":9,"weights":[-1.6379703225111513,-1.041004275733408,3.9757324353099794,-2.1414197203728857,-6.768616149504872,1.0478403795804598,21.535363875875312,3.338461112305148,0.5460552413419829],"bias":-106.92026673859556},{"last_weight_count":9,"weights":[-1.0700192783402416,1.9938729066627099,-20.54093131775493,-21.12323812328744,-4.669903517831357,1.7739205098642286,3.828365499266268,-36.14036027691228,-1.1218879397701684],"bias":2.0734823298550937},{"last_weight_count":9,"weights":[-4.462619290558641,4.076722815668983,-8.113781974420977,23.757266261813974,-19.577410325076514,0.15927945044234598,3.888896248515633,11.609382136184792,12.166331440896633],"bias":1.6839742763532715},{"last_weight_count":9,"weights":[-0.20798305138865633,1.4034888231954115,-1.9980326429231057,-8.499276776011472,-3.5150796653563954,-0.34979034154158667,17.670481133122326,1.0236273816409551,-1.3140479698244192],"bias":-1.164661174389835},{"last_weight_count":9,"weights":[-11.2623042109799,1.0218680001158134,-2.4101208276702484,-0.31082252403992705,9.804972004509125,0.6604716121230826,12.359159806141855,-3.134780230958276,91.99642092458794],"bias":-92.21005369961073},{"last_weight_count":9,"weights":[-117.25928945838946,-62.04698321839374,0.8296880442310767,0.3180628196032774,-24.237172287228685,1.5399028582015453,2.6410066290699175,-0.06860962676042417,-10.392303552813262],"bias":-2.3898392571249296},{"last_weight_count":9,"weights":[2.7357577452861617,0.22673234041737161,-3.6952073778651067,17.232020109703935,27.819752561124094,-32.377822877646466,0.3215429081539453,-1.2730437237287586,-1.8326249126499734],"bias":-4.102718965771592},{"last_weight_count":9,"weights":[-2.643782236438761,-9.629281790405729,2.941887724223309,-125.89538714597768,4.3513506397946,2.0197861117127096,-16.137967125861753,0.3162656305537724,13.667679291955764],"bias":-1.0553036644806966},{"last_weight_count":9,"weights":[2.5190137422687258,34.14153553956196,-0.4033434754416888,-8.126951544247516,0.5199796835147671,5.203554666801497,-1.1133420429053937,-2.3615473026193956,-2.1304077082636503],"bias":0.10493581833108061},{"last_weight_count":9,"weights":[1.0778339557993573,38.58048589357696,0.24299028492346753,-4.130109897776951,-26.425909249199957,-0.7977002526062349,4.214463412073681,-13.357941519068104,0.4694678084519432],"bias":-0.32913336716412156},{"last_weight_count":9,"weights":[-10.220564108203545,3.400999159695779,-54.704322651301624,-10.495047125918648,-213.9367095890923,-5.235187519527547,-0.9519203392096969,0.020786820242689144,22.014494591325157],"bias":0.07436004676788767},{"last_weight_count":9,"weights":[-2.5474321719120607,2.4478297267190143,111.09159428176602,1.7994392016429805,-0.18225705842337586,-9.229078973478403,-0.13383438232874956,-3.2894368888684142,-0.9984428187274011],"bias":-3.3001910226100617},{"last_weight_count":9,"weights":[0.3306562873675525,36.897387589263516,-0.7762543865939062,22.37993067329673,6.062193187588669,17.585692163775366,-3.560293965593466,-0.6653348201146972,-21.90458248457881],"bias":142.7063018530707},{"last_weight_count":9,"weights":[5.163766312282653,4.236092279232048,-2.1290247940567957,-0.6346633488004383,-0.3086084745040809,-0.36776445674774516,-12.92097122191105,5.539626668924965,-1.2998250695010636],"bias":-9.165364357986054}]},{"neurons":[{"last_weight_count":20,"weights":[-8.195852608282415,8.063307278033394,-1.1375047454296932,0.6760533709490223,-8.285671287503588,-3.1916754023191327,-0.0406119680671964,1.614307570280553,0.2850883529363446,-24.777193950154015,-5.451961284710155,-8.829400151054541,45.46086000491216,-0.29307897308898084,4.1795804977970805,-1.6791063876452486,14.694725344623848,-7.079971113767776,-5.883752239012393,0.412380192517602],"bias":-2.416887649517287},{"last_weight_count":20,"weights":[-1.7610296446661846,-1.272835006349516,-27.183164582160476,-0.1939912071707728,3.8573937437008374,4.06797490621278,1.8916672315884577,-3.0362162106015114,4.909954149030355,-2.4346671374573132,8.738843721257258,0.007703168157743092,1.4995117893064946,-5.983996803407634,-3.9824670904522566,-0.549592026795805,18.273853172413745,2.2207530974275467,14.653554192197046,29.76422321147102],"bias":8.684695150597669},{"last_weight_count":20,"weights":[-4.78421705527604,10.088084002511543,-4.741761265412265,-1.5369573189548593,-1.1285545897587284,-9.227618146538362,-0.5428617054035147,-68.1808942995552,-30.69172584119384,-0.8840397297521008,-1.6473626288605518,7.669627803721094,1.9667376270914956,-3.148924150075176,1.6631712732318424,2.9433435795060054,-0.17619414497672184,1.9396911970848145,-1.2197280246880398,13.432137579815738],"bias":-49.45438590236672},{"last_weight_count":20,"weights":[-0.36061325350547374,-4.0331958380912045,-1.496613727647975,-73.5387870876344,0.6605607014727646,10.991554551152234,-0.14935489932566964,-0.10003291367435171,62.84920277231557,-0.19402458827579752,138.73143923188374,2.071273889073497,6.801321680625986,9.473104905941236,2.0161252646336845,-4.350387585741259,0.9672983265171087,16.285804860968447,-91.54100290249856,-0.24744388265497566],"bias":0.0645306323753291},{"last_weight_count":20,"weights":[-1.4299287936367626,-159.97506733658778,-3.6619773142247416,5.278229413304004,9.034766465373437,12.92009049861121,3.6120804502144823,-0.6800184716429216,0.5066470174740109,-10.03930980659453,-5.270111479330206,-4.451183055906416,-9.346262501966054,-5.018466138348748,-7.16478240056603,2.592375749658949,16.360899052253295,5.395543516566369,-21.66112714951588,-4.693344320008579],"bias":1.572733211518221},{"last_weight_count":20,"weights":[-0.9523626548864422,10.521393453652417,-40.84220560252587,-61.93116771141023,-1.2906602745086952,1.996963477518867,6.700729125447202,-0.02361229171269752,95.0338838646307,6.315440871518229,-2.3596081775876425,8.249979518621846,0.6734886357306306,-1.9660385209146045,-0.18384810944978322,-1.5474623088764312,0.9369409688042256,10.472370925868677,-12.651123284387547,-7.532072286845647],"bias":-2.7298256973315635},{"last_weight_count":20,"weights":[1.875863300772052,22.92900357231893,1.8008857548679598,1.9922868780694125,1.2353203646718116,27.064744612882937,0.2593624499212708,3.3992907512679924,68.50784681751287,5.034282585583324,-6.878445718949963,4.506019879915485,3.5645305948597668,7.13947891451105,-5.391614369864654,-2.3817113744315623,24.45497158206714,22.809079473089792,19.389545992263958,9.31668339560725],"bias":0.2616389897403555},{"last_weight_count":20,"weights":[4.445894379845258,-15.657036175011571,69.11981822666836,-13.657893641275068,-0.2999134756095514,-4.949597260047201,13.400354850306673,1.4647857227369447,-3.393872391863787,-2.404988844159843,-0.3532955361868938,-0.26027028899048615,-3.0809126108190505,-2.143004156239142,5.361319366145144,-1.325980062997561,-1.0907098887613085,1.0147213686340737,26.25003449044961,-1.304950632665931],"bias":-0.5887259920350117},{"last_weight_count":20,"weights":[1.5313154749317035,-52.13170520442232,-114.4227627574568,0.15691146764057165,-10.600363216149061,0.7957644013955685,-0.9494829866074218,2.6900499922019994,-19.098874241463548,14.087425179885763,0.5785925145587412,-42.06999551982606,-0.7107929997198968,1.2251410203668496,-9.602670811253738,-1.9384838606752415,-15.582619440211134,1.0488677174865053,-52.000423465483344,-8.566780583701181],"bias":-0.2949522662103841}]},{"neurons":[{"last_weight_count":9,"weights":[7.532752777493662,1.5645931061747722,4.897381340445835,-6.196644186897726,-1.6221330184820018,-4.954828297702509,-5.980724533419554,-0.5349282880361118,69.07287405130671],"bias":-1.0270154557312132},{"last_weight_count":9,"weights":[-7.409390987256758,3.266487771518499,-2.6065058505274017,-2.0773216215331036,0.11629186010921547,-1.4343024102400346,1.3514844133788797,-3.8728296709302916,-1.3659172108597837],"bias":2.214915625644325},{"last_weight_count":9,"weights":[-2.0144888534895187,0.12294809136695961,12.655116587087864,1.4644500742466338,6.4995244286443725,-1.0502542437381437,-0.534612084778593,5.918752447009764,1.058631394592251],"bias":-0.8650875727679537},{"last_weight_count":9,"weights":[8.590147754369024,-0.015364743906537037,-22.730850958170212,16.86631705194069,0.8898918099215929,-9.109999653115317,-120.15548783886058,-3.32521099496014,0.9048345005312491],"bias":-1.1673242374998016},{"last_weight_count":9,"weights":[8.857658607953981,-1.3451242392044886,-6.176586468949249,0.31244347501515324,-0.35834810865219874,-0.07270958860235108,-2.3262938876033137,-27.724084206658556,7.980906612397552],"bias":0.29600380677946225},{"last_weight_count":9,"weights":[0.5575554369484956,71.23005074296265,-1.6960593580590162,2.185662949733832,3.0154266252658584,4.352151948356777,128.42957221655658,2.600358948793737,-3.434287279078735],"bias":54.34371644581676},{"last_weight_count":9,"weights":[-2.435126063541319,0.6927529714396816,1.2966729796429906,1.7832185181112163,-16.581915514897474,1.2383821304093263,2.121262639153766,-2.9239919887320713,-0.2039004110807908],"bias":3.412096925438702}]},{"neurons":[{"last_weight_count":7,"weights":[-1.000733923487541,7.456634786211625,-24.49964065774818,-36.253728316211266,-1.4978592487900362,1.0652067108937684,2.821524256635956],"bias":2.6471965003677727},{"last_weight_count":7,"weights":[2.1136792443180683,-5.126901644611274,7.067007302545396,-27.28899590109291,11.55506288300957,57.39980569876924,11.984728924435899],"bias":-0.2829388444738268},{"last_weight_count":7,"weights":[-1.3592733360783962,1.6881372252911833,-0.21737278267390242,3.808173812722473,-1.5260585085072902,-1.6563314608420918,1.2857188083690667],"bias":0.2143729416157755},{"last_weight_count":7,"weights":[-0.464064561434098,-2.3952121229429655,-0.658898440872361,-0.8878868861200261,-1.0676841768484904,-2.3423511553917815,-2.052567602380962],"bias":2.7687651741953627},{"last_weight_count":7,"weights":[14.18155949552336,1.3960020215547626,35.245800742231765,4.29472975969974,-3.05289526999096,14.446870457764229,-1.8615287572593868],"bias":0.6421644449651894}]},{"neurons":[{"last_weight_count":5,"weights":[8.7452439269555,1.8439034809054615,-0.6913670265465319,-9.616890202523651,-0.9272181618819078],"bias":-0.1411161868451797},{"last_weight_count":5,"weights":[2.5866603103634445,3.931155183252446,0.006012581649469342,4.26667750396304,-10.170732766719334],"bias":1.5646464398944684}]}]},"13":{"layers":[{"neurons":[{"last_weight_count":4,"weights":[-2.2637916425230378,-25.698806069898303,1.794596800095993,1.7618837641541916],"bias":11.798106317577112},{"last_weight_count":4,"weights":[-0.4385388230393042,197.4963086999975,-5.758359113187133,-1.133748702232715],"bias":-7.126804058535059},{"last_weight_count":4,"weights":[10.330329704313847,0.9182194242062279,3.6077661115047297,1.2599141285574016],"bias":-2.2226062350556246},{"last_weight_count":4,"weights":[-1.2489208107750205,-4.1950593335925666,3.163800001106849,1.6960773695198792],"bias":11.378459047364325}]},{"neurons":[{"last_weight_count":4,"weights":[-5.9003691356940235,3.2749698032071737,-2.4395856534327325,-2.0505633193534027],"bias":-4.935132521863447},{"last_weight_count":4,"weights":[1.9265009221010758,85.36066813391022,-4.107429173331433,8.163443973487883],"bias":-131.2596960734335},{"last_weight_count":4,"weights":[-11.833768118453285,-55.033635338550596,-0.6872155999962735,-1.4449662200465023],"bias":-1.362002335686097},{"last_weight_count":4,"weights":[-0.4525003528843593,-1.3125880543419863,0.0365368433833764,38.37650056165031],"bias":1.4433675333051863},{"last_weight_count":4,"weights":[292.980736751563,8.406340832544112,1.080599677341751,-1.1783361865026099],"bias":7.536231290760745},{"last_weight_count":4,"weights":[1.403183032560964,7.322628013733095,-1.4768604884645111,6.273038227018635],"bias":2.7450536728354487},{"last_weight_count":4,"weights":[1.0101131054555654,19.015289212447822,-1.190011391856465,-5.574536256086637],"bias":-5.303041584984446}]},{"neurons":[{"last_weight_count":7,"weights":[0.30377423192203773,2.1311850045366456,0.9825219823068241,4.773089307030177,-1.5383404481201848,31.740391342410103,5.452659181513356],"bias":19.86802404497787},{"last_weight_count":7,"weights":[-250.25084033013695,35.38836394163222,-551.0060871272441,-0.480002422082694,2.4313846427173154,-16.106948194618,11.682619158767139],"bias":4.298193670729903},{"last_weight_count":7,"weights":[0.27069654665108933,2.697326870167689,13.575636326243039,-3.817308549469827,11.674745020892527,-1.0404548153513655,2.9471045252580668],"bias":-62.52732991043791},{"last_weight_count":7,"weights":[-0.1070837494528663,-218.94146231495256,33.474591300831754,2.67818975380074,0.46479885687276473,-1.8909936711375217,-12.147758885802611],"bias":-8.024658807300648},{"last_weight_count":7,"weights":[-4.209051589325098,0.5636310417379761,-29.278056893958095,-4.618044128544826,-0.5104467558736566,3.7694149193036006,18.658831334800837],"bias":-12.2803062917488},{"last_weight_count":7,"weights":[-2.650013151220196,-2.944634451252006,-1.5256398535960902,25.2816737314887,1.0083069823435993,0.06523849310889832,-1.4090194187870682],"bias":49.551230986559396},{"last_weight_count":7,"weights":[0.9808682929035029,7.843366563271633,-0.4286794345740542,1.7197875195327579,-0.907530819945285,-13.83751912157623,-1.0924102300958052],"bias":-11.931571758472892},{"last_weight_count":7,"weights":[5.22812595284388,0.6386828244377426,0.6781859030598629,0.5024165475034267,0.37113424136304296,19.965987934647927,3.987479753840903],"bias":26.921481281794982},{"last_weight_count":7,"weights":[-1.4076950193046884,-4.12109068631289,-73.11998278513299,25.817854953394058,10.17551090242744,-3.320082290295633,-13.474885902538265],"bias":6.09409780704879}]},{"neurons":[{"last_weight_count":9,"weights":[-0.06997701738714872,2.743145728259377,0.6710187263686724,22.12926834204907,3.3388367802608463,3.9812338877714923,-3.2859958758732155,10.275537289183571,4.700467348921638],"bias":0.428299307388354},{"last_weight_count":9,"weights":[2.0188529833208455,-9.3049480160991,1.5462754205872897,-3.034354634784622,4.316665029523483,-9.51025390304013,-12.101359189262293,3.5038937232241048,1.1078221059574935],"bias":-75.82326143043933},{"last_weight_count":9,"weights":[4.743157323302783,-10.94281017783131,-13.48947559540411,12.547626164390154,0.47659766195197195,-1.2359636432187158,3.144668268298756,3.3727164120957185,22.146208186004436],"bias":5.818899952948787},{"last_weight_count":9,"weights":[5.376178758463759,35.74060634880133,16.791331640281715,-12.311220858526099,-0.15789096643114825,9.964527716037026,-2.5213107743078087,-0.7889824354013392,-15.110607833363526],"bias":-8.244699738494015},{"last_weight_count":9,"weights":[1.6422305257398764,12.134980007335558,-7.104689593741769,3.4908422849104372,-1.4305131235949429,-1.1758747607582019,-26.750828836079815,-119.81443659394284,-0.30927548241115127],"bias":2.2314878474302886},{"last_weight_count":9,"weights":[1.2157332741741438,110.56644675073306,-35.725071143450755,-4.111967533725949,-0.6398337875817347,3.0500810483486704,-0.317256670480436,-2.1520106996691144,8.493458498058395],"bias":0.6100826213677397},{"last_weight_count":9,"weights":[-1.6379703225111513,1.3510235979090377,3.9757324353099794,-1.2019056738243594,-9.282830883479766,1.0478403795804598,21.535363875875312,3.338461112305148,-0.33948449672384445],"bias":55.5107616697118},{"last_weight_count":9,"weights":[-1.0700192783402416,1.99735578998465,-20.54093131775493,24.69275349964894,-8.63005192150125,-2.8025011183086157,3.828365499266268,-36.14036027691228,-0.6463513454712683],"bias":2.0734823298550937},{"last_weight_count":9,"weights":[-4.462619290558641,4.000400306150283,-8.113781974420977,23.757266261813974,-19.577410325076514,0.15927945044234598,3.9560517090658567,11.609382136184792,12.166331440896633],"bias":1.6839742763532715},{"last_weight_count":9,"weights":[-0.4006546330469447,3.6821637226026183,-1.9980326429231057,16.142819723247246,-3.5150796653563954,-0.9422346437412139,17.670481133122326,1.0236273816409551,-1.3140479698244192],"bias":-1.0017597824196476},{"last_weight_count":9,"weights":[-11.2623042109799,0.9603999497161085,-2.3444386995423954,-0.31082252403992705,9.804972004509125,-0.6586860437951929,-7.072651419267134,-2.9901617513859837,91.99642092458794],"bias":-92.134925273715},{"last_weight_count":9,"weights":[-117.25928945838946,-62.04698321839374,0.8296880442310767,0.19922327257999403,-24.237172287228685,1.5399028582015453,1.5998690935185083,-0.2436804521688664,-10.329237514924486],"bias":-2.3898392571249296},{"last_weight_count":9,"weights":[2.457232984244701,-0.23463212389479332,-3.6952073778651067,17.163471156363784,13.922459354540864,-32.46124503052584,0.3215429081539453,-1.108382307353244,1.5064505466979632],"bias":-4.102718965771592},{"last_weight_count":9,"weights":[-2.017449201160868,-9.499123100955527,1.7501760235752413,183.36484316379298,4.3513506397946,2.0197861117127096,-16.137967125861753,0.3063035354641835,23.199689940673952],"bias":-1.0553036644806966},{"last_weight_count":9,"weights":[-4.186413871021743,34.177249629960166,-0.28939156906875246,-14.559158105925363,0.5199796835147671,5.203554666801497,-3.5765494442716674,-2.3615473026193956,-2.1304077082636503],"bias":0.11401404107427968},{"last_weight_count":9,"weights":[0.657185406199911,38.58048589357696,0.4449257725647917,-4.130109897776951,-26.425909249199957,-0.7977002526062349,4.214463412073681,-13.357941519068104,0.42933505408108297],"bias":-0.29463818624663274},{"last_weight_count":9,"weights":[-10.503638873267455,3.400999159695779,62.476374615319166,-6.193051939033365,-213.9367095890923,4.217762206304497,1.1314421924166183,0.020786820242689144,22.014494591325157],"bias":0.14965020146431401},{"last_weight_count":9,"weights":[3.7408700456918766,4.28989251188316,111.09159428176602,1.7994392016429805,-0.42344270569748765,11.343129830549227,-0.4663402329088176,-3.2894368888684142,-0.9984428187274011],"bias":-3.3001910226100617},{"last_weight_count":9,"weights":[0.3306562873675525,31.780711912864458,-0.7943758481111003,22.37993067329673,6.062193187588669,17.585692163775366,-2.52534064477401,-0.4417036247954757,-21.90458248457881],"bias":142.7063018530707},{"last_weight_count":9,"weights":[5.163766312282653,4.236092279232048,1.7778107364317137,-1.262104335233902,-0.3086084745040809,-0.36776445674774516,12.680277111995345,5.539626668924965,-1.2998250695010636],"bias":-9.165364357986054}]},{"neurons":[{"last_weight_count":20,"weights":[-8.14033445572571,14.207240952988817,-0.6486334927216764,-0.6668412280970049,-8.285671287503588,-3.1916754023191327,-0.0406119680671964,1.7344320068320858,0.4119859389951085,-24.682659496479133,-3.499370503579318,-15.424211368161215,45.46086000491216,-0.29307897308898084,4.2258467248758,-1.6791063876452486,18.135446432995955,-7.079971113767776,11.10507139851022,0.35770655955459985],"bias":-2.4909555272203354},{"last_weight_count":20,"weights":[-1.7610296446661846,-1.2759084270107695,-27.23974106866265,0.1956483630197907,2.03567386676104,4.06797490621278,1.8916672315884577,-3.7266371629082244,4.909954149030355,-2.4346671374573132,8.640977722950378,-0.009472649692943966,1.728500313444875,-5.983996803407634,-7.433605649513176,0.5294878089806226,18.273853172413745,2.2207530974275467,14.497441086659467,29.76422321147102],"bias":5.92274015456458},{"last_weight_count":20,"weights":[-4.78421705527604,10.088084002511543,-4.741761265412265,-1.213090186495506,-1.1285545897587284,-9.198251155156903,-0.5428617054035147,-68.1808942995552,45.78514380683452,-0.8840397297521008,-1.6473626288605518,-14.096475341644618,1.9667376270914956,-3.148924150075176,1.6631712732318424,2.9433435795060054,-0.17619414497672184,1.9396911970848145,-1.2197280246880398,13.343587427941943],"bias":-49.45438590236672},{"last_weight_count":20,"weights":[-0.36061325350547374,2.1656177614363497,-1.496613727647975,-73.5387870876344,0.6605607014727646,10.956826728857767,-0.3017318266004978,-0.1420112667640292,62.84920277231557,-0.19402458827579752,138.79359048095694,