{"trainer":{"next_generation":{"0":{"layers":[{"neurons":[{"last_weight_count":4,"weights":[-12.791933116586092,-0.10494351482867448,32.67555271949416,18.136334739039704],"bias":1.073646561772482},{"last_weight_count":4,"weights":[-1.7691979586073379,-0.1888332023850604,-4.865397470241229,-3.1773332759394344],"bias":0.4200849386043849},{"last_weight_count":4,"weights":[-1.6720952908795361,2.4359582042156056,1.066307009246008,3.3193194436299143],"bias":-5.202813977341887},{"last_weight_count":4,"weights":[5.526611879569513,2.2779749457264478,0.766162459913343,1.435109754879283],"bias":1.6587734461262325}]},{"neurons":[{"last_weight_count":4,"weights":[-2.1019366886032653,-2.0974590383303195,-8.499205708082016,1.9606077544195188],"bias":42.142528266179845},{"last_weight_count":4,"weights":[0.8380641464804811,-2.57509988105211,-8.35040156967284,12.459175484148156],"bias":1.6318697458033022},{"last_weight_count":4,"weights":[0.8781629028818022,-2.450800028434858,-31.016921234135133,-8.021361836948094],"bias":11.76487387092663},{"last_weight_count":4,"weights":[9.686397801098224,-0.3670990989103537,-5.977704385722688,-1.2193473040383485],"bias":10.23289349579755},{"last_weight_count":4,"weights":[0.8041152400671099,0.03863874467545631,-7.662578281420073,24.375342314279827],"bias":-0.3210888344184229},{"last_weight_count":4,"weights":[217.68706106571096,-0.2221125265498977,0.11183450819073479,-1.4804317042162276],"bias":7.609142699833472},{"last_weight_count":4,"weights":[6.673773458386749,12.542258990429715,1.3634971937479214,159.42734806740916],"bias":2.1081111438224602}]},{"neurons":[{"last_weight_count":7,"weights":[-0.06362319572925841,-0.6542013941070713,0.7105051215766136,2.7055054240844902,-1.2765525496353107,106.48037722448244,2.884628272624949],"bias":-15.414627930940542},{"last_weight_count":7,"weights":[-7.926302562813647,5.020125528541496,0.43803207953348655,-1.2502972548399653,10.786313449348965,0.9266895952251447,-6.043996193832333],"bias":0.7218502760811636},{"last_weight_count":7,"weights":[-5.735170593767294,0.2814923180397372,7.946928461775294,-1.4904847351080854,-10.557983328335212,-5.318566146835665,-2.2707219948111663],"bias":-28.18733975610639},{"last_weight_count":7,"weights":[0.1678865171835584,7.29926289246689,3.298715985363405,-2.152781170590393,-5.095606543838758,0.09952031082208102,0.20275718509587837],"bias":0.41192794077289757},{"last_weight_count":7,"weights":[-41.50356174486132,9.89483242094591,-7.32847411580055,-4.589476535098956,-11.08795617574329,-5.849156137380096,-0.32606218602945075],"bias":-3.1021965698258476}]},{"neurons":[{"last_weight_count":5,"weights":[4.461631021558829,-15.439056504047441,9.587931026039112,2.368784559292469,-43.080923718999124],"bias":-3.4414996129171076},{"last_weight_count":5,"weights":[10.905887653471309,23.908959381133972,-3.140603555852847,2.1408930821896273,8.058521830322341],"bias":-2.991644827332292}]}]},"1":{"layers":[{"neurons":[{"last_weight_count":4,"weights":[-12.791933116586092,-0.10494351482867448,32.73426407091799,18.136334739039704],"bias":1.073646561772482},{"last_weight_count":4,"weights":[-1.7691979586073379,-0.1888332023850604,-4.865397470241229,-3.1773332759394344],"bias":0.4200849386043849},{"last_weight_count":4,"weights":[-1.6720952908795361,2.4374417547419926,1.066307009246008,3.4072803240941436],"bias":-5.202813977341887},{"last_weight_count":4,"weights":[6.6109628870130575,-1.420805255073474,0.766162459913343,1.435109754879283],"bias":1.3018646605610469}]},{"neurons":[{"last_weight_count":4,"weights":[-2.000652235671481,-2.431967645483178,-8.499205708082016,1.9606077544195188],"bias":42.142528266179845},{"last_weight_count":4,"weights":[0.8380641464804811,-2.57509988105211,-8.514616021491012,-7.259019417431585],"bias":1.6561180616935116},{"last_weight_count":4,"weights":[0.4706770563522026,-1.2005664434187113,-31.016921234135133,-8.021361836948094],"bias":7.843714015099256},{"last_weight_count":4,"weights":[9.686397801098224,-0.32864840772677273,-5.977704385722688,-1.2193473040383485],"bias":10.23289349579755},{"last_weight_count":4,"weights":[0.8041152400671099,0.07296036572833592,-7.662578281420073,24.375342314279827],"bias":-0.19439316727164302},{"last_weight_count":4,"weights":[217.68706106571096,-0.2221125265498977,-0.06466606222381549,-1.4804317042162276],"bias":7.609142699833472},{"last_weight_count":4,"weights":[6.582229999376889,12.542258990429715,1.041898674272128,159.42734806740916],"bias":2.1081111438224602}]},{"neurons":[{"last_weight_count":7,"weights":[0.07866376216328431,-0.6542013941070713,0.7088414592979067,2.7055054240844902,-1.2765525496353107,-73.24378000182033,3.074652874749977],"bias":-15.414627930940542},{"last_weight_count":7,"weights":[-6.3164951021309195,5.748821328286054,0.43803207953348655,-1.2502972548399653,19.04395487552331,0.9266895952251447,-6.043996193832333],"bias":0.7218502760811636},{"last_weight_count":7,"weights":[-5.60452856837925,0.2814923180397372,7.946928461775294,-1.4737037699220743,-10.557983328335212,-5.318566146835665,2.4509047728106643],"bias":-28.18733975610639},{"last_weight_count":7,"weights":[0.1678865171835584,-5.8112487438297515,3.298715985363405,-2.152781170590393,-4.998243538049242,0.09952031082208102,0.20275718509587837],"bias":0.41192794077289757},{"last_weight_count":7,"weights":[31.43947223246399,9.89483242094591,-7.32847411580055,-4.589476535098956,-11.08795617574329,-5.724072089579341,-0.32606218602945075],"bias":-3.1021965698258476}]},{"neurons":[{"last_weight_count":5,"weights":[4.461631021558829,-25.784784572910347,9.587931026039112,2.368784559292469,-43.080923718999124],"bias":2.1402967598743423},{"last_weight_count":5,"weights":[10.905887653471309,23.908959381133972,-3.140603555852847,2.1408930821896273,8.058521830322341],"bias":2.081292540530401}]}]},"3":{"layers":[{"neurons":[{"last_weight_count":4,"weights":[-12.791933116586092,-0.2993536835260845,32.67555271949416,18.136334739039704],"bias":1.073646561772482},{"last_weight_count":4,"weights":[-1.7691979586073379,-0.1888332023850604,-4.797083758637857,-3.1773332759394344],"bias":0.4200849386043849},{"last_weight_count":4,"weights":[-1.6720952908795361,2.4374417547419926,1.066307009246008,2.1900178710786378],"bias":-5.202813977341887},{"last_weight_count":4,"weights":[5.526611879569513,2.2779749457264478,0.766162459913343,1.435109754879283],"bias":1.6587734461262325}]},{"neurons":[{"last_weight_count":4,"weights":[-2.000652235671481,-2.431967645483178,-8.499205708082016,3.5056466975963767],"bias":42.142528266179845},{"last_weight_count":4,"weights":[0.8380641464804811,-2.618439987999581,-8.35040156967284,-7.290872782487432],"bias":1.6318697458033022},{"last_weight_count":4,"weights":[1.0098900558818584,-1.2005664434187113,-31.016921234135133,-8.08397947242967],"bias":7.843714015099256},{"last_weight_count":4,"weights":[9.814134910885647,-0.32864840772677273,-5.977704385722688,-1.2193473040383485],"bias":10.23289349579755},{"last_weight_count":4,"weights":[0.8041152400671099,0.07296036572833592,-7.662578281420073,24.375342314279827],"bias":-0.19439316727164302},{"last_weight_count":4,"weights":[217.68706106571096,-0.2221125265498977,0.11183450819073479,-1.4804317042162276],"bias":7.609142699833472},{"last_weight_count":4,"weights":[6.622836535140193,12.542258990429715,1.041898674272128,159.42734806740916],"bias":2.1081111438224602}]},{"neurons":[{"last_weight_count":7,"weights":[-0.06362319572925841,-0.6542013941070713,0.7088414592979067,2.7055054240844902,-2.1999176004361685,-73.24378000182033,-2.653591445195307],"bias":-15.414627930940542},{"last_weight_count":7,"weights":[4.904533407715224,5.061162318688841,0.43803207953348655,-1.2502972548399653,10.786313449348965,0.9266895952251447,-6.213162008191631],"bias":0.6700351297485397},{"last_weight_count":7,"weights":[-5.735170593767294,0.2848961563913708,7.946928461775294,-1.4737037699220743,-10.557983328335212,-5.318566146835665,-2.2707219948111663],"bias":-28.18733975610639},{"last_weight_count":7,"weights":[0.1678865171835584,-5.8112487438297515,3.298715985363405,-2.152781170590393,-5.095606543838758,0.09952031082208102,0.20275718509587837],"bias":0.41192794077289757},{"last_weight_count":7,"weights":[31.24655673162428,9.89483242094591,-7.32847411580055,-4.589476535098956,-11.08795617574329,-5.849156137380096,-0.32606218602945075],"bias":-2.981336283699212}]},{"neurons":[{"last_weight_count":5,"weights":[4.461631021558829,-25.784784572910347,9.587931026039112,2.200692775096487,-43.080923718999124],"bias":2.1402967598743423},{"last_weight_count":5,"weights":[10.905887653471309,23.908959381133972,-3.140603555852847,2.1408930821896273,8.058521830322341],"bias":-2.991644827332292}]}]},"11":{"layers":[{"neurons":[{"last_weight_count":4,"weights":[-12.791933116586092,-0.10494351482867448,32.67555271949416,18.33127146504848],"bias":1.7914635563179038},{"last_weight_count":4,"weights":[-1.7691979586073379,-0.1888332023850604,-4.865397470241229,-2.9733983994395907],"bias":-0.43614313320648734},{"last_weight_count":4,"weights":[-1.6720952908795361,2.6208116920198297,1.066307009246008,3.3193194436299143],"bias":-5.202813977341887},{"last_weight_count":4,"weights":[5.526611879569513,2.2779749457264478,0.766162459913343,1.435109754879283],"bias":1.1702024999771548}]},{"neurons":[{"last_weight_count":4,"weights":[-2.000652235671481,-2.0974590383303195,-8.499205708082016,3.5056466975963767],"bias":42.33785351205465},{"last_weight_count":4,"weights":[0.8380641464804811,-2.57509988105211,-8.514616021491012,-7.259019417431585],"bias":1.6561180616935116},{"last_weight_count":4,"weights":[0.8781629028818022,1.5620423172366806,-31.016921234135133,-8.08397947242967],"bias":7.843714015099256},{"last_weight_count":4,"weights":[-14.710901915428792,-0.32864840772677273,-5.977704385722688,-1.2193473040383485],"bias":10.23289349579755},{"last_weight_count":4,"weights":[0.8041152400671099,0.07296036572833592,13.524191128539224,24.375342314279827],"bias":-0.19439316727164302},{"last_weight_count":4,"weights":[217.68706106571096,-0.29187746038930845,0.029087161319493196,-1.4804317042162276],"bias":7.609142699833472},{"last_weight_count":4,"weights":[6.746685724442068,12.548978854477363,1.041898674272128,159.42734806740916],"bias":2.1081111438224602}]},{"neurons":[{"last_weight_count":7,"weights":[-0.036242006389661706,-0.6542013941070713,0.6273961022613956,2.7055054240844902,-2.1999176004361685,106.48037722448244,3.0766560746783003],"bias":-15.414627930940542},{"last_weight_count":7,"weights":[-7.926302562813647,5.061162318688841,0.5649916039484268,-1.2502972548399653,10.786313449348965,0.7274754807673818,-6.213162008191631],"bias":0.6700351297485397},{"last_weight_count":7,"weights":[-5.60452856837925,0.2814923180397372,7.946928461775294,-1.5701515604658707,-10.557983328335212,2.8840004041422738,2.4509047728106643],"bias":-28.18733975610639},{"last_weight_count":7,"weights":[0.1678865171835584,-5.8112487438297515,3.2901680897666434,-2.152781170590393,-5.1270639163143565,0.09952031082208102,0.36523441738348345],"bias":-0.6985641677755052},{"last_weight_count":7,"weights":[31.43947223246399,-10.880419706468077,-7.32847411580055,-4.589476535098956,-11.08795617574329,-5.724072089579341,-0.32606218602945075],"bias":-2.981336283699212}]},{"neurons":[{"last_weight_count":5,"weights":[4.499950961202849,39.396486218741124,9.587931026039112,2.368784559292469,-28.90574725885566],"bias":2.1402967598743423},{"last_weight_count":5,"weights":[10.905887653471309,23.908959381133972,5.692806639681274,2.1408930821896273,8.069014574003521],"bias":-2.991644827332292}]}]},"14":{"layers":[{"neurons":[{"last_weight_count":4,"weights":[-12.791933116586092,-0.10494351482867448,32.67555271949416,18.136334739039704],"bias":1.7914635563179038},{"last_weight_count":4,"weights":[-1.7691979586073379,-0.1888332023850604,-4.865397470241229,-3.1773332759394344],"bias":0.4200849386043849},{"last_weight_count":4,"weights":[-1.6720952908795361,2.4374417547419926,1.066307009246008,3.3193194436299143],"bias":-5.202813977341887},{"last_weight_count":4,"weights":[5.526611879569513,2.4648569976240693,0.766162459913343,1.435109754879283],"bias":1.3018646605610469}]},{"neurons":[{"last_weight_count":4,"weights":[-2.000652235671481,3.12374046326161,-8.499205708082016,-2.528508940340606],"bias":42.142528266179845},{"last_weight_count":4,"weights":[0.8380641464804811,-2.618439987999581,-8.514616021491012,-7.259019417431585],"bias":1.5254406551158137},{"last_weight_count":4,"weights":[0.8781629028818022,1.7316484486579253,-31.016921234135133,-8.08397947242967],"bias":7.843714015099256},{"last_weight_count":4,"weights":[9.686397801098224,-0.32864840772677273,-5.977704385722688,-1.2193473040383485],"bias":8.447756710390298},{"last_weight_count":4,"weights":[0.8041152400671099,0.03863874467545631,13.524191128539224,24.375342314279827],"bias":-0.19439316727164302},{"last_weight_count":4,"weights":[217.68706106571096,0.2643390530704168,0.11183450819073479,-1.6618732991968286],"bias":7.609142699833472},{"last_weight_count":4,"weights":[6.673773458386749,12.542258990429715,1.041898674272128,-105.0880715876306],"bias":2.1081111438224602}]},{"neurons":[{"last_weight_count":7,"weights":[-0.06362319572925841,-0.6542013941070713,0.7105051215766136,2.7055054240844902,1.957705307250698,106.48037722448244,-2.653591445195307],"bias":-15.414627930940542},{"last_weight_count":7,"weights":[-7.926302562813647,5.061162318688841,0.43803207953348655,-1.2502972548399653,10.61845750897577,0.9266895952251447,-6.283118434487815],"bias":1.0471258809194162},{"last_weight_count":7,"weights":[-5.735170593767294,0.2814923180397372,7.946928461775294,-1.4904847351080854,-10.557983328335212,4.403360348268858,2.4509047728106643],"bias":-28.18733975610639},{"last_weight_count":7,"weights":[0.34070526175107485,-5.8112487438297515,3.298715985363405,-3.8922095506682735,-5.095606543838758,0.09952031082208102,0.38847676570893497],"bias":0.41192794077289757},{"last_weight_count":7,"weights":[31.24655673162428,9.89483242094591,-7.32847411580055,-4.589476535098956,-26.38469006673033,-5.829354347741417,-0.29854662504617147],"bias":-2.981336283699212}]},{"neurons":[{"last_weight_count":5,"weights":[4.461631021558829,-25.784784572910347,9.587931026039112,2.368784559292469,-43.080923718999124],"bias":2.1402967598743423},{"last_weight_count":5,"weights":[10.905887653471309,23.908959381133972,-5.657367778286543,2.1408930821896273,14.774086565810515],"bias":-2.991644827332292}]}]},"7":{"layers":[{"neurons":[{"last_weight_count":4,"weights":[-12.791933116586092,-0.10494351482867448,32.67555271949416,18.136334739039704],"bias":0.9775423601455053},{"last_weight_count":4,"weights":[-1.7691979586073379,-0.1888332023850604,-4.865397470241229,-3.1773332759394344],"bias":0.5328469970701903},{"last_weight_count":4,"weights":[-1.6720952908795361,2.6208116920198297,1.066307009246008,3.3193194436299143],"bias":4.699203973645827},{"last_weight_count":4,"weights":[6.6109628870130575,-1.420805255073474,-0.7811650589832124,1.435109754879283],"bias":1.3018646605610469}]},{"neurons":[{"last_weight_count":4,"weights":[-2.000652235671481,-2.0974590383303195,-8.499205708082016,3.5056466975963767],"bias":42.142528266179845},{"last_weight_count":4,"weights":[0.8380641464804811,-1.7839669896349972,-8.391206706772447,-7.290872782487432],"bias":1.5881043630659213},{"last_weight_count":4,"weights":[0.8781629028818022,1.5620423172366806,-31.016921234135133,-8.08397947242967],"bias":8.017887957623248},{"last_weight_count":4,"weights":[9.814134910885647,-0.12064775826389393,-11.37026313148105,-1.2193473040383485],"bias":10.23289349579755},{"last_weight_count":4,"weights":[-1.497544313942502,0.06797902669188446,25.875314027851687,24.375342314279827],"bias":-0.19439316727164302},{"last_weight_count":4,"weights":[217.68706106571096,-0.2221125265498977,0.11183450819073479,-1.4804317042162276],"bias":7.609142699833472},{"last_weight_count":4,"weights":[6.673773458386749,6.700288688854673,0.9347307940644153,-105.0880715876306],"bias":2.1081111438224602}]},{"neurons":[{"last_weight_count":7,"weights":[-0.06362319572925841,0.8708978978337973,0.7088414592979067,2.7055054240844902,-2.1999176004361685,106.48037722448244,3.6863203032634972],"bias":-15.414627930940542},{"last_weight_count":7,"weights":[-7.926302562813647,5.061162318688841,0.43803207953348655,-1.1905402418204107,10.786313449348965,-1.3315216281352256,-5.790025561979989],"bias":0.6700351297485397},{"last_weight_count":7,"weights":[-5.735170593767294,-0.10642417208758509,7.946928461775294,-1.4737037699220743,-10.557983328335212,2.716688577808552,2.4509047728106643],"bias":-28.18733975610639},{"last_weight_count":7,"weights":[0.1678865171835584,-5.8112487438297515,3.298715985363405,-2.152781170590393,-5.095606543838758,0.09952031082208102,0.20275718509587837],"bias":-0.40710471021636824},{"last_weight_count":7,"weights":[27.436771978184556,9.89483242094591,-7.32847411580055,-4.589476535098956,-11.08795617574329,-5.724072089579341,-0.32606218602945075],"bias":-2.981336283699212}]},{"neurons":[{"last_weight_count":5,"weights":[4.461631021558829,39.396486218741124,9.587931026039112,2.368784559292469,-43.080923718999124],"bias":2.1402967598743423},{"last_weight_count":5,"weights":[10.905887653471309,23.908959381133972,-3.140603555852847,-3.2632531545866033,8.058521830322341],"bias":-2.991644827332292}]}]},"13":{"layers":[{"neurons":[{"last_weight_count":4,"weights":[-12.791933116586092,-0.10494351482867448,32.67555271949416,18.136334739039704],"bias":1.073646561772482},{"last_weight_count":4,"weights":[-1.1927315527020814,-0.1888332023850604,-4.865397470241229,-3.1773332759394344],"bias":0.4200849386043849},{"last_weight_count":4,"weights":[-1.6708107865291955,2.4374417547419926,1.066307009246008,3.3193194436299143],"bias":-5.161253750249497},{"last_weight_count":4,"weights":[6.6109628870130575,2.2779749457264478,0.766162459913343,1.435109754879283],"bias":1.3018646605610469}]},{"neurons":[{"last_weight_count":4,"weights":[-2.1978995639128716,-2.0974590383303195,-8.499205708082016,3.5056466975963767],"bias":-75.15535771315832},{"last_weight_count":4,"weights":[-1.1358791807553368,-2.583350188156302,-5.047494243328743,-7.259019417431585],"bias":1.6318697458033022},{"last_weight_count":4,"weights":[0.8781629028818022,-1.2005664434187113,-31.016921234135133,-8.08397947242967],"bias":7.843714015099256},{"last_weight_count":4,"weights":[9.686397801098224,-0.32864840772677273,7.613029734284422,-1.2193473040383485],"bias":10.23289349579755},{"last_weight_count":4,"weights":[0.8041152400671099,0.07296036572833592,13.524191128539224,24.375342314279827],"bias":-0.19439316727164302},{"last_weight_count":4,"weights":[217.68706106571096,-0.2221125265498977,0.11183450819073479,-1.6618732991968286],"bias":7.609142699833472},{"last_weight_count":4,"weights":[6.673773458386749,12.542258990429715,1.041898674272128,-132.48414782939022],"bias":2.1081111438224602}]},{"neurons":[{"last_weight_count":7,"weights":[-0.06362319572925841,-0.6542013941070713,0.7088414592979067,2.7055054240844902,-1.2765525496353107,-73.24378000182033,-2.653591445195307],"bias":-15.512558470186681},{"last_weight_count":7,"weights":[-7.926302562813647,5.061162318688841,-0.7375651929677159,-1.216747162914983,10.786313449348965,0.9266895952251447,-6.213162008191631],"bias":0.7218502760811636},{"last_weight_count":7,"weights":[-5.60452856837925,0.0867421858583198,7.946928461775294,-1.4737037699220743,-10.557983328335212,2.8298191276977054,1.798501913616695],"bias":-28.18733975610639},{"last_weight_count":7,"weights":[0.1678865171835584,-6.001651778093438,3.298715985363405,-2.152781170590393,-5.1270639163143565,0.09952031082208102,0.20275718509587837],"bias":-0.2815476515806126},{"last_weight_count":7,"weights":[31.43947223246399,9.89483242094591,-7.32847411580055,-4.589476535098956,-11.08795617574329,-5.724072089579341,-0.32606218602945075],"bias":-2.981336283699212}]},{"neurons":[{"last_weight_count":5,"weights":[4.461631021558829,39.5708723616009,9.587931026039112,2.368784559292469,-43.080923718999124],"bias":2.1402967598743423},{"last_weight_count":5,"weights":[10.905887653471309,23.908959381133972,-3.140603555852847,2.1408930821896273,8.058521830322341],"bias":2.0487143828437793}]}]},"2":{"layers":[{"neurons":[{"last_weight_count":4,"weights":[-12.791933116586092,-0.10494351482867448,32.67555271949416,18.136334739039704],"bias":1.7914635563179038},{"last_weight_count":4,"weights":[-1.7691979586073379,-0.1888332023850604,-4.797083758637857,-3.1773332759394344],"bias":0.4200849386043849},{"last_weight_count":4,"weights":[-1.6720952908795361,2.4374417547419926,1.066307009246008,3.3193194436299143],"bias":-5.202813977341887},{"last_weight_count":4,"weights":[6.6109628870130575,2.2779749457264478,0.766162459913343,1.435109754879283],"bias":1.3018646605610469}]},{"neurons":[{"last_weight_count":4,"weights":[-2.000652235671481,-2.431967645483178,-8.499205708082016,3.5056466975963767],"bias":42.142528266179845},{"last_weight_count":4,"weights":[0.8380641464804811,-2.57509988105211,-8.514616021491012,-7.259019417431585],"bias":1.6561180616935116},{"last_weight_count":4,"weights":[1.0098900558818584,-1.2005664434187113,-31.016921234135133,-8.08397947242967],"bias":7.843714015099256},{"last_weight_count":4,"weights":[9.686397801098224,-0.19238856306877378,-5.977704385722688,-1.2193473040383485],"bias":10.23289349579755},{"last_weight_count":4,"weights":[0.8041152400671099,0.07296036572833592,-7.662578281420073,24.375342314279827],"bias":-0.3210888344184229},{"last_weight_count":4,"weights":[217.68706106571096,-0.2221125265498977,0.11183450819073479,-1.4847598425994397],"bias":7.609142699833472},{"last_weight_count":4,"weights":[6.622836535140193,12.542258990429715,1.041898674272128,159.42734806740916],"bias":2.1081111438224602}]},{"neurons":[{"last_weight_count":7,"weights":[-0.06362319572925841,-0.7169625331108261,0.7088414592979067,2.7055054240844902,-1.2765525496353107,106.36298720165775,-2.653591445195307],"bias":-15.414627930940542},{"last_weight_count":7,"weights":[-7.81255796157144,5.020125528541496,0.43803207953348655,-1.2502972548399653,10.786313449348965,0.9266895952251447,-6.213162008191631],"bias":0.958543510316428},{"last_weight_count":7,"weights":[-5.60452856837925,0.2814923180397372,7.946928461775294,-1.4737037699220743,-10.557983328335212,2.8704379609581516,-2.2707219948111663],"bias":-28.18733975610639},{"last_weight_count":7,"weights":[0.1678865171835584,-5.713512912587239,3.298715985363405,-2.152781170590393,-5.095606543838758,0.09952031082208102,0.20275718509587837],"bias":0.41192794077289757},{"last_weight_count":7,"weights":[31.43947223246399,9.89483242094591,-7.32847411580055,-4.589476535098956,-11.08795617574329,-5.849156137380096,-0.33637722765569944],"bias":-2.954408060787807}]},{"neurons":[{"last_weight_count":5,"weights":[4.461631021558829,39.396486218741124,9.587931026039112,2.3953897629158205,-43.080923718999124],"bias":2.1402967598743423},{"last_weight_count":5,"weights":[11.075432189801878,23.908959381133972,-3.140603555852847,2.325546900069358,8.058521830322341],"bias":-2.991644827332292}]}]},"15":{"layers":[{"neurons":[{"last_weight_count":4,"weights":[-36.25687440548134,-0.10494351482867448,17.516463773446798,18.33127146504848],"bias":1.7914635563179038},{"last_weight_count":4,"weights":[-1.7691979586073379,-0.1888332023850604,-4.865397470241229,-3.3106239764385803],"bias":0.4200849386043849},{"last_weight_count":4,"weights":[-1.6720952908795361,-2.051608923882318,1.066307009246008,3.3193194436299143],"bias":-5.202813977341887},{"last_weight_count":4,"weights":[5.526611879569513,-1.420805255073474,0.8713921643567129,1.593481002352863],"bias":1.6587734461262325}]},{"neurons":[{"last_weight_count":4,"weights":[-2.000652235671481,-2.0974590383303195,-8.499205708082016,1.2395991111945341],"bias":42.142528266179845},{"last_weight_count":4,"weights":[0.8380641464804811,-2.583350188156302,-8.391206706772447,-7.290872782487432],"bias":1.6909432768034174},{"last_weight_count":4,"weights":[0.8781629028818022,-1.2005664434187113,-31.016921234135133,14.622548051729666],"bias":7.843714015099256},{"last_weight_count":4,"weights":[-14.808238855532018,-0.32864840772677273,6.630522666774682,-1.2193473040383485],"bias":10.23289349579755},{"last_weight_count":4,"weights":[0.8041152400671099,0.07296036572833592,13.524191128539224,24.375342314279827],"bias":-0.19439316727164302},{"last_weight_count":4,"weights":[217.68706106571096,-0.10316374417913612,0.11183450819073479,-1.4804317042162276],"bias":7.609142699833472},{"last_weight_count":4,"weights":[6.673773458386749,12.542258990429715,1.041898674272128,-132.48414782939022],"bias":-1.4371573871356618}]},{"neurons":[{"last_weight_count":7,"weights":[-0.06362319572925841,-0.6542013941070713,0.7088414592979067,2.7055054240844902,-2.1999176004361685,106.48037722448244,-2.653591445195307],"bias":-15.414627930940542},{"last_weight_count":7,"weights":[-7.926302562813647,5.020125528541496,0.43803207953348655,-1.2502972548399653,10.786313449348965,0.9266895952251447,-6.213162008191631],"bias":0.6700351297485397},{"last_weight_count":7,"weights":[-5.606349647521177,0.2814923180397372,7.946928461775294,-1.4904847351080854,7.403579145783247,2.679616005647473,1.7895059997273708],"bias":-28.18733975610639},{"last_weight_count":7,"weights":[0.1733190435946413,-5.713512912587239,3.4748827444935193,2.5069475620049357,-5.095606543838758,0.030647683934783815,0.20275718509587837],"bias":-0.6733943660365296},{"last_weight_count":7,"weights":[31.43947223246399,9.89483242094591,-7.4628781430769155,-4.589476535098956,22.204683297263042,-5.849156137380096,-0.32606218602945075],"bias":-3.1021965698258476}]},{"neurons":[{"last_weight_count":5,"weights":[4.461631021558829,39.396486218741124,5.264757460213312,2.368784559292469,-43.080923718999124],"bias":2.3220920191300327},{"last_weight_count":5,"weights":[12.707320487002844,23.908959381133972,-3.140603555852847,2.0768401803678698,8.072596005576552],"bias":3.1913318779122672}]}]},"8":{"layers":[{"neurons":[{"last_weight_count":4,"weights":[-18.1302947912425,-0.10494351482867448,32.67555271949416,18.136334739039704],"bias":1.7914635563179038},{"last_weight_count":4,"weights":[-1.9844580696716845,-0.1888332023850604,-4.865397470241229,-3.1773332759394344],"bias":0.4200849386043849},{"last_weight_count":4,"weights":[-1.6720952908795361,2.4374417547419926,-0.8043337905734073,3.3193194436299143],"bias":-5.202813977341887},{"last_weight_count":4,"weights":[6.6109628870130575,-1.5771197567193256,0.766162459913343,1.435109754879283],"bias":1.3018646605610469}]},{"neurons":[{"last_weight_count":4,"weights":[-2.000652235671481,-2.0974590383303195,-8.499205708082016,3.5056466975963767],"bias":42.33785351205465},{"last_weight_count":4,"weights":[0.8380641464804811,3.50220474643924,-8.514616021491012,-7.259019417431585],"bias":1.6561180616935116},{"last_weight_count":4,"weights":[0.8781629028818022,-1.2005664434187113,-31.016921234135133,-8.08397947242967],"bias":7.843714015099256},{"last_weight_count":4,"weights":[9.686397801098224,-0.32864840772677273,-5.977704385722688,-1.2193473040383485],"bias":10.23289349579755},{"last_weight_count":4,"weights":[0.6711158897270639,0.07296036572833592,-7.662578281420073,24.375342314279827],"bias":-0.19439316727164302},{"last_weight_count":4,"weights":[217.68706106571096,-0.2221125265498977,0.11183450819073479,-1.4804317042162276],"bias":7.609142699833472},{"last_weight_count":4,"weights":[6.673773458386749,12.542258990429715,-2.724934603651338,-105.16709241082339],"bias":2.1081111438224602}]},{"neurons":[{"last_weight_count":7,"weights":[-0.06362319572925841,-0.6542013941070713,0.7105051215766136,2.7055054240844902,-2.1999176004361685,106.48037722448244,3.0721868521217868],"bias":-15.414627930940542},{"last_weight_count":7,"weights":[-8.123737887457484,5.061162318688841,0.43803207953348655,-1.2502972548399653,10.786313449348965,0.9266895952251447,-6.213162008191631],"bias":0.6700351297485397},{"last_weight_count":7,"weights":[-5.735170593767294,0.19179063463311044,-4.32420656330634,-1.4737037699220743,-10.557983328335212,2.8704379609581516,-1.3816096268813038],"bias":-28.18733975610639},{"last_weight_count":7,"weights":[0.1678865171835584,-5.8112487438297515,3.298715985363405,-2.152781170590393,-5.1270639163143565,0.09952031082208102,0.20275718509587837],"bias":0.41192794077289757},{"last_weight_count":7,"weights":[31.24655673162428,9.89483242094591,-7.32847411580055,-4.589476535098956,-12.94149179146874,-5.724072089579341,-0.32606218602945075],"bias":-4.1357386229722}]},{"neurons":[{"last_weight_count":5,"weights":[4.461631021558829,39.396486218741124,11.385395917088212,2.368784559292469,-43.080923718999124],"bias":2.1402967598743423},{"last_weight_count":5,"weights":[10.905887653471309,23.908959381133972,-3.140603555852847,2.1408930821896273,8.058521830322341],"bias":-2.991644827332292}]}]},"5":{"layers":[{"neurons":[{"last_weight_count":4,"weights":[-12.59383110554156,-0.10494351482867448,32.67555271949416,18.136334739039704],"bias":1.7914635563179038},{"last_weight_count":4,"weights":[-1.7691979586073379,-0.1888332023850604,-4.865397470241229,-3.1773332759394344],"bias":0.4200849386043849},{"last_weight_count":4,"weights":[-1.6720952908795361,2.6208116920198297,1.066307009246008,3.3193194436299143],"bias":-5.202813977341887},{"last_weight_count":4,"weights":[5.526611879569513,-1.3845260325055093,0.766162459913343,1.435109754879283],"bias":1.6587734461262325}]},{"neurons":[{"last_weight_count":4,"weights":[-2.000652235671481,-2.431967645483178,-8.499205708082016,3.5056466975963767],"bias":42.142528266179845},{"last_weight_count":4,"weights":[0.8380641464804811,-2.57509988105211,-8.514616021491012,-7.259019417431585],"bias":1.6318697458033022},{"last_weight_count":4,"weights":[1.0098900558818584,-1.2005664434187113,-31.016921234135133,-8.021361836948094],"bias":7.843714015099256},{"last_weight_count":4,"weights":[9.814134910885647,-0.32864840772677273,-5.995255195618656,1.4785770647631926],"bias":10.23289349579755},{"last_weight_count":4,"weights":[0.8041152400671099,0.07296036572833592,-7.662578281420073,24.375342314279827],"bias":-0.3210888344184229},{"last_weight_count":4,"weights":[217.68706106571096,-0.2221125265498977,0.11183450819073479,-1.4804317042162276],"bias":7.609142699833472},{"last_weight_count":4,"weights":[6.622836535140193,12.542258990429715,1.041898674272128,-132.48414782939022],"bias":2.1081111438224602}]},{"neurons":[{"last_weight_count":7,"weights":[-0.06362319572925841,-0.6542013941070713,0.7088414592979067,2.7055054240844902,-1.2765525496353107,106.48037722448244,-2.653591445195307],"bias":-15.414627930940542},{"last_weight_count":7,"weights":[-7.81255796157144,5.020125528541496,0.43803207953348655,-1.2502972548399653,10.786313449348965,1.1249695030689706,-6.043996193832333],"bias":0.7218502760811636},{"last_weight_count":7,"weights":[-5.735170593767294,0.2814923180397372,7.946928461775294,-1.4737037699220743,-10.653075946508157,-5.4429027617872645,2.4509047728106643],"bias":-28.18733975610639},{"last_weight_count":7,"weights":[0.1678865171835584,-3.4193782984440646,3.298715985363405,-2.152781170590393,-5.1270639163143565,0.09952031082208102,0.20275718509587837],"bias":0.41192794077289757},{"last_weight_count":7,"weights":[31.43947223246399,9.89483242094591,-7.32847411580055,-4.589476535098956,-11.08795617574329,-5.724072089579341,-0.32606218602945075],"bias":-2.981336283699212}]},{"neurons":[{"last_weight_count":5,"weights":[4.461631021558829,-25.75180407347731,9.587931026039112,2.368784559292469,-43.080923718999124],"bias":-3.4414996129171076},{"last_weight_count":5,"weights":[12.707320487002844,23.908959381133972,-3.140603555852847,2.1408930821896273,8.058521830322341],"bias":-2.991644827332292}]}]},"9":{"layers":[{"neurons":[{"last_weight_count":4,"weights":[-12.791933116586092,-0.10494351482867448,32.67555271949416,18.136334739039704],"bias":1.7125535761009159},{"last_weight_count":4,"weights":[-1.7691979586073379,-0.1888332023850604,2.5116957967718645,-2.5320762695888908],"bias":0.4200849386043849},{"last_weight_count":4,"weights":[-1.6720952908795361,3.0822302662150127,1.066307009246008,3.3193194436299143],"bias":-5.202813977341887},{"last_weight_count":4,"weights":[5.526611879569513,-1.420805255073474,0.9634780728859811,1.5957505306768747],"bias":1.3018646605610469}]},{"neurons":[{"last_weight_count":4,"weights":[-2.000652235671481,3.12374046326161,-8.499205708082016,3.5056466975963767],"bias":42.142528266179845},{"last_weight_count":4,"weights":[1.4276147862065764,-2.57509988105211,-8.391206706772447,-7.259019417431585],"bias":1.5881043630659213},{"last_weight_count":4,"weights":[0.8781629028818022,1.5620423172366806,-31.016921234135133,-8.08397947242967],"bias":7.843714015099256},{"last_weight_count":4,"weights":[9.686397801098224,-0.32864840772677273,-4.114817985843956,-1.2193473040383485],"bias":10.23289349579755},{"last_weight_count":4,"weights":[0.8041152400671099,0.07296036572833592,-7.848230122599691,24.375342314279827],"bias":-0.19439316727164302},{"last_weight_count":4,"weights":[-313.9576214425839,-0.2221125265498977,0.11183450819073479,-1.6618732991968286],"bias":7.609142699833472},{"last_weight_count":4,"weights":[6.673773458386749,12.542258990429715,1.3634971937479214,-105.0880715876306],"bias":2.1081111438224602}]},{"neurons":[{"last_weight_count":7,"weights":[-0.06362319572925841,-0.6542013941070713,0.7088414592979067,2.7055054240844902,-1.2765525496353107,106.48037722448244,3.196512956464787],"bias":-15.414627930940542},{"last_weight_count":7,"weights":[-7.926302562813647,5.020125528541496,0.43803207953348655,-1.2502972548399653,10.786313449348965,0.9266895952251447,-6.128726301409819],"bias":0.35252175646587175},{"last_weight_count":7,"weights":[-5.759980520786975,0.2814923180397372,7.946928461775294,1.2941836507038726,-10.557983328335212,2.679616005647473,1.20479012978826],"bias":-28.02837375701475},{"last_weight_count":7,"weights":[0.1678865171835584,-5.8112487438297515,3.298715985363405,-3.132535955638773,-5.1270639163143565,0.09952031082208102,0.20275718509587837],"bias":0.41192794077289757},{"last_weight_count":7,"weights":[31.24655673162428,9.885271097253304,-7.32847411580055,-4.589476535098956,-11.08795617574329,-5.849156137380096,-0.32606218602945075],"bias":-2.0787168095466693}]},{"neurons":[{"last_weight_count":5,"weights":[4.461631021558829,39.396486218741124,9.587931026039112,2.368784559292469,-43.080923718999124],"bias":2.1402967598743423},{"last_weight_count":5,"weights":[12.707320487002844,23.908959381133972,-3.140603555852847,2.1408930821896273,8.069014574003521],"bias":-2.991644827332292}]}]},"10":{"layers":[{"neurons":[{"last_weight_count":4,"weights":[-12.791933116586092,-0.10494351482867448,32.67555271949416,18.136334739039704],"bias":1.7914635563179038},{"last_weight_count":4,"weights":[-1.7691979586073379,-0.1888332023850604,-4.865397470241229,-3.1773332759394344],"bias":0.4200849386043849},{"last_weight_count":4,"weights":[-1.3630708806124252,2.4374417547419926,1.066307009246008,3.3193194436299143],"bias":-5.202813977341887},{"last_weight_count":4,"weights":[6.6109628870130575,2.2779749457264478,0.766162459913343,1.435109754879283],"bias":1.6587734461262325}]},{"neurons":[{"last_weight_count":4,"weights":[-2.000652235671481,3.12374046326161,-6.509192529226824,3.4498977036423115],"bias":42.142528266179845},{"last_weight_count":4,"weights":[0.8380641464804811,-2.583350188156302,-8.514616021491012,-7.259019417431585],"bias":1.6561180616935116},{"last_weight_count":4,"weights":[0.8781629028818022,-1.2005664434187113,-31.016921234135133,-8.08397947242967],"bias":7.843714015099256},{"last_weight_count":4,"weights":[9.686397801098224,-0.32864840772677273,-5.977704385722688,-1.2193473040383485],"bias":10.061016006698415},{"last_weight_count":4,"weights":[0.8041152400671099,0.03863874467545631,13.524191128539224,24.555985635442237],"bias":-0.19439316727164302},{"last_weight_count":4,"weights":[217.68706106571096,-0.2221125265498977,0.11183450819073479,-1.6618732991968286],"bias":7.609142699833472},{"last_weight_count":4,"weights":[6.673773458386749,12.542258990429715,1.041898674272128,159.48970349141152],"bias":2.1081111438224602}]},{"neurons":[{"last_weight_count":7,"weights":[-0.06362319572925841,-0.6542013941070713,0.7105051215766136,2.7055054240844902,-2.1999176004361685,106.48037722448244,-2.653591445195307],"bias":-15.414627930940542},{"last_weight_count":7,"weights":[-7.926302562813647,5.020125528541496,0.5872627322395657,-1.2502972548399653,10.786313449348965,0.9266895952251447,-6.213162008191631],"bias":0.6700351297485397},{"last_weight_count":7,"weights":[-5.735170593767294,0.2814923180397372,7.946928461775294,2.5295847636467945,-21.48573221366224,2.8704379609581516,-2.2707219948111663],"bias":-28.18733975610639},{"last_weight_count":7,"weights":[0.1678865171835584,-5.8112487438297515,3.298715985363405,-2.152781170590393,6.285972570567842,0.09952031082208102,0.20275718509587837],"bias":0.41192794077289757},{"last_weight_count":7,"weights":[31.43947223246399,9.89483242094591,-7.32847411580055,-4.589476535098956,-11.00697737785949,-5.849156137380096,-0.32606218602945075],"bias":-2.981336283699212}]},{"neurons":[{"last_weight_count":5,"weights":[4.461631021558829,-25.784784572910347,9.587931026039112,2.368784559292469,-43.080923718999124],"bias":2.1402967598743423},{"last_weight_count":5,"weights":[12.707320487002844,23.908959381133972,-2.9830888937095876,2.1408930821896273,8.058521830322341],"bias":2.0487143828437793}]}]},"6":{"layers":[{"neurons":[{"last_weight_count":4,"weights":[-12.791933116586092,-0.10494351482867448,-31.568304027438668,18.136334739039704],"bias":1.7914635563179038},{"last_weight_count":4,"weights":[-1.7691979586073379,-0.1888332023850604,2.599785931945324,-3.1773332759394344],"bias":0.4200849386043849},{"last_weight_count":4,"weights":[-1.8007680272845452,1.7953603227492367,1.066307009246008,3.305284970760907],"bias":-5.161253750249497},{"last_weight_count":4,"weights":[5.526611879569513,-1.420805255073474,-0.7984889188731122,1.435109754879283],"bias":1.3018646605610469}]},{"neurons":[{"last_weight_count":4,"weights":[-2.000652235671481,3.12374046326161,12.077405751173618,1.9606077544195188],"bias":42.142528266179845},{"last_weight_count":4,"weights":[0.7271754296809427,-2.57509988105211,-8.514616021491012,-7.259019417431585],"bias":1.6318697458033022},{"last_weight_count":4,"weights":[0.8781629028818022,-1.2005664434187113,-31.016921234135133,-8.08397947242967],"bias":7.843714015099256},{"last_weight_count":4,"weights":[14.763963276300439,0.2777766507341155,-5.806884240260782,-1.2193473040383485],"bias":10.23289349579755},{"last_weight_count":4,"weights":[0.8041152400671099,0.07296036572833592,-7.662578281420073,24.375342314279827],"bias":-0.19439316727164302},{"last_weight_count":4,"weights":[217.68706106571096,-0.2221125265498977,0.11183450819073479,-1.6618732991968286],"bias":7.609142699833472},{"last_weight_count":4,"weights":[6.673773458386749,12.542258990429715,1.3634971937479214,-105.0880715876306],"bias":2.1081111438224602}]},{"neurons":[{"last_weight_count":7,"weights":[-0.04974709975994435,-0.6542013941070713,0.7105051215766136,2.7055054240844902,-1.3546939115617582,106.48037722448244,3.857628921436945],"bias":-15.414627930940542},{"last_weight_count":7,"weights":[-7.926302562813647,5.061162318688841,0.43803207953348655,-1.2502972548399653,10.786313449348965,0.9266895952251447,-6.213162008191631],"bias":0.6700351297485397},{"last_weight_count":7,"weights":[-5.735170593767294,0.2814923180397372,7.946928461775294,-1.4904847351080854,-10.557983328335212,2.679616005647473,2.4509047728106643],"bias":-28.18733975610639},{"last_weight_count":7,"weights":[0.1678865171835584,-5.8112487438297515,3.298715985363405,-2.152781170590393,-5.2665195096785515,0.09952031082208102,0.0832183605429359],"bias":0.41192794077289757},{"last_weight_count":7,"weights":[36.37441586718635,9.89483242094591,-7.32847411580055,-4.589476535098956,-11.08795617574329,-5.887314249518536,-0.32606218602945075],"bias":-3.1021965698258476}]},{"neurons":[{"last_weight_count":5,"weights":[3.606689447586044,39.396486218741124,9.587931026039112,2.368784559292469,-52.47658962893045],"bias":2.1402967598743423},{"last_weight_count":5,"weights":[-21.100517806313324,23.84615443858252,-3.140603555852847,2.1408930821896273,8.058521830322341],"bias":-2.991644827332292}]}]},"12":{"layers":[{"neurons":[{"last_weight_count":4,"weights":[-12.791933116586092,-0.10494351482867448,32.67555271949416,18.136334739039704],"bias":1.7914635563179038},{"last_weight_count":4,"weights":[-1.7691979586073379,-0.1888332023850604,-4.865397470241229,-3.1773332759394344],"bias":0.4200849386043849},{"last_weight_count":4,"weights":[-1.6720952908795361,2.4374417547419926,1.066307009246008,3.3193194436299143],"bias":-5.202813977341887},{"last_weight_count":4,"weights":[6.6109628870130575,-1.4544728569508454,0.766162459913343,1.435109754879283],"bias":2.229108950542111}]},{"neurons":[{"last_weight_count":4,"weights":[-2.000652235671481,-2.0974590383303195,-8.43063587785245,1.9606077544195188],"bias":42.20564018141692},{"last_weight_count":4,"weights":[0.8380641464804811,-2.615701576752709,-8.514616021491012,-7.259019417431585],"bias":1.5881043630659213},{"last_weight_count":4,"weights":[0.8781629028818022,-1.2005664434187113,-31.13076902056659,-8.08397947242967],"bias":7.747596649512716},{"last_weight_count":4,"weights":[9.686397801098224,-0.4019160126787774,-5.977704385722688,-1.2193473040383485],"bias":10.23289349579755},{"last_weight_count":4,"weights":[0.8041152400671099,-0.044244407709566974,13.524191128539224,24.375342314279827],"bias":-0.19439316727164302},{"last_weight_count":4,"weights":[217.68706106571096,-0.2221125265498977,-0.21913910752740115,-1.6618732991968286],"bias":7.609142699833472},{"last_weight_count":4,"weights":[-6.3605510463705945,12.542258990429715,1.3634971937479214,143.74227478757564],"bias":2.479206564449626}]},{"neurons":[{"last_weight_count":7,"weights":[-0.06362319572925841,-0.6799226801599412,0.7105051215766136,2.7055054240844902,-2.1999176004361685,106.49856989795447,-2.653591445195307],"bias":-15.414627930940542},{"last_weight_count":7,"weights":[-7.926302562813647,5.020125528541496,0.43803207953348655,-1.2502972548399653,10.786313449348965,0.9266895952251447,-6.213162008191631],"bias":0.6700351297485397},{"last_weight_count":7,"weights":[-5.60452856837925,0.2814923180397372,8.005585395796023,-1.4737037699220743,-10.557983328335212,-5.318566146835665,2.300448140147695],"bias":-28.18733975610639},{"last_weight_count":7,"weights":[0.1678865171835584,4.533291098539735,5.261355312954924,-2.152781170590393,-5.1270639163143565,0.09952031082208102,0.20275718509587837],"bias":0.41192794077289757},{"last_weight_count":7,"weights":[31.24655673162428,9.89483242094591,-7.32847411580055,-4.589476535098956,-11.08795617574329,-5.829354347741417,-0.32606218602945075],"bias":-3.991346329744541}]},{"neurons":[{"last_weight_count":5,"weights":[-5.573652502166766,39.396486218741124,9.587931026039112,2.299065782884154,-43.080923718999124],"bias":2.1402967598743423},{"last_weight_count":5,"weights":[12.707320487002844,23.908959381133972,-3.140603555852847,2.1408930821896273,8.058521830322341],"bias":2.081292540530401}]}]},"4":{"layers":[{"neurons":[{"last_weight_count":4,"weights":[-12.913787892929149,-0.10494351482867448,32.67555271949416,18.136334739039704],"bias":1.7914635563179038},{"last_weight_count":4,"weights":[-1.7691979586073379,-0.1888332023850604,-4.865397470241229,-3.1773332759394344],"bias":0.4200849386043849},{"last_weight_count":4,"weights":[-1.6720952908795361,2.4374417547419926,1.066307009246008,3.3193194436299143],"bias":-5.202813977341887},{"last_weight_count":4,"weights":[6.6109628870130575,-1.420805255073474,0.766162459913343,1.435109754879283],"bias":1.5531882083933497}]},{"neurons":[{"last_weight_count":4,"weights":[-2.000652235671481,-2.431967645483178,-8.499205708082016,1.9606077544195188],"bias":42.142528266179845},{"last_weight_count":4,"weights":[0.8380641464804811,-2.7956196068181596,-8.514616021491012,-7.290872782487432],"bias":1.6561180616935116},{"last_weight_count":4,"weights":[0.8781629028818022,-2.450800028434858,-31.016921234135133,-8.021361836948094],"bias":7.843714015099256},{"last_weight_count":4,"weights":[9.814134910885647,-0.19238856306877378,-5.977704385722688,-1.2193473040383485],"bias":10.23289349579755},{"last_weight_count":4,"weights":[0.8041152400671099,0.07296036572833592,13.524191128539224,24.375342314279827],"bias":-0.3210888344184229},{"last_weight_count":4,"weights":[217.68706106571096,-0.2221125265498977,0.11183450819073479,-1.4847598425994397],"bias":7.609142699833472},{"last_weight_count":4,"weights":[6.475882448423046,6.700288688854673,1.041898674272128,-132.48414782939022],"bias":2.1081111438224602}]},{"neurons":[{"last_weight_count":7,"weights":[-0.06362319572925841,-0.6542013941070713,0.7105051215766136,2.7055054240844902,-2.135589512195524,106.48037722448244,2.884628272624949],"bias":-15.414627930940542},{"last_weight_count":7,"weights":[-7.81255796157144,5.020125528541496,0.43803207953348655,-1.2502972548399653,10.786313449348965,0.9266895952251447,-6.043996193832333],"bias":0.7218502760811636},{"last_weight_count":7,"weights":[-5.60452856837925,0.2814923180397372,7.946928461775294,-1.4737037699220743,-10.557983328335212,2.8704379609581516,-2.2707219948111663],"bias":-28.18733975610639},{"last_weight_count":7,"weights":[0.1678865171835584,-5.713512912587239,3.298715985363405,-2.152781170590393,-5.095606543838758,0.09952031082208102,0.20275718509587837],"bias":0.41192794077289757},{"last_weight_count":7,"weights":[31.167865612563528,9.89483242094591,-8.650020360911807,-4.589476535098956,-11.08795617574329,-5.724072089579341,-0.32606218602945075],"bias":-2.981336283699212}]},{"neurons":[{"last_weight_count":5,"weights":[3.362913737728028,39.396486218741124,9.587931026039112,2.368784559292469,-43.080923718999124],"bias":-3.4414996129171076},{"last_weight_count":5,"weights":[12.707320487002844,23.908959381133972,-3.140603555852847,2.1408930821896273,8.058521830322341],"bias":2.081292540530401}]}]}},"generation":[]},"player_mapper":{"Two":6},"used_indices":[0,1,2,3,4,5,6],"rewards":[[0,3800],[0,3800],[0,3800],[0,3800],[0,3800],[0,3800],[0,3800],[0,3800],[0,3800],[0,3800],[0,3800],[0,3800],[0,3800],[0,3800],[0,3800],[0,3800],[0,3800],[0,3800],[0,3800],[0,3800],[0,3800],[0,3800],[0,3800],[0,3800],[0,3800],[0,3800],[0,3800],[0,3800],[0,3800],[0,3800],[0,3800],[0,3800],[0,3800],[0,3800],[0,3800],[0,3800],[0,3800],[0,3800],[0,3800],[0,3800],[0,3800],[0,3800],[0,3800],[0,3800],[0,3800],[0,3800],[0,3800],[0,3800],[0,3800],[0,3800],[0,3800],[0,3800],[0,3800],[0,3800],[0,3800],[0,3800],[0,3800],[0,3800],[0,3800],[0,3800],[0,3800],[0,3800],[0,3800],[0,3800],[0,3800],[0,3800],[0,3800],[0,3800],[0,3800],[0,3800],[0,3800],[0,3800],[0,3800],[0,3800],[0,3800],[0,3800],[0,3800],[0,3800],[0,3800],[0,3800],[0,3800],[0,3800],[0,3800],[0,3800],[0,3800],[0,3800],[0,3800],[0,3800],[0,3800],[0,3800],[0,3800],[0,3800],[0,3800],[0,3800],[0,3800],[0,3800],[0,3800],[0,3800],[0,3800],[0,3800],[0,3800],[0,3800],[0,3800],[0,3800],[0,3800],[0,3800],[0,3800],[0,3800],[0,3800],[0,3800],[0,3800],[0,3800],[0,3800],[0,3800],[0,3800],[0,3800],[0,3800],[0,3800],[0,3800],[0,3800],[0,3800],[0,3800],[0,3800],[0,3800],[0,3800],[0,3800],[0,3800],[0,3800],[0,3800],[0,3800],[0,3800],[0,3800],[0,3800],[0,3800],[0,3800],[0,3800],[0,3800],[0,3800],[0,3800],[0,3800],[0,3800],[0,3800],[0,3800],[0,3800],[0,3800],[0,3800],[0,3800],[0,3800],[0,3800],[0,3800],[0,3800],[0,3800],[0,3800],[0,3800],[0,3800],[0,3800],[0,3800],[0,3800],[0,3800],[0,3800],[0,3800],[0,3800],[0,3800],[0,3800],[0,3800],[0,3800],[0,3800],[0,3800],[0,3800],[0,3800],[0,3800],[0,3800],[0,3800],[0,3800],[0,3800],[0,3800],[0,3800],[0,3800],[0,3800],[0,3800],[0,3800],[0,3800],[0,3800],[0,3800],[0,3800],[0,3800],[0,3800],[0,3800],[0,3800],[0,3800],[0,3800],[0,3800],[0,3800],[0,3800],[0,3800],[0,3800],[0,3800],[0,3800],[0,3800],[0,3800],[0,3800],[0,3800],[0,3800],[0,3800],[0,3800],[0,3800],[0,3800],[0,3800],[0,3800],[0,3800],[0,3800],[0,3800],[0,3800],[0,3800],[0,3800],[0,3800],[0,3800],[0,3800],[0,3800],[0,3800],[0,3800],[0,3800],[0,3800],[0,3800],[0,3800],[0,3800],[0,3800],[0,3800],[0,3800],[0,3800],[0,3800],[0,3800],[0,3800],[0,3800],[0,3800],[0,3800],[0,3800],[0,3800],[0,3800],[0,3800],[0,3800],[0,3800],[0,3800],[0,3800],[0,3800],[0,3800],[0,3800],[0,3800],[0,3800],[0,3800],[0,3800],[0,3800],[0,3800],[0,3800],[0,3800],[0,3800],[0,3800],[0,3800],[0,3800],[0,3800],[0,3800],[0,3800],[0,3800],[0,3800],[0,3800],[0,3800],[0,3800],[0,3800],[0,3800],[0,3800],[0,3800],[0,3800],[0,3800],[0,3800],[0,3800],[0,3800],[0,3800],[0,3800],[0,3800],[0,3800],[0,3800],[0,3800],[0,3800],[0,3800],[0,3800],[0,3800],[0,3800],[0,3800],[0,3800],[0,3800],[0,3800],[0,3800],[0,3800],[0,3800],[0,3800],[0,3800],[0,3800],[0,3800],[0,3800],[0,3800],[0,3800],[0,3800],[0,3800],[0,3800],[0,3800],[0,3800],[0,3800],[0,3800],[0,3800],[0,3800],[0,3800],[0,3800],[0,3800],[0,3800],[0,3800],[0,3800],[0,3800],[0,3800],[0,3800],[0,3800],[0,3800],[0,3800],[0,3800],[0,3800],[0,3800],[0,3800],[0,3800],[0,3800],[0,3800],[0,3800],[0,3800],[0,3800],[0,3800],[0,3800],[0,3800],[0,3800],[0,3800],[0,3800],[0,3800],[0,3800],[0,3800],[0,3800],[0,3800],[0,3800],[0,3800],[0,3800],[0,3800],[0,3800],[0,3800],[0,3800],[0,3800],[0,3800],[0,3800],[0,3800],[0,3800],[0,3800],[0,3800],[0,3800],[0,3800],[0,3800],[0,3800],[0,3800],[0,3800],[0,3800],[0,3800],[0,3800],[0,3800],[0,3800],[0,3800],[0,3800],[0,3800],[0,3800],[0,3800],[0,3800],[0,3800],[0,3800],[0,3800],[0,3800],[0,3800],[0,3800],[0,3800],[0,3800],[0,3800],[0,3800],[0,3800],[0,3800],[0,3800],[0,3800],[0,3800],[0,3800],[0,3800],[0,3800],[0,3800],[0,3800],[0,3800],[0,3800],[0,3800],[0,3800],[0,3800],[0,3800],[0,3800],[0,3800],[0,3800],[0,3800],[0,3800],[0,3800],[0,3800],[0,3800],[0,3800],[0,3800],[0,3800],[0,3800],[0,3800],[0,3800],[0,3800],[0,3800],[0,3800],[0,3800],[0,3800],[0,3800],[0,3800],[0,3800],[0,3800],[0,3800],[0,3800],[0,3800],[0,3800],[0,3800],[0,3800],[0,3800],[0,3800],[0,3800],[0,3800],[0,3800],[0,3800],[0,3800],[0,3800],[0,3800],[0,3800],[0,3800],[0,3800],[0,3800],[0,3800],[0,3800],[0,3800],[0,3800],[0,3800],[0,3800],[0,3800],[0,3800],[0,3800],[0,3800],[0,3800],[0,3800],[0,3800],[0,3800],[0,3800],[0,3800],[0,3800],[0,3800],[0,3800],[0,3800],[0,3800],[0,3800],[0,3800],[0,3800],[0,3800],[0,3800],[0,3800],[0,3800],[0,3800],[0,3800],[0,3800],[0,3800],[0,3800],[0,3800],[0,3800],[0,3800],[0,3800],[0,3800],[0,3800],[0,3800],[0,3800],[0,3800],[0,3800],[0,3800],[0,3800],[0,3800],[0,3800],[0,3800],[0,3800],[0,3800],[0,3800],[0,3800],[0,3800],[0,3800],[0,3800],[0,3800],[0,3800],[0,3800],[0,3800],[0,3800],[0,3800],[0,3800],[0,3800],[0,3800],[0,3800],[0,3800],[0,3800],[0,3800],[0,3800],[0,3800],[0,3800],[0,3800],[0,3800],[0,3800],[0,3800],[0,3800],[0,3800],[0,3800],[0,3800],[0,3800],[0,3800],[0,3800],[0,3800],[0,3800],[0,3800],[0,3800],[0,3800],[0,3800],[0,3800],[0,3800],[0,3800],[0,3800],[0,3800],[0,3800],[0,3800],[0,3800],[0,3800],[0,3800],[0,3800],[0,3800],[0,3800],[0,3800],[0,3800],[0,3800],[0,3800],[0,3800],[0,3800],[0,3800],[0,3800],[0,3800],[0,3800],[0,3800],[0,3800],[0,3800],[0,3800],[0,3800],[0,3800],[0,3800],[0,3800],[0,3800],[0,3800],[0,3800],[0,3800],[0,3800],[0,3800],[0,3800],[0,3800],[0,3800],[0,3800],[0,3800],[0,3800],[0,3800],[0,3800],[0,3800],[0,3800],[0,3800],[0,3800],[0,3800],[0,3800],[0,3800],[0,3800],[0,3800],[0,3800],[0,3800],[0,3800],[0,3800],[0,3800],[0,3800],[0,3800],[0,3800],[0,3800],[0,3800],[0,3800],[0,3800],[0,3800],[0,3800],[0,3800],[0,3800],[0,3800],[0,3800],[0,3800],[0,3800],[0,3800],[0,3800],[0,3800],[0,3800],[0,3800],[0,3800],[0,3800],[0,3800],[0,3800],[0,3800],[0,3800],[0,3800],[0,3800],[0,3800],[0,3800],[0,3800],[0,3800],[0,3800],[0,3800],[0,3800],[0,3800],[0,3800],[0,3800],[0,3800],[0,3800],[0,3800],[0,3800],[0,3800],[0,3800],[0,3800],[0,3800],[0,3800],[0,3800],[0,3800],[0,3800],[0,3800],[0,3800],[0,3800],[0,3800],[0,3800],[0,3800],[0,3800],[0,3800],[0,3800],[0,3800],[0,3800],[0,3800],[0,3800],[0,3800],[0,3800],[0,3800],[0,3800],[0,3800],[0,3800],[0,3800],[0,3800],[0,3800],[0,3800],[0,3800],[0,3800],[0,3800],[0,3800],[0,3800],[0,3800],[0,3800],[0,3800],[0,3800],[0,3800],[0,3800],[0,3800],[0,3800],[0,3800],[0,3800],[0,3800],[0,3800],[0,3800],[0,3800],[0,3800],[0,3800],[0,3800],[0,3800],[0,3800],[0,3800],[0,3800],[0,3800],[0,3800],[0,3800],[0,3800],[0,3800],[0,3800],[0,3800],[0,3800],[0,3800],[0,3800],[0,3800],[0,3800],[0,3800],[0,3800],[0,3800],[0,3800],[0,3800],[0,3800],[0,3800],[0,3800],[0,3800],[0,3800],[0,3800],[0,3800],[0,3800],[0,3800],[0,3800],[0,3800],[0,3800],[0,3800],[0,3800],[0,3800],[0,3800],[0,3800],[0,3800],[0,3800],[0,3800],[0,3800],[0,3800],[0,3800],[0,3800],[0,3800],[0,3800],[0,3800],[0,3800],[0,3800],[0,3800],[0,3800],[0,3800],[0,3800],[0,3800],[0,3800],[0,3800],[0,3800],[0,3800],[0,3800],[0,3800],[0,3800],[0,3800],[0,3800],[0,3800],[0,3800],[0,3800],[0,3800],[0,3800],[0,3800],[0,3800],[0,3800],[0,3800],[0,3800],[0,3800],[0,3800],[0,3800],[0,3800],[0,3800],[0,3800],[0,3800],[0,3800],[0,3800],[0,3800],[0,3800],[0,3800],[0,3800],[0,3800],[0,3800],[0,3800],[0,3800],[0,3800],[0,3800],[0,3800],[0,3800],[0,3800],[0,3800],[0,3800],[0,3800],[0,3800],[0,3800],[0,3800],[0,3800],[0,3800],[0,3800],[0,3800],[0,3800],[0,3800],[0,3800],[0,3800],[0,3800],[0,3800],[0,3800],[0,3800],[0,3800],[0,3800],[0,3800],[0,3800],[0,3800],[0,3800],[0,3800],[0,3800],[0,3800],[0,3800],[0,3800],[0,3800],[0,3800],[0,3800],[0,3800],[0,3800],[0,3800],[0,3800],[0,3800],[0,3800],[0,3800],[0,3800],[0,3800],[0,3800],[0,3800],[0,3800],[0,3800],[0,3800],[0,3800],[0,3800],[0,3800],[0,3800],[0,3800],[0,3800],[0,3800],[0,3800],[0,3800],[0,3800],[0,3800],[0,3800],[0,3800],[0,3800],[0,3800],[0,3800],[0,3800],[0,3800],[0,3800],[0,3800],[0,3800],[0,3800],[0,3800],[0,3800],[0,3800],[0,3800],[0,3800],[0,3800],[0,3800],[0,3800],[0,3800],[0,3800],[0,3800],[0,3800],[0,3800],[0,3800],[0,3800],[0,3800],[0,3800],[0,3800],[0,3800],[0,3800],[0,3800],[0,3800],[0,3800],[0,3800],[0,3800],[0,3800],[0,3800],[0,3800],[0,3800],[0,3800],[0,3800],[0,3800],[0,3800],[0,3800],[0,3800],[0,3800],[0,3800],[0,3800],[0,3800],[0,3800],[0,3800],[0,3800],[0,3800],[0,3800],[0,3800],[0,3800],[0,3800],[0,3800],[0,3800],[0,3800],[0,3800],[0,3800],[0,3800],[0,3800],[0,3800],[0,3800],[0,3800],[0,3800],[0,3800],[0,3800],[0,3800],[0,3800],[0,3800],[0,3800],[0,3800],[0,3800],[0,3800],[0,3800],[0,3800],[0,3800],[0,3800],[0,3800],[0,3800],[0,3800],[0,3800],[0,3800],[0,3800],[0,3800],[0,3800],[0,3800],[0,3800],[0,3800],[0,3800],[0,3800],[0,3800],[0,3800],[0,3800],[0,3800],[0,3800],[0,3800],[0,3800],[0,3800],[0,3800],[0,3800],[0,3800],[0,3800],[0,3800],[0,3800],[0,3800],[0,3800],[0,3800],[0,3800],[0,3800],[0,3800],[0,3800],[0,3800],[0,3800],[0,3800],[0,3800],[0,3800],[0,3800],[0,3800],[0,3800],[0,3800],[0,3800],[0,3800],[0,3800],[0,3800],[0,3800],[0,3800],[0,3800],[0,3800],[0,3800],[0,3800],[0,3800],[0,3800],[0,3800],[0,3800],[0,3800],[0,3800],[0,3800],[0,3800],[0,3800],[0,3800],[0,3800],[0,3800],[0,3800],[0,3800],[0,3800],[0,3800],[0,3800],[0,3800],[0,3800],[0,3800],[0,3800],[0,3800],[0,3800],[0,3800],[0,3800],[0,3800],[0,3800],[0,3800],[0,3800],[0,3800],[0,3800],[0,3800],[0,3800],[0,3800],[0,3800],[0,3800],[0,3800],[0,3800],[0,3800],[0,3800],[0,3800],[0,3800],[0,3800],[0,3800],[0,3800],[0,3800],[0,3800],[0,3800],[0,3800],[0,3800],[0,3800],[0,3800],[0,3800],[0,3800],[0,3800],[0,3800],[0,3800],[0,3800],[0,3800],[0,3800],[0,3800],[0,3800],[0,3800],[0,3800],[0,3800],[0,3800],[0,3800],[0,3800],[0,3800],[0,3800],[0,3800],[0,3800],[0,3800],[0,3800],[0,3800],[0,3800],[0,3800],[0,3800],[0,3800],[0,3800],[0,3800],[0,3800],[0,3800],[0,3800],[0,3800],[0,3800],[0,3800],[0,3800],[0,3800],[0,3800],[0,3800],[0,3800],[0,3800],[0,3800],[0,3800],[0,3800],[0,3800],[0,3800],[0,3800],[0,3800],[0,3800],[0,3800],[0,3800],[0,3800],[0,3800],[0,3800],[0,3800],[0,3800],[0,3800],[0,3800],[0,3800],[0,3800],[0,3800],[0,3800],[0,3800],[0,3800],[0,3800],[0,3800],[0,3800],[0,3800],[0,3800],[0,3800],[0,3800],[0,3800],[0,3800],[0,3800],[0,3800],[0,3800],[0,3800],[0,3800],[0,3800],[0,3800],[0,3800],[0,3800],[0,3800],[0,3800],[0,3800],[0,3800],[0,3800],[0,3800],[0,3800],[0,3800],[0,3800],[0,3800],[0,3800],[0,3800],[0,3800],[0,3800],[0,3800],[0,3800],[0,3800],[0,3800],[0,3800],[0,3800],[0,3800],[0,3800],[0,3800],[0,3800],[0,3800],[0,3800],[0,3800],[0,3800],[0,3800],[0,3800],[0,3800],[0,3800],[0,3800],[0,3800],[0,3800],[0,3800],[0,3800],[0,3800],[0,3800],[0,3800],[0,3800],[0,3800],[0,3800],[0,3800],[0,3800],[0,3800],[0,3800],[0,3800],[0,3800],[0,3800],[0,3800],[0,3800],[0,3800],[0,3800],[0,3800],[0,3800],[0,3800],[0,3800],[0,3800],[0,3800],[0,3800],[0,3800],[0,3800],[0,3800],[0,3800],[0,3800],[0,3800],[0,3800],[0,3800],[0,3800],[0,3800],[0,3800],[0,3800],[0,3800],[0,3800],[0,3800],[0,3800],[0,3800],[0,3800],[0,3800],[0,3800],[0,3800],[0,3800],[0,3800],[0,3800],[0,3800],[0,3800],[0,3800],[0,3800],[0,3800],[0,3800],[0,3800],[0,3800],[0,3800],[0,3800],[0,3800],[0,3800],[0,3800],[0,3800],[0,3800],[0,3800],[0,3800],[0,3800],[0,3800],[0,3800],[0,3800],[0,3800],[0,3800],[0,3800],[0,3800],[0,3800],[0,3800],[0,3800],[0,3800],[0,3800],[0,3800],[0,3800],[0,3800],[0,3800],[0,3800],[0,3800],[0,3800],[0,3800],[0,3800],[0,3800],[0,3800],[0,3800],[0,3800],[0,3800],[0,3800],[0,3800],[0,3800],[0,3800],[0,3800],[0,3800],[0,3800],[0,3800],[0,3800],[0,3800],[0,3800],[0,3800],[0,3800],[0,3800],[0,3800],[0,3800],[0,3800],[0,3800],[0,3800],[0,3800],[0,3800],[0,3800],[0,3800],[0,3800],[0,3800],[0,3800],[0,3800],[0,3800],[0,3800],[0,3800],[0,3800],[0,3800],[0,3800],[0,3800],[0,3800],[0,3800],[0,3800],[0,3800],[0,3800],[0,3800],[0,3800],[0,3800],[0,3800],[0,3800],[0,3800],[0,3800],[0,3800],[0,3800],[0,3800],[0,3800],[0,3800],[0,3800],[0,3800],[0,3800],[0,3800],[0,3800],[0,3800],[0,3800],[0,3800],[0,3800],[0,3800],[0,3800],[0,3800],[0,3800],[0,3800],[0,3800],[0,3800],[0,3800],[0,3800],[0,3800],[0,3800],[0,3800],[0,3800],[0,3800],[0,3800],[0,3800],[0,3800],[0,3800],[0,3800],[0,3800],[0,3800],[0,3800],[0,3800],[0,3800],[0,3800],[0,3800],[0,3800],[0,3800],[0,3800],[0,3800],[0,3800],[0,3800],[0,3800],[0,3800],[0,3800],[0,3800],[0,3800],[0,3800],[0,3800],[0,3800],[0,3800],[0,3800],[0,3800],[0,3800],[0,3800],[0,3800],[0,3800],[0,3800],[0,3800],[0,3800],[0,3800],[0,3800],[0,3800],[0,3800],[0,3800],[0,3800],[0,3800],[0,3800],[0,3800],[0,3800],[0,3800],[0,3800],[0,3800],[0,3800],[0,3800],[0,3800],[0,3800],[0,3800],[0,3800],[0,3800],[0,3800],[0,3800],[0,3800],[0,3800],[0,3800],[0,3800],[0,3800],[0,3800],[0,3800],[0,3800],[0,3800],[0,3800],[0,3800],[0,3800],[0,3800],[0,3800],[0,3800],[0,3800],[0,3800],[0,3800],[0,3800],[0,3800],[0,3800],[0,3800],[0,3800],[0,3800],[0,3800],[0,3800],[0,3800],[0,3800],[0,3800],[0,3800],[0,3800],[0,3800],[0,3800],[0,3800],[0,3800],[0,3800],[0,3800],[0,3800],[0,3800],[0,3800],[0,3800],[0,3800],[0,3800],[0,3800],[0,3800],[0,3800],[0,3800],[0,3800],[0,3800],[0,3800],[0,3800],[0,3800],[0,3800],[0,3800],[0,3800],[0,3800],[0,3800],[0,3800],[0,3800],[0,3800],[0,3800],[0,3800],[0,3800],[0,3800],[0,3800],[0,3800],[0,3800],[0,3800],[0,3800],[0,3800],[0,3800],[0,3800],[0,3800],[0,3800],[0,3800],[0,3800],[0,3800],[0,3800],[0,3800],[0,3800],[0,3800],[0,3800],[0,3800],[0,3800],[0,3800],[0,3800],[0,3800],[0,3800],[0,3800],[0,3800],[0,3800],[0,3800],[0,3800],[0,3800],[0,3800],[0,3800],[0,3800],[0,3800],[0,3800],[0,3800],[0,3800],[0,3800],[0,3800],[0,3800],[0,3800],[0,3800],[0,3800],[0,3800],[0,3800],[0,3800],[0,3800],[0,3800],[0,3800],[0,3800],[0,3800],[0,3800],[0,3800],[0,3800],[0,3800],[0,3800],[0,3800],[0,3800],[0,3800],[0,3800],[0,3800],[0,3800],[0,3800],[0,3800],[0,3800],[0,3800],[0,3800],[0,3800],[0,3800],[0,3800],[0,3800],[0,3800],[0,3800],[0,3800],[0,3800],[0,3800],[0,3800],[0,3800],[0,3800],[0,3800],[0,3800],[0,3800],[0,3800],[0,3800],[0,3800],[0,3800],[0,3800],[0,3800],[0,3800],[0,3800],[0,3800],[0,3800],[0,3800],[0,3800],[0,3800],[0,3800],[0,3800],[0,3800],[0,3800],[0,3800],[0,3800],[0,3800],[0,3800],[0,3800],[0,3800],[0,3800],[0,3800],[0,3800],[0,3800],[0,3800],[0,3800],[0,3800],[0,3800],[0,3800],[0,3800],[0,3800],[0,3800],[0,3800],[0,3800],[0,3800],[0,3800],[0,3800],[0,3800],[0,3800],[0,3800],[0,3800],[0,3800],[0,3800],[0,3800],[0,3800],[0,3800],[0,3800],[0,3800],[0,3800],[0,3800],[0,3800],[0,3800],[0,3800],[0,3800],[0,3800],[0,3800],[0,3800],[0,3800],[0,3800],[0,3800],[0,3800],[0,3800],[0,3800],[0,3800],[0,3800],[0,3800],[0,3800],[0,3800],[0,3800],[0,3800],[0,3800],[0,3800],[0,3800],[0,3800],[0,3800],[0,3800],[0,3800],[0,3800],[0,3800],[0,3800],[0,3800],[0,3800],[0,3800],[0,3800],[0,3800],[0,3800],[0,3800],[0,3800],[0,3800],[0,3800],[0,3800],[0,3800],[0,3800],[0,3800],[0,3800],[0,3800],[0,3800],[0,3800],[0,3800],[0,3800],[0,3800],[0,3800],[0,3800],[0,3800],[0,3800],[0,3800],[0,3800],[0,3800],[0,3800],[0,3800],[0,3800],[0,3800],[0,3800],[0,3800],[0,3800],[0,3800],[0,3800],[0,3800],[0,3800],[0,3800],[0,3800],[0,3800],[0,3800],[0,3800],[0,3800],[0,3800],[0,3800],[0,3800],[0,3800],[0,3800],[0,3800],[0,3800],[0,3800],[0,3800],[0,3800],[0,3800],[0,3800],[0,3800],[0,3800],[0,3800],[0,3800],[0,3800],[0,3800],[0,3800],[0,3800],[0,3800],[0,3800],[0,3800],[0,3800],[0,3800],[0,3800],[0,3800],[0,3800],[0,3800],[0,3800],[0,3800],[0,3800],[0,3800],[0,3800],[0,3800],[0,3800],[0,3800],[0,3800],[0,3800],[0,3800],[0,3800],[0,3800],[0,3800],[0,3800],[0,3800],[0,3800],[0,3800],[0,3800],[0,3800],[0,3800],[0,3800],[0,3800],[0,3800],[0,3800],[0,3800],[0,3800],[0,3800],[0,3800],[0,3800],[0,3800],[0,3800],[0,3800],[0,3800],[0,3800],[0,3800],[0,3800],[0,3800],[0,3800],[0,3800],[0,3800],[0,3800],[0,3800],[0,3800],[0,3800],[0,3800],[0,3800],[0,3800],[0,3800],[0,3800],[0,3800],[0,3800],[0,3800],[0,3800],[0,3800],[0,3800],[0,3800],[0,3800],[0,3800],[0,3800],[0,3800],[0,3800],[0,3800],[0,3800],[0,3800],[0,3800],[0,3800],[0,3800],[0,3800],[0,3800],[0,3800],[0,3800],[0,3800],[0,3800],[0,3800],[0,3800],[0,3800],[0,3800],[0,3800],[0,3800],[0,3800],[0,3800],[0,3800],[0,3800],[0,3800],[0,3800],[0,3800],[0,3800],[0,3800],[0,3800],[0,3800],[0,3800],[0,3800],[0,3800],[0,3800],[0,3800],[0,3800],[0,3800],[0,3800],[0,3800],[0,3800],[0,3800],[0,3800],[0,3800],[0,3800],[0,3800],[0,3800],[0,3800],[0,3800],[0,3800],[0,3800],[0,3800],[0,3800],[0,3800],[0,3800],[0,3800],[0,3800],[0,3800],[0,3800],[0,3800],[0,3800],[0,3800],[0,3800],[0,3800],[0,3800],[0,3800],[0,3800],[0,3800],[0,3800],[0,3800],[0,3800],[0,3800],[0,3800],[0,3800],[0,3800],[0,3800],[0,3800],[0,3800],[0,3800],[0,3800],[0,3800],[0,3800],[0,3800],[0,3800],[0,3800],[0,3800],[0,3800],[0,3800],[0,3800],[0,3800],[0,3800],[0,3800],[0,3800],[0,3800],[0,3800],[0,3800],[0,3800],[0,3800],[0,3800],[0,3800],[0,3800],[0,3800],[0,3800],[0,3800],[0,3800],[0,3800],[0,3800],[0,3800],[0,3800],[0,3800],[0,3800],[0,3800],[0,3800],[0,3800],[0,3800],[0,3800],[0,3800],[0,3800],[0,3800],[0,3800],[0,3800],[0,3800],[0,3800],[0,3800],[0,3800],[0,3800],[0,3800],[0,3800],[0,3800],[0,3800],[0,3800],[0,3800],[0,3800],[0,3800],[0,3800],[0,3800],[0,3800],[0,3800],[0,3800],[0,3800],[0,3800],[0,3800],[0,3800],[0,3800],[0,3800],[0,3800],[0,3800],[0,3800],[0,3800],[0,3800],[0,3800],[0,3800],[0,3800],[0,3800],[0,3800],[0,3800],[0,3800],[0,3800],[0,3800],[0,3800],[0,3800],[0,3800],[0,3800],[0,3800],[0,3800],[0,3800],[0,3800],[0,3800],[0,3800],[0,3800],[0,3800],[0,3800],[0,3800],[0,3800],[0,3800],[0,3800],[0,3800],[0,3800],[0,3800],[0,3800],[0,3800],[0,3800],[0,3800],[0,3800],[0,3800],[0,3800],[0,3800],[0,3800],[0,3800],[0,3800],[0,3800],[0,3800],[0,3800],[0,3800],[0,3800],[0,3800],[0,3800],[0,3800],[0,3800],[0,3800],[0,3800],[0,3800],[0,3800],[0,3800],[0,3800],[0,3800],[0,3800],[0,3800],[0,3800],[0,3800],[0,3800],[0,3800],[0,3800],[0,3800],[0,3800],[0,3800],[0,3800],[0,3800],[0,3800],[0,3800],[0,3800],[0,3800],[0,3800],[0,3800],[0,3800],[0,3800],[0,3800],[0,3800],[0,3800],[0,3800],[0,3800],[0,3800],[0,3800],[0,3800],[0,3800],[0,3800],[0,3800],[0,3800],[0,3800],[0,3800],[0,3800],[0,3800],[0,3800],[0,3800],[0,3800],[0,3800],[0,3800],[0,3800],[0,3800],[0,3800],[0,3800],[0,3800],[0,3800],[0,3800],[0,3800],[0,3800],[0,3800],[0,3800],[0,3800],[0,3800],[0,3800],[0,3800],[0,3800],[0,3800],[0,3800],[0,3800],[0,3800],[0,3800],[0,3800],[0,3800],[0,3800],[0,3800],[0,3800],[0,3800],[0,3800],[0,3800],[0,3800],[0,3800],[0,3800],[0,3800],[0,3800],[0,3800],[0,3800],[0,3800],[0,3800],[0,3800],[0,3800],[0,3800],[0,3800],[0,3800],[0,3800],[0,3800],[0,3800],[0,3800],[0,3800],[0,3800],[0,3800],[0,3800],[0,3800],[0,3800],[0,3800],[0,3800],[0,3800],[0,3800],[0,3800],[0,3800],[0,3800],[0,3800],[0,3800],[0,3800],[0,3800],[0,3800],[0,3800],[0,3800],[0,3800],[0,3800],[0,3800],[0,3800],[0,3800],[0,3800],[0,3800],[0,3800],[0,3800],[0,3800],[0,3800],[0,3800],[0,3800],[0,3800],[0,3800],[0,3800],[0,3800],[0,3800],[0,3800],[0,3800],[0,3800],[0,3800],[0,3800],[0,3800],[0,3800],[0,3800],[0,3800],[0,3800],[0,3800],[0,3800],[0,3800],[0,3800],[0,3800],[0,3800],[0,3800],[0,3800],[0,3800],[0,3800],[0,3800],[0,3800],[0,3800],[0,3800],[0,3800],[0,3800],[0,3800],[0,3800],[0,3800],[0,3800],[0,3800],[0,3800],[0,3800],[0,3800],[0,3800],[0,3800],[0,3800],[0,3800],[0,3800],[0,3800],[0,3800],[0,3800],[0,3800],[0,3800],[0,3800],[0,3800],[0,3800],[0,3800],[0,3800],[0,3800],[0,3800],[0,3800],[0,3800],[0,3800],[0,3800],[0,3800],[0,3800],[0,3800],[0,3800],[0,3800],[0,3800],[0,3800],[0,3800],[0,3800],[0,3800],[0,3800],[0,3800],[0,3800],[0,3800],[0,3800],[0,3800],[0,3800],[0,3800],[0,3800],[0,3800],[0,3800],[0,3800],[0,3800],[0,3800],[0,3800],[0,3800],[0,3800],[0,3800],[0,3800],[0,3800],[0,3800],[0,3800],[0,3800],[0,3800],[0,3800],[0,3800],[0,3800],[0,3800],[0,3800],[0,3800],[0,3800],[0,3800],[0,3800],[0,3800],[0,3800],[0,3800],[0,3800],[0,3800],[0,3800],[0,3800],[0,3800],[0,3800],[0,3800],[0,3800],[0,3800],[0,3800],[0,3800],[0,3800],[0,3800],[0,3800],[0,3800],[0,3800],[0,3800],[0,3800],[0,3800],[0,3800],[0,3800],[0,3800],[0,3800],[0,3800],[0,3800],[0,3800],[0,3800],[0,3800],[0,3800],[0,3800],[0,3800],[0,3800],[0,3800],[0,3800],[0,3800],[0,3800],[0,3800],[0,3800],[0,3800],[0,3800],[0,3800],[0,3800],[0,3800],[0,3800],[0,3800],[0,3800],[0,3800],[0,3800],[0,3800],[0,3800],[0,3800],[0,3800],[0,3800],[0,3800],[0,3800],[0,3800],[0,3800],[0,3800],[0,3800],[0,3800],[0,3800],[0,3800],[0,3800],[0,3800],[0,3800],[0,3800],[0,3800],[0,3800],[0,3800],[0,3800],[0,3800],[0,3800],[0,3800],[0,3800],[0,3800],[0,3800],[0,3800],[0,3800],[0,3800],[0,3800],[0,3800],[0,3800],[0,3800],[0,3800],[0,3800],[0,3800],[0,3800],[0,3800],[0,3800],[0,3800],[0,3800],[0,3800],[0,3800],[0,3800],[0,3800],[0,3800],[0,3800],[0,3800],[0,3800],[0,3800],[0,3800],[0,3800],[0,3800],[0,3800],[0,3800],[0,3800],[0,3800],[0,3800],[0,3800],[0,3800],[0,3800],[0,3800],[0,3800],[0,3800],[0,3800],[0,3800],[0,3800],[0,3800],[0,3800],[0,3800],[0,3800],[0,3800],[0,3800],[0,3800],[0,3800],[0,3800],[0,3800],[0,3800],[0,3800],[0,3800],[0,3800],[0,3800],[0,3800],[0,3800],[0,3800],[0,3800],[0,3800],[0,3800],[0,3800],[0,3800],[0,3800],[0,3800],[0,3800],[0,3800],[0,3800],[0,3800],[0,3800],[0,3800],[0,3800],[0,3800],[0,3800],[0,3800],[0,3800],[0,3800],[0,3800],[0,3800],[0,3800],[0,3800],[0,3800],[0,3800],[0,3800],[0,3800],[0,3800],[0,3800],[0,3800],[0,3800],[0,3800],[0,3800],[0,3800],[0,3800],[0,3800],[0,3800],[0,3800],[0,3800],[0,3800],[0,3800],[0,3800],[0,3800],[0,3800],[0,3800],[0,3800],[0,3800],[0,3800],[0,3800],[0,3800],[0,3800],[0,3800],[0,3800],[0,3800],[0,3800],[0,3800],[0,3800],[0,3800],[0,3800],[0,3800],[0,3800],[0,3800],[0,3800],[0,3800],[0,3800],[0,3800],[0,3800],[0,3800],[0,3800],[0,3800],[0,3800],[0,3800],[0,3800],[0,3800],[0,3800],[0,3800],[0,3800],[0,3800],[0,3800],[0,3800],[0,3800],[0,3800],[0,3800],[0,3800],[0,3800],[0,3800],[0,3800],[0,3800],[0,3800],[0,3800],[0,3800],[0,3800],[0,3800],[0,3800],[0,3800],[0,3800],[0,3800],[0,3800],[0,3800],[0,3800],[0,3800],[0,3800],[0,3800],[0,3800],[0,3800],[0,3800],[0,3800],[0,3800],[0,3800],[0,3800],[0,3800],[0,3800],[0,3800],[0,3800],[0,3800],[0,3800],[0,3800],[0,3800],[0,3800],[0,3800],[0,3800],[0,3800],[0,3800],[0,3800],[0,3800],[0,3800],[0,3800],[0,3800],[0,3800],[0,3800],[0,3800],[0,3800],[0,3800],[0,3800],[0,3800],[0,3800],[0,3800],[0,3800],[0,3800],[0,3800],[0,3800],[0,3800],[0,3800],[0,3800],[0,3800],[0,3800],[0,3800],[0,3800],[0,3800],[0,3800],[0,3800],[0,3800],[0,3800],[0,3800],[0,3800],[0,3800],[0,3800],[0,3800],[0,3800],[0,3800],[0,3800],[0,3800],[0,3800],[0,3800],[0,3800],[0,3800],[0,3800],[0,3800],[0,3800],[0,3800],[0,3800],[0,3800],[0,3800],[0,3800],[0,3800],[0,3800],[0,3800],[0,3800],[0,3800],[0,3800],[0,3800],[0,3800],[0,3800],[0,3800],[0,3800],[0,3800],[0,3800],[0,3800],[0,3800],[0,3800],[0,3800],[0,3800],[0,3800],[0,3800],[0,3800],[0,3800],[0,3800],[0,3800],[0,3800],[0,3800],[0,3800],[0,3800],[0,3800],[0,3800],[0,3800],[0,3800],[0,3800],[0,3800],[0,3800],[0,3800],[0,3800],[0,3800],[0,3800],[0,3800],[0,3800],[0,3800],[0,3800],[0,3800],[0,3800],[0,3800],[0,3800],[0,3800],[0,3800],[0,3800],[0,3800],[0,3800],[0,3800],[0,3800],[0,3800],[0,3800],[0,3800],[0,3800],[0,3800],[0,3800],[0,3800],[0,3800],[0,3800],[0,3800],[0,3800],[0,3800],[0,3800],[0,3800],[0,3800],[0,3800],[0,3800],[0,3800],[0,3800],[0,3800],[0,3800],[0,3800],[0,3800],[0,3800],[0,3800],[0,3800],[0,3800],[0,3800],[0,3800],[0,3800],[0,3800],[0,3800],[0,3800],[0,3800],[0,3800],[0,3800],[0,3800],[0,3800],[0,3800],[0,3800],[0,3800],[0,3800],[0,3800],[0,3800],[0,3800],[0,3800],[0,3800],[0,3800],[0,3800],[0,3800],[0,3800],[0,3800],[0,3800],[0,3800],[0,3800],[0,3800],[0,3800],[0,3800],[0,3800],[0,3800],[0,3800],[0,3800],[0,3800],[0,3800],[0,3800],[0,3800],[0,3800],[0,3800],[0,3800],[0,3800],[0,3800],[0,3800],[0,3800],[0,3800],[0,3800],[0,3800],[0,3800],[0,3800],[0,3800],[0,3800],[0,3800],[0,3800],[0,3800],[0,3800],[0,3800],[0,3800],[0,3800],[0,3800],[0,3800],[0,3800],[0,3800],[0,3800],[0,3800],[0,3800],[0,3800],[0,3800],[0,3800],[0,3800],[0,3800],[0,3800],[0,3800],[0,3800],[0,3800],[0,3800],[0,3800],[0,3800],[0,3800],[0,3800],[0,3800],[0,3800],[0,3800],[0,3800],[0,3800],[0,3800],[0,3800],[0,3800],[0,3800],[0,3800],[0,3800],[0,3800],[0,3800],[0,3800],[0,3800],[0,3800],[0,3800],[0,3800],[0,3800],[0,3800],[0,3800],[0,3800],[0,3800],[0,3800],[0,3800],[0,3800],[0,3800],[0,3800],[0,3800],[0,3800],[0,3800],[0,3800],[0,3800],[0,3800],[0,3800],[0,3800],[0,3800],[0,3800],[0,3800],[0,3800],[0,3800],[0,3800],[0,3800],[0,3800],[0,3800],[0,3800],[0,3800],[0,3800],[0,3800],[0,3800],[0,3800],[0,3800],[0,3800],[0,3800],[0,3800],[0,3800],[0,3800],[0,3800],[0,3800],[0,3800],[0,3800],[0,3800],[0,3800],[0,3800],[0,3800],[0,3800],[0,3800],[0,3800],[0,3800],[0,3800],[0,3800],[0,3800],[0,3800],[0,3800],[0,3800],[0,3800],[0,3800],[0,3800],[0,3800],[0,3800],[0,3800],[0,3800],[0,3800],[0,3800],[0,3800],[0,3800],[0,3800],[0,3800],[0,3800],[0,3800],[0,3800],[0,3800],[0,3800],[0,3800],[0,3800],[0,3800],[0,3800],[0,3800],[0,3800],[0,3800],[0,3800],[0,3800],[0,3800],[0,3800],[0,3800],[0,3800],[0,3800],[0,3800],[0,3800],[0,3800],[0,3800],[0,3800],[0,3800],[0,3800],[0,3800],[0,3800],[0,3800],[0,3800],[0,3800],[0,3800],[0,3800],[0,3800],[0,3800],[0,3800],[0,3800],[0,3800],[0,3800],[0,3800],[0,3800],[0,3800],[0,3800],[0,3800],[0,3800],[0,3800],[0,3800],[0,3800],[0,3800],[0,3800],[0,3800],[0,3800],[0,3800],[0,3800],[0,3800],[0,3800],[0,3800],[0,3800],[0,3800],[0,3800],[0,3800],[0,3800],[0,3800],[0,3800],[0,3800],[0,3800],[0,3800],[0,3800],[0,3800],[0,3800],[0,3800],[0,3800],[0,3800],[0,3800],[0,3800],[0,3800],[0,3800],[0,3800],[0,3800],[0,3800],[0,3800],[0,3800],[0,3800],[0,3800],[0,3800],[0,3800],[0,3800],[0,3800],[0,3800],[0,3800],[0,3800],[0,3800],[0,3800],[0,3800],[0,3800],[0,3800],[0,3800],[0,3800],[0,3800],[0,3800],[0,3800],[0,3800],[0,3800],[0,3800],[0,3800],[0,3800],[0,3800],[0,3800],[0,3800],[0,3800],[0,3800],[0,3800],[0,3800],[0,3800],[0,3800],[0,3800],[0,3800],[0,3800],[0,3800],[0,3800],[0,3800],[0,3800],[0,3800],[0,3800],[0,3800],[0,3800],[0,3800],[0,3800],[0,3800],[0,3800],[0,3800],[0,3800],[0,3800],[0,3800],[0,3800],[0,3800],[0,3800],[0,3800],[0,3800],[0,3800],[0,3800],[0,3800],[0,3800],[0,3800],[0,3800],[0,3800],[0,3800],[0,3800],[0,3800],[0,3800],[0,3800],[0,3800],[0,3800],[0,3800],[0,3800],[0,3800],[0,3800],[0,3800],[0,3800],[0,3800],[0,3800],[0,3800],[0,3800],[0,3800],[0,3800],[0,3800],[0,3800],[0,3800],[0,3800],[0,3800],[0,3800],[0,3800],[0,3800],[0,3800],[0,3800],[0,3800],[0,3800],[0,3800],[0,3800],[0,3800],[0,3800],[0,3800],[0,3800],[0,3800],[0,3800],[0,3800],[0,3800],[0,3800],[0,3800],[0,3800],[0,3800],[0,3800],[0,3800],[0,3800],[0,3800],[0,3800],[0,3800],[0,3800],[0,3800],[0,3800],[0,3800],[0,3800],[0,3800],[0,3800],[0,3800],[0,3800],[0,3800],[0,3800],[0,3800],[0,3800],[0,3800],[0,3800],[0,3800],[0,3800],[0,3800],[0,3800],[0,3800],[0,3800],[0,3800],[0,3800],[0,3800],[0,3800],[0,3800],[0,3800],[0,3800],[0,3800],[0,3800],[0,3800],[0,3800],[0,3800],[0,3800],[0,3800],[0,3800],[0,3800],[0,3800],[0,3800],[0,3800],[0,3800],[0,3800],[0,3800],[0,3800],[0,3800],[0,3800],[0,3800],[0,3800],[0,3800],[0,3800],[0,3800],[0,3800],[0,3800],[0,3800],[0,3800],[0,3800],[0,3800],[0,3800],[0,3800],[0,3800],[0,3800],[0,3800],[0,3800],[0,3800],[0,3800],[0,3800],[0,3800],[0,3800],[0,3800],[0,3800],[0,3800],[0,3800],[0,3800],[0,3800],[0,3800],[0,3800],[0,3800],[0,3800],[0,3800],[0,3800],[0,3800],[0,3800],[0,3800],[0,3800],[0,3800],[0,3800],[0,3800],[0,3800],[0,3800],[0,3800],[0,3800],[0,3800],[0,3800],[0,3800],[0,3800],[0,3800],[0,3800],[0,3800],[0,3800],[0,3800],[0,3800],[0,3800],[0,3800],[0,3800],[0,3800],[0,3800],[0,3800],[0,3800],[0,3800],[0,3800],[0,3800],[0,3800],[0,3800],[0,3800],[0,3800],[0,3800],[0,3800],[0,3800],[0,3800],[0,3800],[0,3800],[0,3800],[0,3800],[0,3800],[0,3800],[0,3800],[0,3800],[0,3800],[0,3800],[0,3800],[0,3800],[0,3800],[0,3800],[0,3800],[0,3800],[0,3800],[0,3800],[0,3800],[0,3800],[0,3800],[0,3800],[0,3800],[0,3800],[0,3800],[0,3800],[0,3800],[0,3800],[0,3800],[0,3800],[0,3800],[0,3800],[0,3800],[0,3800],[0,3800],[0,3800],[0,3800],[0,3800],[0,3800],[0,3800],[0,3800],[0,3800],[0,3800],[0,3800],[0,3800],[0,3800],[0,3800],[0,3800],[0,3800],[0,3800],[0,3800],[0,3800],[0,3800],[0,3800],[0,3800],[0,3800],[0,3800],[0,3800],[0,3800],[0,3800],[0,3800],[0,3800],[0,3800],[0,3800],[0,3800],[0,3800],[0,3800],[0,3800],[0,3800],[0,3800],[0,3800],[0,3800],[0,3800],[0,3800],[0,3800],[0,3800],[0,3800],[0,3800],[0,3800],[0,3800],[0,3800],[0,3800],[0,3800],[0,3800],[0,3800],[0,3800],[0,3800],[0,3800],[0,3800],[0,3800],[0,3800],[0,3800],[0,3800],[0,3800],[0,3800],[0,3800],[0,3800],[0,3800],[0,3800],[0,3800],[0,3800],[0,3800],[0,3800],[0,3800],[0,3800],[0,3800],[0,3800],[0,3800],[0,3800],[0,3800],[0,3800],[0,3800],[0,3800],[0,3800],[0,3800],[0,3800],[0,3800],[0,3800],[0,3800],[0,3800],[0,3800],[0,3800],[0,3800],[0,3800],[0,3800],[0,3800],[0,3800],[0,3800],[0,3800],[0,3800],[0,3800],[0,3800],[0,3800],[0,3800],[0,3800],[0,3800],[0,3800],[0,3800],[0,3800],[0,3800],[0,3800],[0,3800],[0,3800],[0,3800],[0,3800],[0,3800],[0,3800],[0,3800],[0,3800],[0,3800],[0,3800],[0,3800],[0,3800],[0,3800],[0,3800],[0,3800],[0,3800],[0,3800],[0,3800],[0,3800],[0,3800],[0,3800],[0,3800],[0,3800],[0,3800],[0,3800],[0,3800],[0,3800],[0,3800],[0,3800],[0,3800],[0,3800],[0,3800],[0,3800],[0,3800],[0,3800],[0,3800],[0,3800],[0,3800],[0,3800],[0,3800],[0,3800],[0,3800],[0,3800],[0,3800],[0,3800],[0,3800],[0,3800],[0,3800],[0,3800],[0,3800],[0,3800],[0,3800],[0,3800],[0,3800],[0,3800],[0,3800],[0,3800],[0,3800],[0,3800],[0,3800],[0,3800],[0,3800],[0,3800],[0,3800],[0,3800],[0,3800],[0,3800],[0,3800],[0,3800],[0,3800],[0,3800],[0,3800],[0,3800],[0,3800],[0,3800],[0,3800],[0,3800],[0,3800],[0,3800],[0,3800],[0,3800],[0,3800],[0,3800],[0,3800],[0,3800],[0,3800],[0,3800],[0,3800],[0,3800],[0,3800],[0,3800],[0,3800],[0,3800],[0,3800],[0,3800],[0,3800],[0,3800],[0,3800],[0,3800],[0,3800],[0,3800],[0,3800],[0,3800],[0,3800],[0,3800],[0,3800],[0,3800],[0,3800],[0,3800],[0,3800],[0,3800],[0,3800],[0,3800],[0,3800],[0,3800],[0,3800],[0,3800],[0,3800],[0,3800],[0,3800],[0,3800],[0,3800],[0,3800],[0,3800],[0,3800],[0,3800],[0,3800],[0,3800],[0,3800],[0,3800],[0,3800],[0,3800],[0,3800],[0,3800],[0,3800],[0,3800],[0,3800],[0,3800],[0,3800],[0,3800],[0,3800],[0,3800],[0,3800],[0,3800],[0,3800],[0,3800],[0,3800],[0,3800],[0,3800],[0,3800],[0,3800],[0,3800],[0,3800],[0,3800],[0,3800],[0,3800],[0,3800],[0,3800],[0,3800],[0,3800],[0,3800],[0,3800],[0,3800],[0,3800],[0,3800],[0,3800],[0,3800],[0,3800],[0,3800],[0,3800],[0,3800],[0,3800],[0,3800],[0,3800],[0,3800],[0,3800],[0,3800],[0,3800],[0,3800],[0,3800],[0,3800],[0,3800],[0,3800],[0,3800],[0,3800],[0,3800],[0,3800],[0,3800],[0,3800],[0,3800],[0,3800],[0,3800],[0,3800],[0,3800],[0,3800],[0,3800],[0,3800],[0,3800],[0,3800],[0,3800],[0,3800],[0,3800],[0,3800],[0,3800],[0,3800],[0,3800],[0,3800],[0,3800],[0,3800],[0,3800],[0,3800],[0,3800],[0,3800],[0,3800],[0,3800],[0,3800],[0,3800],[0,3800],[0,3800],[0,3800],[0,3800],[0,3800],[0,3800],[0,3800],[0,3800],[0,3800],[0,3800],[0,3800],[0,3800],[0,3800],[0,3800],[0,3800],[0,3800],[0,3800],[0,3800],[0,3800],[0,3800],[0,3800],[0,3800],[0,3800],[0,3800],[0,3800],[0,3800],[0,3800],[0,3800],[0,3800],[0,3800],[0,3800],[0,3800],[0,3800],[0,3800],[0,3800],[0,3800],[0,3800],[0,3800],[0,3800],[0,3800],[0,3800],[0,3800],[0,3800],[0,3800],[0,3800],[0,3800],[0,3800],[0,3800],[0,3800],[0,3800],[0,3800],[0,3800],[0,3800],[0,3800],[0,3800],[0,3800],[0,3800],[0,3800],[0,3800],[0,3800],[0,3800],[0,3800],[0,3800],[0,3800],[0,3800],[0,3800],[0,3800],[0,3800],[0,3800],[0,3800],[0,3800],[0,3800],[0,3800],[0,3800],[0,3800],[0,3800],[0,3800],[0,3800],[0,3800],[0,3800],[0,3800],[0,3800],[0,3800],[0,3800],[0,3800],[0,3800],[0,3800],[0,3800],[0,3800],[0,3800],[0,3800],[0,3800],[0,3800],[0,3800],[0,3800],[0,3800],[0,3800],[0,3800],[0,3800],[0,3800],[0,3800],[0,3800],[0,3800],[0,3800],[0,3800],[0,3800],[0,3800],[0,3800],[0,3800],[0,3800],[0,3800],[0,3800],[0,3800],[0,3800],[0,3800],[0,3800],[0,3800],[0,3800],[0,3800],[0,3800],[0,3800],[0,3800],[0,3800],[0,3800],[0,3800],[0,3800],[0,3800],[0,3800],[0,3800],[0,3800],[0,3800],[0,3800],[0,3800],[0,3800],[0,3800],[0,3800],[0,3800],[0,3800],[0,3800],[0,3800],[0,3800],[0,3800],[0,3800],[0,3800],[0,3800],[0,3800],[0,3800],[0,3800],[0,3800],[0,3800],[0,3800],[0,3800],[0,3800],[0,3800],[0,3800],[0,3800],[0,3800],[0,3800],[0,3800],[0,3800],[0,3800],[0,3800],[0,3800],[0,3800],[0,3800],[0,3800],[0,3800],[0,3800],[0,3800],[0,3800],[0,3800],[0,3800],[0,3800],[0,3800],[0,3800],[0,3800],[0,3800],[0,3800],[0,3800],[0,3800],[0,3800],[0,3800],[0,3800],[0,3800],[0,3800],[0,3800],[0,3800],[0,3800],[0,3800],[0,3800],[0,3800],[0,3800],[0,3800],[0,3800],[0,3800],[0,3800],[0,3800],[0,3800],[0,3800],[0,3800],[0,3800],[0,3800],[0,3800],[0,3800],[0,3800],[0,3800],[0,3800],[0,3800],[0,3800],[0,3800],[0,3800],[0,3800],[0,3800],[0,3800],[0,3800],[0,3800],[0,3800],[0,3800],[0,3800],[0,3800],[0,3800],[0,3800],[0,3800],[0,3800],[0,3800],[0,3800],[0,3800],[0,3800],[0,3800],[0,3800],[0,3800],[0,3800],[0,3800],[0,3800],[0,3800],[0,3800],[0,3800],[0,3800],[0,3800],[0,3800],[0,3800],[0,3800],[0,3800],[0,3800],[0,3800],[0,3800],[0,3800],[0,3800],[0,3800],[0,3800],[0,3800],[0,3800],[0,3800],[0,3800],[0,3800],[0,3800],[0,3800],[0,3800],[0,3800],[0,3800],[0,3800],[0,3800],[0,3800],[0,3800],[0,3800],[0,3800],[0,3800],[0,3800],[0,3800],[0,3800],[0,3800],[0,3800],[0,3800],[0,3800],[0,3800],[0,3800],[0,3800],[0,3800],[0,3800],[0,3800],[0,3800],[0,3800],[0,3800],[0,3800],[0,3800],[0,3800],[0,3800],[0,3800],[0,3800],[0,3800],[0,3800],[0,3800],[0,3800],[0,3800],[0,3800],[0,3800],[0,3800],[0,3800],[0,3800],[0,3800],[0,3800],[0,3800],[0,3800],[0,3800],[0,3800],[0,3800],[0,3800],[0,3800],[0,3800],[0,3800],[0,3800],[0,3800],[0,3800],[0,3800],[0,3800],[0,3800],[0,3800],[0,3800],[0,3800],[0,3800],[0,3800],[0,3800],[0,3800],[0,3800],[0,3800],[0,3800],[0,3800],[0,3800],[0,3800],[0,3800],[0,3800],[0,3800],[0,3800],[0,3800],[0,3800],[0,3800],[0,3800],[0,3800],[0,3800],[0,3800],[0,3800],[0,3800],[0,3800],[0,3800],[0,3800],[0,3800],[0,3800],[0,3800],[0,3800],[0,3800],[0,3800],[0,3800],[0,3800],[0,3800],[0,3800],[0,3800],[0,3800],[0,3800],[0,3800],[0,3800],[0,3800],[0,3800],[0,3800],[0,3800],[0,3800],[0,3800],[0,3800],[0,3800],[0,3800],[0,3800],[0,3800],[0,3800],[0,3800],[0,3800],[0,3800],[0,3800],[0,3800],[0,3800],[0,3800],[0,3800],[0,3800],[0,3800],[0,3800],[0,3800],[0,3800],[0,3800],[0,3800],[0,3800],[0,3800],[0,3800],[0,3800],[0,3800],[0,3800],[0,3800],[0,3800],[0,3800],[0,3800],[0,3800],[0,3800],[0,3800],[0,3800],[0,3800],[0,3800],[0,3800],[0,3800],[0,3800],[0,3800],[0,3800],[0,3800],[0,3800],[0,3800],[0,3800],[0,3800],[0,3800],[0,3800],[0,3800],[0,3800],[0,3800],[0,3800],[0,3800],[0,3800],[0,3800],[0,3800],[0,3800],[0,3800],[0,3800],[0,3800],[0,3800],[0,3800],[0,3800],[0,3800],[0,3800],[0,3800],[0,3800],[0,3800],[0,3800],[0,3800],[0,3800],[0,3800],[0,3800],[0,3800],[0,3800],[0,3800],[0,3800],[0,3800],[0,3800],[0,3800],[0,3800],[0,3800],[0,3800],[0,3800],[0,3800],[0,3800],[0,3800],[0,3800],[0,3800],[0,3800],[0,3800],[0,3800],[0,3800],[0,3800],[0,3800],[0,3800],[0,3800],[0,3800],[0,3800],[0,3800],[0,3800],[0,3800],[0,3800],[0,3800],[0,3800],[0,3800],[0,3800],[0,3800],[0,3800],[0,3800],[0,3800],[0,3800],[0,3800],[0,3800],[0,3800],[0,3800],[0,3800],[0,3800],[0,3800],[0,3800],[0,3800],[0,3800],[0,3800],[0,3800],[0,3800],[0,3800],[0,3800],[0,3800],[0,3800],[0,3800],[0,3800],[0,3800],[0,3800],[0,3800],[0,3800],[0,3800],[0,3800],[0,3800],[0,3800],[0,3800],[0,3800],[0,3800],[0,3800],[0,3800],[0,3800],[0,3800],[0,3800],[0,3800],[0,3800],[0,3800],[0,3800],[0,3800],[0,3800],[0,3800],[0,3800],[0,3800],[0,3800],[0,3800],[0,3800],[0,3800],[0,3800],[0,3800],[0,3800],[0,3800],[0,3800],[0,3800],[0,3800],[0,3800],[0,3800],[0,3800],[0,3800],[0,3800],[0,3800],[0,3800],[0,3800],[0,3800],[0,3800],[0,3800],[0,3800],[0,3800],[0,3800],[0,3800],[0,3800],[0,3800],[0,3800],[0,3800],[0,3800],[0,3800],[0,3800],[0,3800],[0,3800],[0,3800],[0,3800],[0,3800],[0,3800],[0,3800],[0,3800],[0,3800],[0,3800],[0,3800],[0,3800],[0,3800],[0,3800],[0,3800],[0,3800],[0,3800],[0,3800],[0,3800],[0,3800],[0,3800],[0,3800],[0,3800],[0,3800],[0,3800],[0,3800],[0,3800],[0,3800],[0,3800],[0,3800],[0,3800],[0,3800],[0,3800],[0,3800],[0,3800],[0,3800],[0,3800],[0,3800],[0,3800],[0,3800],[0,3800],[0,3800],[0,3800],[0,3800],[0,3800],[0,3800],[0,3800],[0,3800],[0,3800],[0,3800],[0,3800],[0,3800],[0,3800],[0,3800],[0,3800],[0,3800],[0,3800],[0,3800],[0,3800],[0,3800],[0,3800],[0,3800],[0,3800],[0,3800],[0,3800],[0,3800],[0,3800],[0,3800],[0,3800],[0,3800],[0,3800],[0,3800],[0,3800],[0,3800],[0,3800],[0,3800],[0,3800],[0,3800],[0,3800],[0,3800],[0,3800],[0,3800],[0,3800],[0,3800],[0,3800],[0,3800],[0,3800],[0,3800],[0,3800],[0,3800],[0,3800],[0,3800],[0,3800],[0,3800],[0,3800],[0,3800],[0,3800],[0,3800],[0,3800],[0,3800],[0,3800],[0,3800],[0,3800],[0,3800],[0,3800],[0,3800],[0,3800],[0,3800],[0,3800],[0,3800],[0,3800],[0,3800],[0,3800],[0,3800],[0,3800],[0,3800],[0,3800],[0,3800],[0,3800],[0,3800],[0,3800],[0,3800],[0,3800],[0,3800],[0,3800],[0,3800],[0,3800],[0,3800],[0,3800],[0,3800],[0,3800],[0,3800],[0,3800],[0,3800],[0,3800],[0,3800],[0,3800],[0,3800],[0,3800],[0,3800],[0,3800],[0,3800],[0,3800],[0,3800],[0,3800],[0,3800],[0,3800],[0,3800],[0,3800],[0,3800],[0,3800],[0,3800],[0,3800],[0,3800],[0,3800],[0,3800],[0,3800],[0,3800],[0,3800],[0,3800],[0,3800],[0,3800],[0,3800],[0,3800],[0,3800],[0,3800],[0,3800],[0,3800],[0,3800],[0,3800],[0,3800],[0,3800],[0,3800],[0,3800],[0,3800],[0,3800],[0,3800],[0,3800],[0,3800],[0,3800],[0,3800],[0,3800],[0,3800],[0,3800],[0,3800],[0,3800],[0,3800],[0,3800],[0,3800],[0,3800],[0,3800],[0,3800],[0,3800],[0,3800],[0,3800],[0,3800],[0,3800],[0,3800],[0,3800],[0,3800],[0,3800],[0,3800],[0,3800],[0,3800],[0,3800],[0,3800],[0,3800],[0,3800],[0,3800],[0,3800],[0,3800],[0,3800],[0,3800],[0,3800],[0,3800],[0,3800],[0,3800],[0,3800],[0,3800],[0,3800],[0,3800],[0,3800],[0,3800],[0,3800],[0,3800],[0,3800],[0,3800],[0,3800],[0,3800],[0,3800],[0,3800],[0,3800],[0,3800],[0,3800],[0,3800],[0,3800],[0,3800],[0,3800],[0,3800],[0,3800],[0,3800],[0,3800],[0,3800],[0,3800],[0,3800],[0,3800],[0,3800],[0,3800],[0,3800],[0,3800],[0,3800],[0,3800],[0,3800],[0,3800],[0,3800],[0,3800],[0,3800],[0,3800],[0,3800],[0,3800],[0,3800],[0,3800],[0,3800],[0,3800],[0,3800],[0,3800],[0,3800],[0,3800],[0,3800],[0,3800],[0,3800],[0,3800],[0,3800],[0,3800],[0,3800],[0,3800],[0,3800],[0,3800],[0,3800],[0,3800],[0,3800],[0,3800],[0,3800],[0,3800],[0,3800],[0,3800],[0,3800],[0,3800],[0,3800],[0,3800],[0,3800],[0,3800],[0,3800],[0,3800],[0,3800],[0,3800],[0,3800],[0,3800],[0,3800],[0,3800],[0,3800],[0,3800],[0,3800],[0,3800],[0,3800],[0,3800],[0,3800],[0,3800],[0,3800],[0,3800],[0,3800],[0,3800],[0,3800],[0,3800],[0,3800],[0,3800],[0,3800],[0,3800],[0,3800],[0,3800],[0,3800],[0,3800],[0,3800],[0,3800],[0,3800],[0,3800],[0,3800],[0,3800],[0,3800],[0,3800],[0,3800],[0,3800],[0,3800],[0,3800],[0,3800],[0,3800],[0,3800],[0,3800],[0,3800],[0,3800],[0,3800],[0,3800],[0,3800],[0,3800],[0,3800],[0,3800],[0,3800],[0,3800],[0,3800],[0,3800],[0,3800],[0,3800],[0,3800],[0,3800],[0,3800],[0,3800],[0,3800],[0,3800],[0,3800],[0,3800],[0,3800],[0,3800],[0,3800],[0,3800],[0,3800],[0,3800],[0,3800],[0,3800],[0,3800],[0,3800],[0,3800],[0,3800],[0,3800],[0,3800],[0,3800],[0,3800],[0,3800],[0,3800],[0,3800],[0,3800],[0,3800],[0,3800],[0,3800],[0,3800],[0,3800],[0,3800],[0,3800],[0,3800],[0,3800],[0,3800],[0,3800],[0,3800],[0,3800],[0,3800],[0,3800],[0,3800],[0,3800],[0,3800],[0,3800],[0,3800],[0,3800],[0,3800],[0,3800],[0,3800],[0,3800],[0,3800],[0,3800],[0,3800],[0,3800],[0,3800],[0,3800],[0,3800],[0,3800],[0,3800],[0,3800],[0,3800],[0,3800],[0,3800],[0,3800],[0,3800],[0,3800],[0,3800],[0,3800],[0,3800],[0,3800],[0,3800],[0,3800],[0,3800],[0,3800],[0,3800],[0,3800],[0,3800],[0,3800],[0,3800],[0,3800],[0,3800],[0,3800],[0,3800],[0,3800],[0,3800],[0,3800],[0,3800],[0,3800],[0,3800],[0,3800],[0,3800],[0,3800],[0,3800],[0,3800],[0,3800],[0,3800],[0,3800],[0,3800],[0,3800],[0,3800],[0,3800],[0,3800],[0,3800],[0,3800],[0,3800],[0,3800],[0,3800],[0,3800],[0,3800],[0,3800],[0,3800],[0,3800],[0,3800],[0,3800],[0,3800],[0,3800],[0,3800],[0,3800],[0,3800],[0,3800],[0,3800],[0,3800],[0,3800],[0,3800],[0,3800],[0,3800],[0,3800],[0,3800],[0,3800],[0,3800],[0,3800],[0,3800],[0,3800],[0,3800],[0,3800],[0,3800],[0,3800],[0,3800],[0,3800],[0,3800],[0,3800],[0,3800],[0,3800],[0,3800],[0,3800],[0,3800],[0,3800],[0,3800],[0,3800],[0,3800],[0,3800],[0,3800],[0,3800],[0,3800],[0,3800],[0,3800],[0,3800],[0,3800],[0,3800],[0,3800],[0,3800],[0,3800],[0,3800],[0,3800],[0,3800],[0,3800],[0,3800],[0,3800],[0,3800],[0,3800],[0,3800],[0,3800],[0,3800],[0,3800],[0,3800],[0,3800],[0,3800],[0,3800],[0,3800],[0,3800],[0,3800],[0,3800],[0,3800],[0,3800],[0,3800],[0,3800],[0,3800],[0,3800],[0,3800],[0,3800],[0,3800],[0,3800],[0,3800],[0,3800],[0,3800],[0,3800],[0,3800],[0,3800],[0,3800],[0,3800],[0,3800],[0,3800],[0,3800],[0,3800],[0,3800],[0,3800],[0,3800],[0,3800],[0,3800],[0,3800],[0,3800],[0,3800],[0,3800],[0,3800],[0,3800],[0,3800],[0,3800],[0,3800],[0,3800],[0,3800],[0,3800],[0,3800],[0,3800],[0,3800],[0,3800],[0,3800],[0,3800],[0,3800],[0,3800],[0,3800],[0,3800],[0,3800],[0,3800],[0,3800],[0,3800],[0,3800],[0,3800],[0,3800],[0,3800],[0,3800],[0,3800],[0,3800],[0,3800],[0,3800],[0,3800],[0,3800],[0,3800],[0,3800],[0,3800],[0,3800],[0,3800],[0,3800],[0,3800],[0,3800],[0,3800],[0,3800],[0,3800],[0,3800],[0,3800],[0,3800],[0,3800],[0,3800],[0,3800],[0,3800],[0,3800],[0,3800],[0,3800],[0,3800],[0,3800],[0,3800],[0,3800],[0,3800],[0,3800],[0,3800],[0,3800],[0,3800],[0,3800],[0,3800],[0,3800],[0,3800],[0,3800],[0,3800],[0,3800],[0,3800],[0,3800],[0,3800],[0,3800],[0,3800],[0,3800],[0,3800],[0,3800],[0,3800],[0,3800],[0,3800],[0,3800],[0,3800],[0,3800],[0,3800],[0,3800],[0,3800],[0,3800],[0,3800],[0,3800],[0,3800],[0,3800],[0,3800],[0,3800],[0,3800],[0,3800],[0,3800],[0,3800],[0,3800],[0,3800],[0,3800],[0,3800],[0,3800],[0,3800],[0,3800],[0,3800],[0,3800],[0,3800],[0,3800],[0,3800],[0,3800],[0,3800],[0,3800],[0,3800],[0,3800],[0,3800],[0,3800],[0,3800],[0,3800],[0,3800],[0,3800],[0,3800],[0,3800],[0,3800],[0,3800],[0,3800],[0,3800],[0,3800],[0,3800],[0,3800],[0,3800],[0,3800],[0,3800],[0,3800],[0,3800],[0,3800],[0,3800],[0,3800],[0,3800],[0,3800],[0,3800],[0,3800],[0,3800],[0,3800],[0,3800],[0,3800],[0,3800],[0,3800],[0,3800],[0,3800],[0,3800],[0,3800],[0,3800],[0,3800],[0,3800],[0,3800],[0,3800],[0,3800],[0,3800],[0,3800],[0,3800],[0,3800],[0,3800],[0,3800],[0,3800],[0,3800],[0,3800],[0,3800],[0,3800],[0,3800],[0,3800],[0,3800],[0,3800],[0,3800],[0,3800],[0,3800],[0,3800],[0,3800],[0,3800],[0,3800],[0,3800],[0,3800],[0,3800],[0,3800],[0,3800],[0,3800],[0,3800],[0,3800],[0,3800],[0,3800],[0,3800],[0,3800],[0,3800],[0,3800],[0,3800],[0,3800],[0,3800],[0,3800],[0,3800],[0,3800],[0,3800],[0,3800],[0,3800],[0,3800],[0,3800],[0,3800],[0,3800],[0,3800],[0,3800],[0,3800],[0,3800],[0,3800],[0,3800],[0,3800],[0,3800],[0,3800],[0,3800],[0,3800],[0,3800],[0,3800],[0,3800],[0,3800],[0,3800],[0,3800],[0,3800],[0,3800],[0,3800],[0,3800],[0,3800],[0,3800],[0,3800],[0,3800],[0,3800],[0,3800],[0,3800],[0,3800],[0,3800],[0,3800],[0,3800],[0,3800],[0,3800],[0,3800],[0,3800],[0,3800],[0,3800],[0,3800],[0,3800],[0,3800],[0,3800],[0,3800],[0,3800],[0,3800],[0,3800],[0,3800],[0,3800],[0,3800],[0,3800],[0,3800],[0,3800],[0,3800],[0,3800],[0,3800],[0,3800],[0,3800],[0,3800],[0,3800],[0,3800],[0,3800],[0,3800],[0,3800],[0,3800],[0,3800],[0,3800],[0,3800],[0,3800],[0,3800],[0,3800],[0,3800],[0,3800],[0,3800],[0,3800],[0,3800],[0,3800],[0,3800],[0,3800],[0,3800],[0,3800],[0,3800],[0,3800],[0,3800],[0,3800],[0,3800],[0,3800],[0,3800],[0,3800],[0,3800],[0,3800],[0,3800],[0,3800],[0,3800],[0,3800],[0,3800],[0,3800],[0,3800],[0,3800],[0,3800],[0,3800],[0,3800],[0,3800],[0,3800],[0,3800],[0,3800],[0,3800],[0,3800],[0,3800],[0,3800],[0,3800],[0,3800],[0,3800],[0,3800],[0,3800],[0,3800],[0,3800],[0,3800],[0,3800],[0,3800],[0,3800],[0,3800],[0,3800],[0,3800],[0,3800],[0,3800],[0,3800],[0,3800],[0,3800],[0,3800],[0,3800],[0,3800],[0,3800],[0,3800],[0,3800],[0,3800],[0,3800],[0,3800],[0,3800],[0,3800],[0,3800],[0,3800],[0,3800],[0,3800],[0,3800],[0,3800],[0,3800],[0,3800],[0,3800],[0,3800],[0,3800],[0,3800],[0,3800],[0,3800],[0,3800],[0,3800],[0,3800],[0,3800],[0,3800],[0,3800],[0,3800],[0,3800],[0,3800],[0,3800],[0,3800],[0,3800],[0,3800],[0,3800],[0,3800],[0,3800],[0,3800],[0,3800],[0,3800],[0,3800],[0,3800],[0,3800],[0,3800],[0,3800],[0,3800],[0,3800],[0,3800],[0,3800],[0,3800],[0,3800],[0,3800],[0,3800],[0,3800],[0,3800],[0,3800],[0,3800],[0,3800],[0,3800],[0,3800],[0,3800],[0,3800],[0,3800],[0,3800],[0,3800],[0,3800],[0,3800],[0,3800],[0,3800],[0,3800],[0,3800],[0,3800],[0,3800],[0,3800],[0,3800],[0,3800],[0,3800],[0,3800],[0,3800],[0,3800],[0,3800],[0,3800],[0,3800],[0,3800],[0,3800],[0,3800],[0,3800],[0,3800],[0,3800],[0,3800],[0,3800],[0,3800],[0,3800],[0,3800],[0,3800],[0,3800],[0,3800],[0,3800],[0,3800],[0,3800],[0,3800],[0,3800],[0,3800],[0,3800],[0,3800],[0,3800],[0,3800],[0,3800],[0,3800],[0,3800],[0,3800],[0,3800],[0,3800],[0,3800],[0,3800],[0,3800],[0,3800],[0,3800],[0,3800],[0,3800],[0,3800],[0,3800],[0,3800],[0,3800],[0,3800],[0,3800],[0,3800],[0,3800],[0,3800],[0,3800],[0,3800],[0,3800],[0,3800],[0,3800],[0,3800],[0,3800],[0,3800],[0,3800],[0,3800],[0,3800],[0,3800],[0,3800],[0,3800],[0,3800],[0,3800],[0,3800],[0,3800],[0,3800],[0,3800],[0,3800],[0,3800],[0,3800],[0,3800],[0,3800],[0,3800],[0,3800],[0,3800],[0,3800],[0,3800],[0,3800],[0,3800],[0,3800],[0,3800],[0,3800],[0,3800],[0,3800],[0,3800],[0,3800],[0,3800],[0,3800],[0,3800],[0,3800],[0,3800],[0,3800],[0,3800],[0,3800],[0,3800],[0,3800],[0,3800],[0,3800],[0,3800],[0,3800],[0,3800],[0,3800],[0,3800],[0,3800],[0,3800],[0,3800],[0,3800],[0,3800],[0,3800],[0,3800],[0,3800],[0,3800],[0,3800],[0,3800],[0,3800],[0,3800],[0,3800],[0,3800],[0,3800],[0,3800],[0,3800],[0,3800],[0,3800],[0,3800],[0,3800],[0,3800],[0,3800],[0,3800],[0,3800],[0,3800],[0,3800],[0,3800],[0,3800],[0,3800],[0,3800],[0,3800],[0,3800],[0,3800],[0,3800],[0,3800],[0,3800],[0,3800],[0,3800],[0,3800],[0,3800],[0,3800],[0,3800],[0,3800],[0,3800],[0,3800],[0,3800],[0,3800],[0,3800],[0,3800],[0,3800],[0,3800],[0,3800],[0,3800],[0,3800],[0,3800],[0,3800],[0,3800],[0,3800],[0,3800],[0,3800],[0,3800],[0,3800],[0,3800],[0,3800],[0,3800],[0,3800],[0,3800],[0,3800],[0,3800],[0,3800],[0,3800],[0,3800],[0,3800],[0,3800],[0,3800],[0,3800],[0,3800],[0,3800],[0,3800],[0,3800],[0,3800],[0,3800],[0,3800],[0,3800],[0,3800],[0,3800],[0,3800],[0,3800],[0,3800],[0,3800],[0,3800],[0,3800],[0,3800],[0,3800],[0,3800],[0,3800],[0,3800],[0,3800],[0,3800],[0,3800],[0,3800],[0,3800],[0,3800],[0,3800],[0,3800],[0,3800],[0,3800],[0,3800],[0,3800],[0,3800],[0,3800],[0,3800],[0,3800],[0,3800],[0,3800],[0,3800],[0,3800],[0,3800],[0,3800],[0,3800],[0,3800],[0,3800],[0,3800],[0,3800],[0,3800],[0,3800],[0,3800],[0,3800],[0,3800],[0,3800],[0,3800],[0,3800],[0,3800],[0,3800],[0,3800],[0,3800],[0,3800],[0,3800],[0,3800],[0,3800],[0,3800],[0,3800],[0,3800],[0,3800],[0,3800],[0,3800],[0,3800],[0,3800],[0,3800],[0,3800],[0,3800],[0,3800],[0,3800],[0,3800],[0,3800],[0,3800],[0,3800],[0,3800],[0,3800],[0,3800],[0,3800],[0,3800],[0,3800],[0,3800],[0,3800],[0,3800],[0,3800],[0,3800],[0,3800],[0,3800],[0,3800],[0,3800],[0,3800],[0,3800],[0,3800],[0,3800],[0,3800],[0,3800],[0,3800],[0,3800],[0,3800],[0,3800],[0,3800],[0,3800],[0,3800],[0,3800],[0,3800],[0,3800],[0,3800],[0,3800],[0,3800],[0,3800],[0,3800],[0,3800],[0,3800],[0,3800],[0,3800],[0,3800],[0,3800],[0,3800],[0,3800],[0,3800],[0,3800],[0,3800],[0,3800],[0,3800],[0,3800],[0,3800],[0,3800],[0,3800],[0,3800],[0,3800],[0,3800],[0,3800],[0,3800],[0,3800],[0,3800],[0,3800],[0,3800],[0,3800],[0,3800],[0,3800],[0,3800],[0,3800],[0,3800],[0,3800],[0,3800],[0,3800],[0,3800],[0,3800],[0,3800],[0,3800],[0,3800],[0,3800],[0,3800],[0,3800],[0,3800],[0,3800],[0,3800],[0,3800],[0,3800],[0,3800],[0,3800],[0,3800],[0,3800],[0,3800],[0,3800],[0,3800],[0,3800],[0,3800],[0,3800],[0,3800],[0,3800],[0,3800],[0,3800],[0,3800],[0,3800],[0,3800],[0,3800],[0,3800],[0,3800],[0,3800],[0,3800],[0,3800],[0,3800],[0,3800],[0,3800],[0,3800],[0,3800],[0,3800],[0,3800],[0,3800],[0,3800],[0,3800],[0,3800],[0,3800],[0,3800],[0,3800],[0,3800],[0,3800],[0,3800],[0,3800],[0,3800],[0,3800],[0,3800],[0,3800],[0,3800],[0,3800],[0,3800],[0,3800],[0,3800],[0,3800],[0,3800],[0,3800],[0,3800],[0,3800],[0,3800],[0,3800],[0,3800],[0,3800],[0,3800],[0,3800],[0,3800],[0,3800],[0,3800],[0,3800],[0,3800],[0,3800],[0,3800],[0,3800],[0,3800],[0,3800],[0,3800],[0,3800],[0,3800],[0,3800],[0,3800],[0,3800],[0,3800],[0,3800],[0,3800],[0,3800],[0,3800],[0,3800],[0,3800],[0,3800],[0,3800],[0,3800],[0,3800],[0,3800],[0,3800],[0,3800],[0,3800],[0,3800],[0,3800],[0,3800],[0,3800],[0,3800],[0,3800],[0,3800],[0,3800],[0,3800],[0,3800],[0,3800],[0,3800],[0,3800],[0,3800],[0,3800],[0,3800],[0,3800],[0,3800],[0,3800],[0,3800],[0,3800],[0,3800],[0,3800],[0,3800],[0,3800],[0,3800],[0,3800],[0,3800],[0,3800],[0,3800],[0,3800],[0,3800],[0,3800],[0,3800],[0,3800],[0,3800],[0,3800],[0,3800],[0,3800],[0,3800],[0,3800],[0,3800],[0,3800],[0,3800],[0,3800],[0,3800],[0,3800],[0,3800],[0,3800],[0,3800],[0,3800],[0,3800],[0,3800],[0,3800],[0,3800],[0,3800],[0,3800],[0,3800],[0,3800],[0,3800],[0,3800],[0,3800],[0,3800],[0,3800],[0,3800],[0,3800],[0,3800],[0,3800],[0,3800],[0,3800],[0,3800],[0,3800],[0,3800],[0,3800],[0,3800],[0,3800],[0,3800],[0,3800],[0,3800],[0,3800],[0,3800],[0,3800],[0,3800],[0,3800],[0,3800],[0,3800],[0,3800],[0,3800],[0,3800],[0,3800],[0,3800],[0,3800],[0,3800],[0,3800],[0,3800],[0,3800],[0,3800],[0,3800],[0,3800],[0,3800],[0,3800],[0,3800],[0,3800],[0,3800],[0,3800],[0,3800],[0,3800],[0,3800],[0,3800],[0,3800],[0,3800],[0,3800],[0,3800],[0,3800],[0,3800],[0,3800],[0,3800],[0,3800],[0,3800],[0,3800],[0,3800],[0,3800],[0,3800],[0,3800],[0,3800],[0,3800],[0,3800],[0,3800],[0,3800],[0,3800],[0,3800],[0,3800],[0,3800],[0,3800],[0,3800],[0,3800],[0,3800],[0,3800],[0,3800],[0,3800],[0,3800],[0,3800],[0,3800],[0,3800],[0,3800],[0,3800],[0,3800],[0,3800],[0,3800],[0,3800],[0,3800],[0,3800],[0,3800],[0,3800],[0,3800],[0,3800],[0,3800],[0,3800],[0,3800],[0,3800],[0,3800],[0,3800],[0,3800],[0,3800],[0,3800],[0,3800],[0,3800],[0,3800],[0,3800],[0,3800],[0,3800],[0,3800],[0,3800],[0,3800],[0,3800],[0,3800],[0,3800],[0,3800],[0,3800],[0,3800],[0,3800],[0,3800],[0,3800],[0,3800],[0,3800],[0,3800],[0,3800],[0,3800],[0,3800],[0,3800],[0,3800],[0,3800],[0,3800],[0,3800],[0,3800],[0,3800],[0,3800],[0,3800],[0,3800],[0,3800],[0,3800],[0,3800],[0,3800],[0,3800],[0,3800],[0,3800],[0,3800],[0,3800],[0,3800],[0,3800],[0,3800],[0,3800],[0,3800],[0,3800],[0,3800],[0,3800],[0,3800],[0,3800],[0,3800],[0,3800],[0,3800],[0,3800],[0,3800],[0,3800],[0,3800],[0,3800],[0,3800],[0,3800],[0,3800],[0,3800],[0,3800],[0,3800],[0,3800],[0,3800],[0,3800],[0,3800],[0,3800],[0,3800],[0,3800],[0,3800],[0,3800],[0,3800],[0,3800],[0,3800],[0,3800],[0,3800],[0,3800],[0,3800],[0,3800],[0,3800],[0,3800],[0,3800],[0,3800],[0,3800],[0,3800],[0,3800],[0,3800],[0,3800],[0,3800],[0,3800],[0,3800],[0,3800],[0,3800],[0,3800],[0,3800],[0,3800],[0,3800],[0,3800],[0,3800],[0,3800],[0,3800],[0,3800],[0,3800],[0,3800],[0,3800],[0,3800],[0,3800],[0,3800],[0,3800],[0,3800],[0,3800],[0,3800],[0,3800],[0,3800],[0,3800],[0,3800],[0,3800],[0,3800],[0,3800],[0,3800],[0,3800],[0,3800],[0,3800],[0,3800],[0,3800],[0,3800],[0,3800],[0,3800],[0,3800],[0,3800],[0,3800],[0,3800],[0,3800],[0,3800],[0,3800],[0,3800],[0,3800],[0,3800],[0,3800],[0,3800],[0,3800],[0,3800],[0,3800],[0,3800],[0,3800],[0,3800],[0,3800],[0,3800],[0,3800],[0,3800],[0,3800],[0,3800],[0,3800],[0,3800],[0,3800],[0,3800],[0,3800],[0,3800],[0,3800],[0,3800],[0,3800],[0,3800],[0,3800],[0,3800],[0,3800],[0,3800],[0,3800],[0,3800],[0,3800],[0,3800],[0,3800],[0,3800],[0,3800],[0,3800],[0,3800],[0,3800],[0,3800],[0,3800],[0,3800],[0,3800],[0,3800],[0,3800],[0,3800],[0,3800],[0,3800],[0,3800],[0,3800],[0,3800],[0,3800],[0,3800],[0,3800],[0,3800],[0,3800],[0,3800],[0,3800],[0,3800],[0,3800],[0,3800],[0,3800],[0,3800],[0,3800],[0,3800],[0,3800],[0,3800],[0,3800],[0,3800],[0,3800],[0,3800],[0,3800],[0,3800],[0,3800],[0,3800],[0,3800],[0,3800],[0,3800],[0,3800],[0,3800],[0,3800],[0,3800],[0,3800],[0,3800],[0,3800],[0,3800],[0,3800],[0,3800],[0,3800],[0,3800],[0,3800],[0,3800],[0,3800],[0,3800],[0,3800],[0,3800],[0,3800],[0,3800],[0,3800],[0,3800],[0,3800],[0,3800],[0,3800],[0,3800],[0,3800],[0,3800],[0,3800],[0,3800],[0,3800],[0,3800],[0,3800],[0,3800],[0,3800],[0,3800],[0,3800],[0,3800],[0,3800],[0,3800],[0,3800],[0,3800],[0,3800],[0,3800],[0,3800],[0,3800],[0,3800],[0,3800],[0,3800],[0,3800],[0,3800],[0,3800],[0,3800],[0,3800],[0,3800],[0,3800],[0,3800],[0,3800],[0,3800],[0,3800],[0,3800],[0,3800],[0,3800],[0,3800],[0,3800],[0,3800],[0,3800],[0,3800],[0,3800],[0,3800],[0,3800],[0,3800],[0,3800],[0,3800],[0,3800],[0,3800],[0,3800],[0,3800],[0,3800],[0,3800],[0,3800],[0,3800],[0,3800],[0,3800],[0,3800],[0,3800],[0,3800],[0,3800],[0,3800],[0,3800],[0,3800],[0,3800],[0,3800],[0,3800],[0,3800],[0,3800],[0,3800],[0,3800],[0,3800],[0,3800],[0,3800],[0,3800],[0,3800],[0,3800],[0,3800],[0,3800],[0,3800],[0,3800],[0,3800],[0,3800],[0,3800],[0,3800],[0,3800],[0,3800],[0,3800],[0,3800],[0,3800],[0,3800],[0,3800],[0,3800],[0,3800],[0,3800],[0,3800],[0,3800],[0,3800],[0,3800],[0,3800],[0,3800],[0,3800],[0,3800],[0,3800],[0,3800],[0,3800],[0,3800],[0,3800],[0,3800],[0,3800],[0,3800],[0,3800],[0,3800],[0,3800],[0,3800],[0,3800],[0,3800],[0,3800],[0,3800],[0,3800],[0,3800],[0,3800],[0,3800],[0,3800],[0,3800],[0,3800],[0,3800],[0,3800],[0,3800],[0,3800],[0,3800],[0,3800],[0,3800],[0,3800],[0,3800],[0,3800],[0,3800],[0,3800],[0,3800],[0,3800],[0,3800],[0,3800],[0,3800],[0,3800],[0,3800],[0,3800],[0,3800],[0,3800],[0,3800],[0,3800],[0,3800],[0,3800],[0,3800],[0,3800],[0,3800],[0,3800],[0,3800],[0,3800],[0,3800],[0,3800],[0,3800],[0,3800],[0,3800],[0,3800],[0,3800],[0,3800],[0,